{"layers.0.weight": [[-0.16677570949617984, 0.17923720308320093, 0.09613885022005404, 0.13942676408564061, 0.32612738066005176, 0.09638158952701935, 0.03383945149498224, 0.11077874304293074, 0.07176125919924993, 0.2619726975596937, 0.29879444951734974, 0.13458353784665558, -0.001961144871187045, 0.14112475176181705, 0.11721265993103264, 0.31313374753954315, 0.035127874124633564, 0.09250700529743025, 0.2605759220698996, -0.027080706212770242, 0.07886299524419096, 0.18056634142739889, 0.08259893959112205, 0.15674546925395028, 0.28949228508489094, -0.3166640434236467, -0.2742571346049039, 0.001047713663375862, -0.1537229418981642], [0.0010604871539078191, 0.23514549354907902, 0.033021788363661424, 0.006841394277945221, 0.16868900348482557, 0.2121420174219069, 0.343569260020008, 0.15787989008958006, 0.05288821388171471, 0.1984597099105507, 0.34050655228485366, 0.06667520556229883, 0.19812936767594855, 0.018461462462098645, 0.291399186622369, 0.10370141558698007, 0.3048634074641714, 0.25379982006098606, 0.27435705787540626, 0.08925580441383979, 0.23963632655283293, 0.21121921580807887, 0.14141704307334776, -0.00039913645006663616, 0.037571140127105135, -0.2037150895152485, -0.08021397034810843, -0.3402741002401573, -0.08349900799477963], [-0.049064454705191676, 0.22972709221663012, -0.04228674436751484, 0.2752183846394466, 0.2291132555961897, 0.2702156643171928, 0.08003760841816676, 0.2617651122204516, 0.2370788260930388, 0.15870499006105293, 0.20109187329787115, 0.2206834232876972, 0.21150326151231333, 0.18284669643579443, 0.17087082024264064, 0.13466860687766313, -0.02192807168997689, 0.17914296475962188, 0.3241434824136774, 0.2750409120167139, 0.05296620813250724, 0.042486764002240274, 0.2510050997752252, 0.21518845520220853, 0.07270225708578489, -0.07433582097291946, -0.1669003963470459, -0.25701217334367477, -0.1577836126089096], [-0.2356130369597735, -0.02859179361835148, -0.03670392277795341, 0.27151538404015935, 0.03544932821888844, 0.01272463457255907, 0.11055639323512927, 0.2794979219661941, 0.14363096797577635, 0.12093256374704925, 0.3036850438537896, 0.1389710050150105, 0.019464779308176246, 0.1824250930372571, 0.18875408948013464, 0.12071339974935234, -0.01079286939677214, 0.22338963463845865, 0.3151917058783935, 0.23554877945720196, 0.324235795845913, 0.21106883244881794, 0.1728907660171564, 0.06677927564784795, 0.3301512170803215, 0.12631987035274506, 0.015552156685532413, 0.08274747431278229, -0.01173342764377594], [-0.1822507132971588, 4.4245932724953905, -0.25256678971982255, -0.06092994785911488, 0.7579524340294839, 0.7588759131523714, -1.1151715017427817, -1.4200232558563506, -1.0762331827517682, 0.01961761733423444, 1.2520433885014783, -0.31103138743621667, -1.2267291060608216, -1.1783729788883652, 0.22183953133059547, -1.6513924563070301, -0.5572979324059716, 1.3777035961528925, 0.0946542244187792, -0.46199044387457383, 0.22446960794869075, 0.5393892695115269, 0.6331148165972442, -2.407119213969222, 1.6374577986218726, -0.16606745971657835, -0.15713325748952328, -0.1253464611510652, -0.11668093646786648], [-0.193714587925206, 0.056685834836025066, 0.26486873315319714, 0.2634830728734371, 0.31449689980265183, 0.16299202598252543, 0.32061099692886447, -0.032682791613431794, 0.2531515649053064, -0.012475445966508741, 0.12230723951750273, 0.07389693622558365, 0.007841306425909052, 0.21122643224669133, 0.1954849321526013, 0.2055537499885791, 0.15964443443336135, 0.3090076696787746, 0.3130519058772088, 0.0015249399333191716, 0.07934648513708495, 0.03798305976705156, 0.19883447821746958, 0.01361477448729339, 0.020066622427159522, 0.03225255532831797, -0.011968779778783854, -0.0719947687750756, -0.27160120956632494], [-0.28489919575838346, 0.10331814774862658, 0.3331384908641917, 0.26228135705714695, 0.17127101998674416, 0.2048077689105188, -0.007435853329633421, -0.03429346904375025, 0.12526841041026365, 0.12121528389148112, -0.0060299915542726835, -0.022464949596635978, 0.013094464801611166, 0.11231886382257178, 0.10690022190900758, 0.27453107644600333, 0.22038863946335702, 0.15633788721793518, 0.08969748572382477, 0.07356955566373875, -0.017881614064932248, 0.2956675882583685, 0.2544203842469927, 0.2852395549168779, 0.1460849671456485, -0.25201583339098726, -0.12288564164058946, -0.127377739884182, -0.18198589199936963], [-0.1573145014254427, 0.017569786558744492, 0.1344062957902842, 0.07652942795461407, 0.09244817218422424, 0.1246760614034864, 0.09969957328256766, 0.03660659148116739, 0.04771327420849351, 0.17258661874753004, 0.03131293086403397, -0.055847554110327664, 0.27669183444346473, 0.12054876187428802, 0.17697742112113365, 0.0179975678837303, -0.05265697290211246, 0.1045348598057631, 0.2615585263400817, 0.14171648711665508, 0.04885873471998202, 0.13298221037941912, -0.011071406345987949, 0.10653344565023379, 0.10978920857690774, 0.07005794054864496, -0.031812410877020476, -0.06937269074591632, -0.11520205580148267], [0.00803762674331665, -0.00022019445896148682, -0.08855170756578445, 0.07828755676746368, 0.11451585590839386, 0.12020979821681976, 0.07908974587917328, -0.1398751437664032, 0.06040303409099579, -0.018698900938034058, 0.002484053373336792, 0.11171300709247589, -0.069418765604496, 0.14050595462322235, 0.1461244374513626, 0.07898573577404022, 0.1648537963628769, -0.09745513647794724, -0.1386217474937439, 0.11104555428028107, 0.09679843485355377, 0.1300026923418045, -0.09768852591514587, 0.12686266005039215, -0.12184274941682816, 0.0017625987529754639, 0.15869002044200897, -0.04971840977668762, -0.11171872913837433], [-0.13959398865699768, -0.04010075330734253, -0.1761881411075592, 0.012746214866638184, -0.08638625591993332, 0.1529337614774704, -0.07738103717565536, 0.12431739270687103, 0.16046078503131866, -0.10452386736869812, 0.18291853368282318, 0.010825902223587036, 0.1385890692472458, 0.17347736656665802, -0.009472548961639404, -0.17195595800876617, 0.1489700824022293, -0.009625330567359924, 0.00676630437374115, -0.15246088802814484, 0.04134707152843475, 0.1343104988336563, 0.050383806228637695, -0.14570440351963043, -0.013428136706352234, -0.029852211475372314, 0.1073494702577591, 0.0247967392206192, -0.03096427023410797], [0.13844593429085658, -3.5781698345231367, 0.18294469064512617, 0.12870645703531233, -0.5137628616857397, -0.3204236612435293, -0.14916448997738116, -0.045368900079409934, -0.20965113959014675, 1.076411931180801, 1.9953884590759075, 3.226568097958404, 0.2556231950613939, 0.5622278750182744, 0.8063935828364603, -0.324581716739114, 0.08908982100914173, -0.3541645959972681, 0.21506771049083576, 0.04835416956925774, 0.29061021926494823, -0.02654664360768054, -2.007635099165666, -0.9895583738066692, -0.3794812217292296, -0.6847919808776443, -0.655944198738712, -0.6414320654966085, -0.650546744510999], [1.7263276061103099, 0.610458916091008, 0.2647843025289453, 0.5304898074752186, 0.39759836297734374, 0.40734474041930885, -0.28276906638436206, 0.23396880412507842, -0.19900119558572502, -0.27360325576448263, 1.2622787823827721, 0.8654385957009048, -0.22783679242238034, -0.3182096590923791, 0.05288688400070147, -0.3358919225358778, -0.002617633589093306, 0.09163429429227951, 0.7045385272822641, 0.2549859911689221, -0.35770909842022214, 0.15960890761139404, 1.484267164215751, 0.7425535691746247, -0.14589141495210126, 0.6798704306983546, 1.2162478871094786, 1.4120268541533538, 1.5063611332396063], [0.018226571458020435, 0.0711015444581593, -0.058658590136907385, 0.032633858137511046, -0.017230817551352983, 0.045196682680401, 0.12604449361842235, 0.2245385242038291, 0.12265763431170941, 0.2507507708770381, 0.012304875369706935, 0.2897400804253027, 0.04214198190476013, 0.2809133979424899, 0.11373564689059974, -0.07536772362247232, 0.01897239209694245, 0.2896177192755877, 0.22772326711374244, 0.03398998680802244, -0.04721436848290351, 0.13313320977619694, -0.005656659383876928, 0.09843698536643555, 0.2211166508240332, 0.009874539570549462, -0.024816913227148688, -0.11416839716849113, -0.12009990921900489], [-0.27683169395156254, 0.0883648531557595, 0.12432900614988608, -0.0840023984845856, -0.02294043656248483, 0.16555444701304098, 0.19065907426398845, -0.014031654467466665, 0.1675397414342849, 0.24373446621888128, 0.06343349053710605, -0.00026614380948168046, 0.25176750264803865, 0.18317806597299013, 0.23378113688863922, -0.053759021766552874, 0.15649329694876896, -0.07957599404922006, 0.20298236470034128, 0.16042760487747498, 0.12309535430089094, 0.16978934829116774, 0.2339229754524585, 0.027554476935005314, 0.25059397187644816, -0.11106114894344636, -0.0785077090389227, 0.04086238722412648, -0.10855122465793264], [-0.13976581394672394, 0.019300326704978943, -0.09926380962133408, 0.011564955115318298, -0.022841379046440125, -0.11460405588150024, 0.06808708608150482, 0.12838275730609894, -0.1712118685245514, 0.12822474539279938, -0.040202632546424866, 0.13842521607875824, 0.05126453936100006, -0.0826340988278389, 0.04653275012969971, 0.1607934981584549, -0.027200207114219666, 0.13438059389591217, 0.07785893976688385, -0.1481708437204361, 0.06618358194828033, -0.13981759548187256, 0.07281126081943512, 0.06067793071269989, 0.07552675902843475, -0.025943130254745483, 0.09226243197917938, -0.06638328731060028, -0.011661231517791748], [-0.034992111776741865, 0.20751963690384934, 0.09720962382596446, 0.20527840417552318, 0.24463525045389264, 0.29554197432138, 0.2611052994206858, 0.2990606371459141, -0.055181141091832614, -0.06020514262062202, 0.21872361736899557, 0.30628380483639217, 0.2993629483358252, 0.03819974746703239, 0.1302175808844952, 0.26660995437558055, 0.020211066413002264, 0.030352834826177934, 0.04186481402209935, 0.02957528974884249, 0.06362218278870874, 0.16162266412491644, 0.2531116265383288, 0.2235030206458935, 0.16100900985756475, -0.130457276994978, 0.05160489065825724, -0.10409650510962622, -0.015011652173866522], [-0.3089624559222664, 0.02234844460466749, -0.02731183753218081, 0.08100820994778818, 0.16419316163198952, 0.30867994526990944, 0.3016960683469182, 0.1344185298621968, 0.2973598484174818, 0.007639623960630979, 0.11717065519278175, 0.0065915593062909695, 0.20446373004519897, 0.2917870915409356, 0.09383964234681526, 0.09834837752910632, -0.01651561340355251, -0.030073331370994973, -0.00954833853005897, -0.00964956854980303, 0.15023854548655963, -0.009561034646850996, 0.13442800974294078, 0.2705090330903364, 0.2528366649700899, -0.022858115030989723, -0.21443399080866274, 0.16474085694595114, -0.08810148364409004], [-0.02234819531440735, -0.14412015676498413, -0.0034683197736740112, 0.14592517912387848, 0.17492757737636566, 0.04644790291786194, -0.04431848227977753, -0.18349044024944305, -0.10356530547142029, 0.09480883181095123, 0.039026468992233276, 0.08306844532489777, -0.018926382064819336, 0.05113045871257782, 0.11741043627262115, 0.10209248960018158, -0.03244622051715851, 0.06083504855632782, 0.1519841104745865, 0.07039131224155426, -0.1056574359536171, 0.16849686205387115, 0.12393729388713837, -0.09843417257070541, 0.15644524991512299, 0.0609014630317688, 0.14656959474086761, -0.034283027052879333, -0.14284862577915192], [0.19646638265503938, 0.8608581042068753, 0.5567506805244882, 3.093529101081452, -0.12670563532029702, -0.41589897743445875, 0.18673706286240496, -0.1583309074284168, -0.05245697251471735, 1.4853726586270481, -1.482366362588758, -1.677863804373782, -0.17156716329207172, -2.5284265336213325, 0.41561018322717513, -0.8203433851561616, -0.8911378656983536, 0.8766933970305455, 0.1867036687507302, 0.0401016588969425, 0.022968370763140455, 1.2374433329177519, -0.5534458653015967, -0.09589883757962392, -0.19997856619880167, -0.5140109110460656, -0.5712459274942495, -0.552834060175212, -0.5167595859826122], [-0.18262278214511898, 0.08896632481190488, 0.32089396255031827, -0.023178935181700822, 0.10897581114087564, 0.2508260287939183, 0.2110134530569491, 0.22754532363241045, 0.03612445722743768, 0.3204818865368881, 0.18616824091012418, 0.004747557208040525, 0.27266152114918474, 0.2977760290360157, 0.3341990623517452, 0.19006361271427377, 0.036160745928335736, 0.18472926433238568, -0.029212127753907, 0.043867899116940716, 0.09215027269796268, 0.10721770922371748, 0.07894378146235989, 0.12958189131591324, 0.1727825418201469, -0.039715031464175314, -0.1439503378461946, -0.02557195493203109, -0.09915268526010236], [0.008570401728392595, 0.2189119955364912, 0.24425762311176497, 0.2549749840549909, 0.10647389203752387, 0.12164138476065364, -0.02294678199594356, 0.13164093212975253, 0.024073368807634395, 0.13406707674329116, 0.2631112924513423, 0.31093279346086194, 0.02270655592820842, 0.13172634871838676, 0.14736620344195303, 0.26773783842094184, 0.07615075422387722, 0.10936688941744853, 0.1376792802236797, 0.2065403998011819, 0.21864570702553474, 0.321583186350064, 0.29714082464515523, 0.19860966298857793, -0.02734711494718479, 0.00742333847664805, -0.0968778280688588, -0.07411695399910004, -0.32399938595972416], [2.5260761689146296, 0.6081444491284728, -0.19330005936850264, -0.08808609430733719, -0.19376851496008388, -5.86577907612338e-05, 0.14186765345465824, 0.037518005676046, 0.03993612214980239, 0.4658055972893677, 0.4347185275802838, 0.596684527502188, -0.158026322167499, 0.41142212752888296, -0.11991448421596466, 0.19733265669132324, 0.19733309736681973, -0.15852210880078832, -0.17477739413576707, -0.21101453925704863, -0.1183547030249323, -0.009494622784766364, -0.07751339997398635, 0.34923157250122067, 0.40221267556050466, -2.572701892314434, -2.452903410658995, -2.4330088594073715, -2.44064330640226], [-0.19642024393131402, 0.01916038958990667, 0.29771149548601067, 0.05836831295596976, 0.18027211651122774, 0.0510448675952608, 0.14704141484178615, 0.20806538012855688, 0.29466662143741373, 0.13760171950858296, 0.02973331422426522, 0.16821447327844916, 0.02640985198507683, 0.20192140749458867, 0.29000933918500704, 0.3105667623502597, -0.03476500711359928, 0.269764512660047, 0.10857795424086904, 0.29334578848994397, 0.2735548174156336, 0.01247427477909951, 0.13286557864044035, 0.11736807924362683, 0.005344579285701487, -0.030097365724325156, 0.004253012402198407, -0.3243354388345547, -0.19025451388581374], [-0.21124414593037857, 0.17826502851571877, 0.07666502822887362, 0.3174500425390831, 0.18193698890510943, -0.028830147444727682, 0.1750324526728952, 0.08516349790665549, 0.01821442648230564, 0.3163334296950354, 0.24467872726916828, 0.1616314790826, 0.14796854138880752, 0.13502076950611328, 0.10641271612823631, 0.19074017289776513, 0.2101108340842512, 0.27053163208887965, 0.05063110246721996, 0.2376206534065637, 0.023658234805632734, 0.23515461738448407, 0.30769712934239135, 0.011485357021780268, 0.060537135794559174, -0.037406091688384394, -0.14685820354667364, -0.040582398886408945, 0.024208358165026093], [-0.2608363217254281, 0.22971385946476208, 0.1782481081018936, 0.13724436021430858, 0.05635360505286027, 0.13498617047050052, 0.07790047879963001, 0.23323225460368324, 0.026455795041725967, 0.007022723602709387, 0.09673106221039704, -0.05284527128959373, 0.09401213906169366, -0.022374907922663032, -0.05476408461015019, 0.12254851955399922, 0.031055758262138012, 0.10902657379793484, 0.00524612278127229, 0.14482436770241428, 0.1979274914300115, 0.013567571574073647, 0.0741560307392596, -0.05767506725368307, -0.05293234618943557, -0.21951495643224972, -0.008786566146479638, -0.04272061375394452, -0.25184121649160923], [-0.0628536042494083, 0.05927476623531913, 0.32229640498288303, 0.10648780744947847, 0.11185860650316906, 0.020509433840594806, 0.3015238339823289, 0.27475183063859937, 0.12837044887335256, 0.2509163717462594, 0.26743045970638146, 0.23456760663814907, 0.05554816672495292, 0.21325843895625882, 0.22934806490810963, 0.1992844223418818, 0.13589527305930377, 0.012599681933290748, 0.33349190370887294, 0.12369349827049023, 0.04243132107283963, 0.12467316361453275, 0.2569816268479047, 0.0663634288420066, 0.13886007708094786, -0.15900302300407176, -0.17613299980884928, -0.03170064400516666, -0.20303993457785025], [-0.04765216624175186, 0.29079700061070296, 0.3108775660469807, 0.33392284995954286, 0.18026221470983872, 0.2629590327812976, 0.10117659278521093, 0.011526954466861429, 0.0018339857601391949, 0.0597403349237943, 0.12743181462909473, 0.25710744924762596, 0.2206699432037803, 0.3001582924293659, 0.014873738106646018, 0.08781722165515539, 0.0032647368840352906, 0.211889271855461, 0.17291449250067006, 0.23690290120281904, 0.3021559021850264, 0.1789896009219612, 0.01340531653804896, 0.27132678119073084, 0.10628583366205464, -0.23486055676059941, 0.01801722527649887, -0.045195135191963456, -0.08958814734205621], [-0.16240099448050913, 0.2119589563845068, 0.17097841545574335, 0.10755739416984647, 0.2742098148253825, 0.1034317135749598, 0.16654823766575963, 0.34018755353023333, 0.15321403030517047, 0.1616035492232543, 0.11484911859783913, 0.24073899387185022, 0.06469808579956011, 0.20401327319083734, 0.05144598976324066, 0.06850072647603217, 0.27256248934894806, 0.09736432121430671, 0.29086876069029793, 0.08574225055635915, 0.11813192199587873, 0.031188615645891454, 0.1363081103791923, 0.34051621559540013, 0.0631012506165774, -0.19674301984440803, -0.10587420306941411, 0.012005287384305834, -0.2087692911296355], [2.73435697165158, 0.6895891285875488, 0.08190088121320098, 0.04620644708034781, 0.2159809594784847, 0.38699482739236707, 0.26760526600867984, 0.3270029973122608, 0.23335149048432077, -0.1950591436707161, -0.08875391643481938, -0.10035565703437559, 0.06453399817457722, 0.1028345568294746, 0.03509411268315593, 0.2503766286115915, 0.1775566159828344, 0.20033812579108823, -0.06924423245493905, 0.27832120480246314, 0.13476181033597587, 0.024279214559982252, 0.020790834676289213, 0.31652303637358375, -0.1657175077411154, -2.633506134872518, -2.405627818941107, -2.3267729375579123, -2.311691620925917]], "layers.0.bias": [-0.032125807103463834, -0.3422372706450121, 0.009945325743182269, -0.22961401093131173, -0.061689461948751835, -0.0302149836474838, -0.3204364223107453, -0.020967105559522744, -0.1639275848865509, 0.11338303983211517, -0.6894626288919619, 1.4057593346048753, -0.013611591766100219, 0.018183618629823217, 0.08446173369884491, -0.03724032099818036, -0.13041279355646962, -0.13538119196891785, -0.4421871007870904, -0.016426723099800998, -0.17681263068184097, -2.6328026378652893, 0.027344989849066217, -0.00010595314815467731, -0.2074702252260757, 0.02730623054741183, -0.3023150126478354, -0.28972350855086776, -2.4113726954171653], "layers.2.weight": [[-0.1994060086392526, -0.23820619827006967, 0.014683857560157776, -0.05551008880138397, -0.15458038676534444, -0.15056689073177834, -0.15319333074449246, -0.0760742547637295, -0.1436583548784256, -0.05126647651195526, -0.260805638941295, -0.29065048446986363, -0.00865660443125848, -0.13663658499717712, -0.15143460035324097, -0.11913789808750153, -0.05027842080660122, 0.06167265772819519, 0.007701881041574519, -0.06324807259646971, 0.021085673927777444, -0.16640365208198904, -0.028192747651144028, 0.06530742347240448, -0.1778686602871373, -0.3075785017859026, -0.034376066260960084, -0.11720840004381543, -0.13567730584721216], [-0.2536845928009327, -0.1507640210728468, 0.008738845586776733, 0.10124294459819794, -0.09136364391356223, -0.10657288696728219, 0.013405754766446218, -0.3107382915446413, 0.025313258171081543, -0.015099689364433289, -0.2939158965556124, -0.2815715713656418, -0.2722746912851888, 0.14880014955997467, -0.11846067756414413, 0.16093800961971283, -0.31888206218194887, 0.17924465239048004, -0.0038119511755742943, -0.11482493579387665, -0.09758947979319015, 0.0041767507791519165, -0.06696901309964344, 0.03502558171749115, 0.012979976331938047, 0.019406860262632233, 0.011620789766311646, -0.24595860650618154, -0.08635131482971764], [-0.28411698317962353, 0.022674935510692936, 0.06936212159139346, -0.038887150242244324, -0.06641398150123315, 0.2826137099801433, -0.018161321117135785, 0.21586908202405605, 0.03838074207305908, 0.13417868316173553, -0.3480130980531682, -0.4441967187321811, 0.23945481619626963, -0.13724259899921393, -0.03165070712566376, -0.2315638737275156, 0.3237803048382789, 0.02415144443511963, -0.2245248676519087, -0.10424919501546302, 0.23351306115386142, -0.02612475065562346, 0.07350908561002673, -0.2306508551413328, 0.10972393191362434, 0.02127548817866923, 0.25894675303523884, 0.12788933736650152, 0.23318535690177242], [0.19444515399392864, 0.21473738496833003, 0.1074548214673996, -0.06588784010390025, 0.06220365570991264, -0.004077970958867734, 0.18893421939030774, 0.2861080501827346, 0.06944046914577484, 0.18120066821575165, 0.13138750456472795, -0.5480357586795073, 0.03867606143549094, -0.04174141556403125, 0.12366773188114166, -0.19574291941703884, 0.11344152024651766, 0.1462501436471939, 0.23754587125548868, 0.20524513375125475, 0.014729787058755071, 0.5285854152532844, 0.3005192685939416, -0.0740101638857227, 0.30617801574370435, 0.1323917053492762, 0.10276185511026474, 0.31146496970034393, 0.42509513560297146], [-0.10732549651597822, -0.012047217192902717, 0.14316783845424652, -0.09737298637628555, -0.30905127080117484, 0.006558777748748729, -0.058078952922383485, -0.046641842410802346, 0.05800524353981018, 0.17302869260311127, -0.20906196442602384, -0.17801198469326113, -0.08664432305539856, -0.015155673027038574, 0.12553159892559052, -0.02779129147529602, -0.07000748223470349, -0.0010078996419906616, -0.3321589572395112, -0.07255190552163705, 0.009836960185578201, -0.28456503202729233, -0.21332752676614916, 0.07502751052379608, -0.017023876488454947, -0.012988526143835154, -0.08491363238467253, -0.07387061277694475, -0.018543885324750993], [-0.29169787982163187, -0.1946505388023587, 0.021700605750083923, 0.04850150644779205, -0.24676231439394464, -0.10529067842291429, 0.08312208950519562, -0.28208980087604607, -0.04992994666099548, 0.022275686264038086, -0.07844871632365334, -0.18175853632539243, -0.04612666910092386, -0.04968173801898956, 0.04740403592586517, 0.03641423583030701, -0.17633937652567316, -0.09653627127408981, -0.11553988115637902, -0.07901340779043363, -0.24128119918099714, -0.3106900931282758, 0.02798809744959513, -0.10392407327890396, -0.22246076925766295, -0.05512764145448104, -0.008263662457466125, -0.09899239077689195, -0.16543485574571867], [0.32506750650911054, 0.09698026555450126, -0.01952957190859164, -0.0857909027692158, 0.17964580586841702, 0.02432977534537303, 0.22911937668138743, 0.029748983729308825, 0.14004983007907867, 0.04005703330039978, 0.35030971136942124, 0.25980386751615564, 0.1964430821492261, -0.10230083731734647, 0.1463921219110489, -0.01089192493599524, 0.287703052744071, 0.13196368515491486, 0.19409820268619216, 0.2695310012934862, 0.18835769616664436, 0.7054004426392627, 0.08312940396153311, -0.07198078083298211, -0.008468311148780976, 0.06016893305881207, 0.24417461979800123, -0.0005915005765157049, 0.7606011717008456], [0.2609850256976395, 0.12038254088301736, 0.04886388587206488, -0.3055045219839979, 0.19399886303223288, 0.13884306998917267, 0.16983754657741895, 0.11418566837480267, -0.03592589497566223, -0.01879321038722992, -0.8582305437468002, -0.5324108269615602, 0.11626767892345487, -0.14262150034744325, 0.14583273231983185, -0.10633566897439557, 0.060428613880439686, -0.050805822014808655, -0.6171756360671238, 0.11000158346083456, 0.1865040010968289, -0.8836322519045523, 0.17398441983014618, -0.19405559676837394, 0.03101087487911277, 0.019651332052193854, 0.08217445498853562, 0.2000513385501264, 1.4464587908644087], [0.008201901169523934, 0.3055671186240359, 0.31554175166318693, -0.23110862910956234, -0.3389449605299142, 0.04944286707235893, 0.15078593790531158, 0.08897233947128434, 0.0891105979681015, 0.024148210883140564, -0.10924329213963399, -0.4418108764880816, 0.37056775573353573, 0.015882308236213474, 0.10910095274448395, 0.07221357807174722, 0.14353203308365783, -0.10560514777898788, -0.2925143062179223, 0.06355148460242432, 0.30352926428361493, 0.15802564382240383, 0.27550678621835256, -0.056302768506794186, 0.14848816706713241, 0.10975913131203203, 0.08960280479092995, 0.005531092236518123, -0.11665279391285341], [-0.025369167416650937, 0.025187073474660916, 0.02796629271151969, -0.12488866519817643, 0.01532964497317834, 0.29786235634679475, 0.07333318304920201, 0.29394993637054495, -0.034728020429611206, -0.019292667508125305, -0.11936111011423114, -0.4019730248345055, 0.07064065950782843, -0.1606923920701826, 0.15869255363941193, -0.24141787885244212, 0.14050327498147955, 0.10421110689640045, -0.21546994558966498, 0.28751492779659377, 0.04054460392676132, -0.17870502700271784, -0.08618988502919954, -0.03040748339567116, 0.3397708033216956, 0.17097760256813632, 0.2533514904066436, 0.1870927372610705, -0.20574895447400682], [0.027715960783809182, -0.04905111916226469, -0.04155677556991577, -0.003589540719985962, -0.17798309464332449, -0.07567336619306482, -0.005935150309186455, -0.07772566127903216, -0.1639207899570465, 0.12272371351718903, -0.32325317810372356, -0.2173374423499195, -0.07282848495760985, -0.0967557281255722, -0.00919710099697113, 0.05568636953830719, -0.3337055024247258, -0.03129604458808899, -0.1746138111074002, -0.060553668091135715, -0.2896026865820417, -0.05914755658066436, 0.005226745009554117, -0.14955094456672668, -0.08673518508225479, -0.3326676181056374, -0.22944337071974955, -0.25092934130873173, -0.2907354662941798], [-0.07101325902550144, 0.032736326770349815, 0.16971857845783234, 0.1007312685251236, -0.2356639811619362, -0.044297546069634285, -0.05950145423412323, -0.29803069994165626, 0.15625537931919098, 0.04462069272994995, -0.7484895872122883, -0.8421502130492702, -0.3071366816626452, 0.03016933798789978, 0.08834852278232574, 0.07993282377719879, -0.01141488081628767, -0.1068655401468277, -0.6154243024169628, -0.11908966302871704, -0.2597456510853323, -0.9221559907634825, -0.18530772325251915, 0.10501857101917267, -0.2392443757940814, -0.3142958288294004, 0.022840893380340607, -0.23803233775296678, -0.744837399745189], [-0.12566361149869643, -0.0012810734190152387, -0.05705529451370239, 0.05598357319831848, -0.19607555072061794, -0.15629565714528001, 0.14663366973400116, -0.2777086271531089, -0.07477031648159027, -0.1512736678123474, -0.2666507518624547, -0.14138696268599463, -0.12985202486242112, 0.06901834905147552, -0.04457235336303711, 0.10272715985774994, -0.1747380942106247, 0.027430132031440735, -0.027176426399954916, -0.16385427117347717, -0.02519251940711686, 0.03387572560523222, -0.08417189990945781, -0.03555084764957428, -0.18617342997264116, -0.15140782784024162, 0.17335407435894012, -0.10304536935813341, -0.23425714806445308], [0.0033740848302841187, -0.03397691249847412, 0.06729660928249359, -0.03431575000286102, -0.004405587911605835, 0.12071393430233002, -0.14311833679676056, 0.09689228236675262, -0.10414132475852966, -0.16772374510765076, -0.07537376135587692, -0.022667378187179565, -0.16385911405086517, -0.08520812541246414, -0.05276767909526825, 0.1260616034269333, -0.1513182669878006, 0.1607489138841629, -0.019292786717414856, 0.0808878093957901, -0.14539691805839539, -0.03640735149383545, -0.13372060656547546, 0.09186024963855743, -0.04324200749397278, -0.17395025491714478, -0.10213364660739899, 0.12132324278354645, -0.05035233497619629], [-0.10036489493091964, 0.0792782088985019, 0.15391733986616582, -0.29689475203165605, -0.06116561126824056, 0.20474625304011923, -0.11477670141415315, 0.11687282789721286, 0.155840203166008, 0.11192233860492706, -0.16046837517789359, -0.19501441720273047, 0.19652762845439892, -0.023225163087881983, -0.0581989586353302, 0.014440334083819764, -0.04505110807374808, 0.183830127120018, -0.0937734265679721, -0.16684342298911436, -0.23988965271861448, -0.2220265064113878, 0.2712655076634102, 0.025796649888953208, 0.2665434132406375, -0.22178629693144417, 0.3019229554342689, 0.00939997717076996, -0.3053095298821303]], "layers.2.bias": [-0.0888460699995197, -0.09555464917983927, -1.26298218772849, -2.695692493412939, -0.21804039261513902, -0.04814514885995507, -0.7919867015199703, -0.083573832563552, -0.6844986845237349, -0.7512657462339887, 0.024781393212583172, -0.945302073366705, -0.30025662473751424, 0.10293979942798615, -1.1698694717259472], "layers.4.weight": [[-0.25515133142471313, -0.022168248891830444, -0.3968202672247557, -0.2237994572698601, 0.06917316511639815, 0.2351107895374298, -0.4118806836908804, -0.13680982271364306, 0.1499040722846985, -0.03419544027162765, 0.09211072923177482, 0.25216546654701233, -0.22834454476833344, -0.09388631582260132, -0.3931511759301533], [0.19604635347233043, 0.35035242244745496, -0.21356539577941946, -0.22505056976511784, 0.2234558729510774, 0.0006797255783372891, -0.21155162329079133, -0.10888956554528467, 0.05970474298651251, -0.01829269271016391, 0.38248723723556316, -0.025296752551606218, -0.08204207110353826, -0.22214144468307495, -0.3326369149815183], [-0.20297208428382874, 0.22742429375648499, -0.12307049334049225, 0.04599955677986145, -0.15610450506210327, -0.05364786088466644, -0.0950528085231781, -0.06136159598827362, 0.14038163423538208, 0.12001150846481323, 0.1854466199874878, 0.23866623640060425, 0.01761031150817871, -0.0475316196680069, -0.2223951369524002], [-0.21116706728935242, -0.12656725943088531, -0.06194122650149573, 0.12992112135902836, -0.2056431770324707, -0.23151347041130066, -0.34748908388709615, 0.028827421474392677, 0.14003978849978493, 0.024291515705336553, -0.1724124252796173, -0.12681595981121063, -0.0004774034023284912, 0.09248864650726318, -0.13597923682054247], [0.1494735628707711, 0.06510917764475802, -0.2687480743602896, -0.2947833213385215, 0.2684512054588229, -0.014734014447368188, -0.6825059720936927, -0.2636974178592575, -0.044165643205005316, -0.2710169711363293, 0.3729490279599825, 0.20870538241211892, 0.041588151551531366, -0.10569696128368378, -0.14799073914457844], [-0.1488981761354451, -0.10742539698952092, -0.1826473144010498, -0.2785473570128079, 0.04157042373882449, -0.18147870344119693, -0.10352243624375652, -0.2999715356346542, -0.3141472001868115, -0.3779652220692609, 0.08374751426914856, 0.038453220226410595, -0.2054215496873518, -0.01001623272895813, 0.06715027344761842], [-0.062382646761176525, -0.01522923413236845, -0.01852114956586027, 0.11259623352785757, -0.008312253848178835, -0.07314577823613257, 0.6263751530218691, 0.19394144037562866, 0.17647571645961893, 0.028736665120532735, -0.05866440526898904, -0.7582079533693519, -0.025052840473047355, -0.1225554347038269, 0.0623428652092603], [-0.14151807129383087, 0.12464576959609985, 0.0910075306892395, -0.641762552120963, -0.1314021348953247, 0.12640178203582764, -0.8778206472245886, -0.24230627715587616, -0.212794229388237, -0.09010875225067139, -0.17603273689746857, -0.2083262801170349, 0.053156375885009766, 0.0555262565612793, 0.11396422982215881], [0.09453397081971814, 0.1323871741414259, -0.3047897625678056, -0.1693550870382863, 0.3165457732776585, 0.1882944572422312, -0.5360497686336219, -0.13786070192482167, -0.5466590033852731, -0.3395410839087872, -0.09614775434678598, 0.36884283975084986, 0.048022847286008676, -0.07332129776477814, -0.29066731033280974], [0.3515288580967291, 0.13229216460634244, 0.02195772360552082, -0.378180802474471, -0.07692641339600208, -0.09123497661509043, -0.23836936440641182, -0.05944578899190468, -0.04661136802429239, -0.04205411647775135, 0.34132623949909335, -0.42645864997382366, 0.02066848923547447, 0.0655895471572876, -0.30824181204744294], [0.06334218382835388, 0.16549089550971985, 0.034210936705215814, -0.1973338182332266, -0.046949297189712524, -0.16634735465049744, -0.12344353498082757, 0.05345614081070939, -0.28334282761141005, -0.0756583765929163, -0.07322731614112854, 0.013195314055810668, 0.17939522862434387, -0.019181445240974426, -0.12593809232485778], [-0.03595725375221179, 0.0029485337422019806, -0.3620409387390398, -0.18197132204036315, -0.16143448502413052, -0.10424120768213546, -0.3597496246219084, -0.2333436322585004, -0.040007252021788675, 0.046314907114394864, 0.07950660541726172, 0.08044035139093829, -0.20694142492655138, -0.02147112786769867, -0.370669478276151], [0.09365345003542576, -0.13868257183291416, -0.052329986218340736, -0.273909827175454, 0.08774652981252601, 0.07309633168703913, -0.02774198512501924, -0.4366777807662815, 0.02459274398256316, -0.2536548970713421, 0.10265793743517718, -0.3630904376051025, -0.011804160794544272, -0.032067686319351196, -0.3940086013714717], [0.3527707012290028, -0.23208776116371155, -0.009076395708037584, 0.9935044771679087, 0.2694546574022651, -0.05604759973044418, 0.008437425010217162, -1.1334202901922186, -0.16836372323148419, 0.12259186322483011, 0.17523788076276664, -0.5656471070427189, -0.03542737662792206, 0.06052213907241821, 0.22497889251648412], [0.23787379421234997, 0.22966501116752625, 0.22339688658965154, 0.28044834471733004, 0.2943959894194479, -0.009497473093218026, -0.2933483096173022, -0.30522507668969345, -0.09368142588859994, -0.005660678470248082, 0.2773448011889085, 0.01763542738689127, -0.10481801629066467, -0.10123679041862488, 0.1789859422674102]], "layers.4.bias": [-0.7376036783664437, 0.04453940684217446, -0.16298958659172058, -0.32631775046489403, -0.5994365186860572, -0.21888414321322985, 1.0295821903392088, -1.011524248007634, 0.08686395352929355, 1.6920759630579287, -0.27516217727429465, -0.07675725364531465, -0.1687025668054162, -0.8569954400743296, -0.48818849579349627], "layers.6.weight": [[-0.23721773440204455, 0.06379407712719018, -0.2538677453994751, 0.027112561445015677, -0.6784063036740436, -0.07312758781719358, 0.5916363627036381, -0.5425287138715963, -0.06398802041166146, -0.12675606596487304, 0.02750261159807505, -0.07298441406908011, 0.02355806293511625, 0.098723061883466, 0.060651584790048375]], "layers.6.bias": [1.8398211992378375]}