{"layers.0.weight": [[-0.4693523528612396, -0.040988212215740276, 0.1252765103224787, -0.1262869528321675, 0.16105161288846426, -0.17372604875794823, 0.09492341893904453, 0.0011039709778284366, 0.01897866389656159, -0.15342006668575203, 0.03770978739923688, 0.01750164867565507, 0.13137579383894615, 0.07402155054222392, -0.07623717876250397, -0.062417417057831284, -0.02303978385673002, -0.017367970275045785, -0.04301660638858168, -0.05063725067715722, -0.021719090650679982, 0.14992966690362652, -0.07718164164254147, -0.14651262704321064, -0.03635352378338035, 0.27019549548763316, 0.43943846266521946, 0.6273225938436987, 0.7558445831667774], [-0.1803082693965655, -0.03201404887677997, 0.0965408970218734, 0.23661222882372457, 0.2784144509183619, -0.047504829485365885, 0.22853100718329528, 0.2883570570793572, 0.24780885326688903, -0.03817652195149216, 0.2653425237586503, 0.24553988930779969, 0.24055180242184368, 0.28829917305793895, 0.27463710914384687, 0.25814013004190456, 0.09121591884907991, 0.2867123502715922, -0.12679435079824877, 0.05759784514472291, 0.19373072757572812, -0.047141127029273686, 0.010732193847263736, 0.3239736550959151, 0.1154217677295029, -0.09478667658593183, 0.2727171529923839, -0.09560091148077317, -0.291121013415589], [-1.2127404950295297, 3.481094959299584, 3.1668264881119788, -0.140228292460281, -2.7744571236038937, 0.33671841006687775, 0.01726136709854655, 0.1870158909239393, -0.42684337176641707, -3.581554495950928, 1.601168243686239, -4.15722647617748, 1.6163486922572672, 1.9888748340504698, 0.8558186171915069, -0.5382998322702136, -1.8310577718499947, 0.1451828214231745, -1.43858743528601, -0.6224262878197826, 0.41064662064986485, -0.17557751462728732, 3.7192660023736313, -2.8173303059333312, 1.4825522042645145, 2.0639745447744393, 1.9423286161836018, 1.847466659254178, 1.842130719639117], [0.3981321547737374, 0.2667298193555946, 0.28687878982997816, 0.15957814028797007, 0.29467568609647227, 0.0949630458459655, 0.049787394686237864, 0.2617500305178473, 0.11017365012366595, 0.29034934836723036, 0.04644918552353363, 0.18352851917688984, 0.03905918578785738, 0.22357096377776053, 0.30109996731718813, 0.03440177874957582, 0.04368273805941619, 0.1590090795609188, 0.16442455812299983, 0.05192231670770631, 0.3010707650196189, 0.21985335598929923, 0.13599939966640104, 0.05807005809442718, 0.15686058863610192, 0.24612257748059502, 0.1719914473176865, 0.1355618290587376, 0.264631885433611], [-0.23755628660780403, 0.053034323873876243, 0.06953222466401533, 0.16181294192179546, 0.27296809187140786, 0.12413307389749695, 0.027691908558906537, 0.24806932405129167, 0.3236411284443797, -0.013390249324307869, 0.123047299769283, 0.08518778629822005, 0.023853274910346414, 0.0025368363304795337, 0.09939716999527437, 0.15361387652747513, 0.3183302072490963, 0.12140794981475905, 0.009333684259168622, 0.13713487298103666, 0.18221054209944665, 0.18934061537703145, 0.24070621412185295, 0.24961368288881286, 0.18690598232302236, -0.24496038764711855, -0.28522697687859083, -0.2640005304709373, -0.29196038879544295], [-0.2655967506218073, 0.21687014495429704, 0.2787505264962047, 0.3305582014447062, 0.02296207037409993, 0.17031822424309553, -0.032385116864959804, 0.173905841168379, 0.04916712429722392, 0.13889576822759162, 0.33249844713404825, 0.13440251363351816, 0.17228166992379193, 0.1260433820702887, 0.1768414721325829, -0.015527866638238758, 0.12707804993393393, 0.06335543311379978, 0.20044731600698817, -0.01724945680365319, 0.01104553695806233, 0.08991748553303806, 0.1430633537227197, 0.18109583955201755, 0.13138051553035088, -0.28161191988673534, -0.2178350208338609, -0.32967230763582794, -0.2053715665777329], [-0.06259741634130478, -0.14606499671936035, 0.019578546285629272, -0.04921799898147583, 0.12827734649181366, 0.12096117436885834, 0.16142256557941437, -0.03249727189540863, 0.11104942858219147, 0.16833655536174774, -0.04383549094200134, 0.1724518984556198, 0.17906002700328827, -0.1443474441766739, 0.16948263347148895, 0.17944104969501495, 0.1825932115316391, 0.06292696297168732, 0.15209431946277618, -0.17774319648742676, 0.15964870154857635, 0.11731727421283722, -0.040088653564453125, -0.0011246651411056519, -0.10993898659944534, -0.11252472549676895, 0.09728686511516571, 0.10239173471927643, 0.12826849520206451], [-0.08082377165555954, 0.17088927328586578, 0.019653990864753723, -0.1342032104730606, -0.03116440773010254, -0.0002821981906890869, -0.12171110510826111, -0.019061937928199768, 0.0917535275220871, 0.13945578038692474, -0.0510539710521698, 0.14045672118663788, -0.003435865044593811, 0.16857166588306427, -0.09010627120733261, 0.1624755710363388, -0.12541630864143372, 0.11804546415805817, 0.15618811547756195, 0.1570940762758255, -0.16444994509220123, -0.05068875849246979, -0.05343256890773773, 0.053115665912628174, 0.02681899070739746, 0.17730306088924408, 0.061028242111206055, -0.0008102208375930786, -0.07070960104465485], [0.493479195591651, 0.9293612797440135, 0.03211049958246223, 0.6520239857586049, 0.08779382149191305, 0.17942326279188894, 0.18578564540299444, 0.20676067004808618, 0.34046603959924854, 0.04859931099507056, -0.18000866245071845, -0.2718653478392171, -0.2626768468611465, 0.3871300922735025, -0.2652701179273707, 0.13749956128075674, 0.07384813823817436, 0.26385927854404373, 0.09784352346469956, 0.019005906877736744, -0.00661122857445822, -0.29892635325488826, -0.0019695227701162963, 0.3633767226422009, 0.7629946954058774, -2.549310430117116, -1.8049419073792785, -2.0385978539272918, -2.0098205544643775], [-0.019251927733421326, 0.15938638150691986, 0.13558219373226166, -0.15471209585666656, 0.11283467710018158, 0.04836432635784149, -0.0899401381611824, 0.039682045578956604, 0.1532958298921585, -0.14005562663078308, 0.09810815751552582, 0.0892661064863205, 0.012172892689704895, 0.1433839350938797, 0.03327111899852753, 0.11247514188289642, -0.11893285065889359, -0.07401184737682343, 0.10541681945323944, -0.15888218581676483, -0.04873773455619812, 0.0060546547174453735, -0.030873969197273254, 0.07472269237041473, 0.010203808546066284, -0.11230088025331497, 0.01036757230758667, 0.057330891489982605, -0.043815433979034424], [-0.18267438537148462, 0.19549414219174988, 0.27386120275519066, 0.07692715862787952, 0.15346119531623376, 0.05677816795893663, 0.07101236639499006, 0.31588408571987525, 0.2760189485324912, 0.16341138433142094, 0.13814793907983255, 0.03587199183781823, 0.06529683921955957, 0.16407369654264123, 0.1271877091718871, -0.018284721819751496, 0.23561964677340688, 0.2662345870198469, 0.07470845285147419, 0.15213171240451348, 0.29707000078621676, 0.007502100603778854, -0.020215597097670488, 0.21536195254149257, 0.3068781467773044, -0.030282527208328247, 0.02788669206533042, -0.23506221078809386, -0.027367386667073283], [-0.04860574064869539, 0.15217423202815925, 0.13821185173055278, 0.1688020256390521, 0.09386989320827013, 0.15235077207783182, 0.11861102802572865, -0.0474169773125031, 0.09476296729361403, 0.18785812095979018, 0.17092735227786549, 0.244214761474316, 0.25794350312163283, -0.05089567847957181, 0.30514965729001303, 0.2600093408215233, 0.06655860365730304, -0.03182098415387523, 0.056218319639483365, 0.31141940649276345, 0.06315976151733553, 0.2983437407485712, 0.012490696245752893, 0.19425305842694174, -0.00043773366227176634, -0.025066421009426028, -0.23784364555281198, -0.15989864880778976, -0.06672374897221287], [-0.15971750020980835, 0.009740069508552551, -0.03850090503692627, -0.16961906850337982, 0.1752646416425705, 0.08416964113712311, 0.17606501281261444, -0.10071393102407455, -0.10357756912708282, 0.13796605169773102, 0.17868943512439728, 0.04110507667064667, 0.11157949268817902, -0.00432954728603363, 0.08421646058559418, 0.04509870707988739, -0.015799984335899353, 0.01678815484046936, 0.17737428843975067, 0.16981180012226105, -0.15077239274978638, 0.16581712663173676, 0.10866688191890717, 0.15039776265621185, -0.04689861834049225, 0.03768490254878998, -0.1411495804786682, 0.14244286715984344, -0.09208964556455612], [-1.2718547905414983, -1.0071949316504456, -3.4901479736412684, -0.8255853004446655, -2.6305480690107395, -0.5682554010601364, 2.9420077165420766, 3.5652920494016844, 1.3086997983798567, 0.9776044640832489, -0.34756050213133327, -1.0698196269178157, -3.4337458424113527, 1.1359486829656116, 0.5367844843831948, 0.47353496734300704, -0.35997113534276104, -3.2106997268079804, 1.4677610396822125, 2.1836771569117825, 0.2730940878291899, 2.4732968967265814, 1.2786332405415406, -2.117150812699795, 0.1499895237468365, 1.6433531609132943, 1.6568355240670671, 1.637267319703655, 1.6313801411107687], [3.5612657133013434, 1.4489205065107649, 0.4527274900654996, 0.3177619830195638, 0.8394110453944522, 0.5792349337595796, 0.4050274411555509, 0.22201357532555918, 0.2840025866562959, 0.44435182655488886, 0.24525103289976424, 1.0404235169285139, -0.3081757642443255, -0.2329324854642838, 0.5334115243536045, 0.07064116762196257, 0.42249598527570875, -0.10167966575400711, 0.20017824787058622, 0.21696058654215372, 0.2272720994417093, 0.13441141205080925, -0.3678626307614443, 0.28362543155866526, 0.6825445233278982, 2.3431921216764247, 0.9653088627620329, -0.5943100705752399, -1.1625168780691235], [2.585449234662565, 0.9630883374993522, 3.1838650245438, 0.5100824295626145, 2.7370048954562165, 0.6030688259783635, -0.31875984427721815, -1.0664368602895833, 0.1359512323922532, -0.06567169094459764, -0.2923576665177963, -1.9105202296471335, -0.06294820464852217, -1.7294454029864503, -1.9649486753549907, -0.8590381235075335, 0.9112790159814314, 0.6805887546673316, 0.2800911839897416, 0.2765062297295995, 1.1696493860343815, 0.48148629051878555, 1.2083013268949911, -0.250542878979092, -0.05779028569894125, -0.7996672100065944, -1.318139658295582, -1.8178395866139476, -1.959818563515399], [4.122231361273918, 1.2613127987031467, 1.0336704665285075, 0.6377087621224917, 0.5959340621135795, 0.19849170018058923, 0.2062197283661248, 0.036350397470210266, 0.14177745877775874, 0.5031865676099485, 0.7256290414671217, 0.8353313539853615, 0.25272829316638173, -0.23712516022156022, 0.10851080037578388, -0.3131395461915265, 0.361192487940355, 0.13523266358394026, 0.32670019226150265, 0.23270136659303617, 0.21341842382718407, -0.1109871311879085, -0.3587131034895532, 0.31725991529052877, 0.38914912043794975, -1.036881433570293, -1.4752109548480872, -1.4041145556665504, -1.155997215135772], [-0.13918462206693383, 0.26588482575942846, 0.035076942334182556, 0.24495903386202447, 0.09002343828959795, 0.08290791526117527, 0.02092504367455476, -0.03246640544315441, 0.0976132515689586, -0.01666044932927906, 0.1548024376976725, 0.059453066350139507, 0.0064130517348430175, -0.00846799981248699, 0.1713145207003296, 0.2444316598584314, 0.22764318472405126, 0.23502147218053498, 0.24582641483831258, 0.32161335114974954, 0.2612911041110851, 0.15618951517470325, 0.03573745874814599, 0.295172972176815, 0.2135169453404463, -0.06394366803604583, -0.3290196944512897, -0.1896962130356471, -0.14730291207717827], [2.8707522866527744, 0.2664771352704545, -0.8095591596728688, -0.3533579222171046, 0.25752607108487346, 0.5737106890944736, -0.0444125156750421, 0.15398192726268362, 0.01526011805501902, 0.4744671803239696, 0.023519085462767684, -0.29700630475164924, -1.0817932783799964, 0.3585466634552458, 0.3285091878524308, 0.46788221583707884, -0.29564748549669756, -0.17099308655104634, 0.057364094817918126, -0.09767487884906649, 0.06264767929328897, -0.3120909973989144, -0.33672230287976285, 0.6889031812783569, 0.2801848495932205, -7.23740493604325, -6.798484522965422, -6.673065957361923, -6.741387773740865], [-0.015739548629872004, 0.0017462740235873204, 0.1358183306687698, 0.1592077597742606, 0.03820573551779579, 0.2544971218785802, 0.3343053421822253, 0.2301914680002195, -0.0056406139321817155, 0.02816708888303427, 0.24769854076418787, -0.008860948307966222, 0.22113862682187305, 0.257479916366395, 0.23665298174198507, 0.14809105740825323, 0.14200475268732454, 0.06959995492449322, 0.30693661596333327, 0.2524531657728671, 0.1255707785738003, 0.10456398857794935, 0.3337259609836686, 0.31094377350558894, 0.20623729485066766, -0.15850044864967663, -0.052753443409324544, -0.2830656620933626, -0.26258624810064535], [0.014087006449699402, 0.028017908334732056, 0.16321660578250885, -0.12025967240333557, 0.09089107811450958, 0.07701702415943146, 0.16632874310016632, 0.057214632630348206, 0.001993626356124878, 0.009594380855560303, 0.15998299419879913, -0.05321738123893738, 0.05644015967845917, 0.11429683864116669, 0.06573344767093658, -0.0843140259385109, -0.11911191046237946, 0.12541700899600983, -0.11551046371459961, -0.16641297936439514, -0.023248493671417236, 0.05684918165206909, -0.005154028534889221, 0.08819971978664398, 0.07480449974536896, -0.1522456556558609, -0.09276669472455978, 0.14357919991016388, 0.18157859146595], [1.8724515661147039, -2.849944653065096, -0.3385681990607576, -0.8215465964063895, -0.3331453298856437, 0.011271376691078892, 0.06334147942059005, -0.15083923703169433, -0.8166707101532574, -0.03515367938474147, 2.2873655250959004, 5.47653111678393, 1.2528645116510118, 0.8452183360714138, 1.1903161852303181, 0.7517525062401375, -0.11423179140705605, -1.2977965600794228, 1.0851556812335021, 0.3564665285322158, 0.6966614484650852, 0.5334921893697776, -2.211648236162287, -1.1063866511875025, -1.0261852034780226, -0.9062349535145756, -1.2408195702750084, -1.4924438823915631, -1.5277884992032307], [-0.27729148429237094, 0.17836760364113843, 0.11968651122597526, 0.12731752412505254, 0.05565306342575861, 0.29831114014233256, 0.05369348169813002, 0.08483642708711364, 0.18271851638504055, 0.05791963774095558, 0.2511588017127732, -0.002040674618441545, 0.28911204813361396, 0.08139471297702945, 0.1905794144833513, 0.17162459236713043, 0.0378672484112009, 0.24613372802611183, 0.14191285998095082, 0.18675513009345393, 0.21714988183700296, -0.03542462706118737, 0.1624531288571228, -0.0015935944373378257, 0.11687536249242189, -0.013872813726703636, -0.13752321233361398, -0.0191508546568851, -0.1330685069422962], [-0.06766725331544876, 0.14119981229305267, 0.0904921442270279, -0.03893616795539856, -0.1684783399105072, 0.07404352724552155, 0.1775110512971878, 0.13743694126605988, 0.1276758462190628, 0.10819275677204132, -0.12983019649982452, 0.0290878564119339, -0.1406528204679489, 0.17887063324451447, 0.06718571484088898, 0.039666518568992615, -0.08194868266582489, 0.12009374797344208, -0.014299899339675903, 0.14994065463542938, -0.07883670181035995, 0.10387511551380157, 0.017489582300186157, -0.02772614359855652, -0.054581865668296814, -0.01250186562538147, -0.16488966345787048, -0.021280691027641296, 0.11257164180278778], [-0.11477750676459655, 0.11538364364748019, 0.19316732599391248, 0.021763599124169957, 0.2984115759643849, 0.14036432713213062, 0.0867287538860699, 0.13224904371922838, 0.30683155664435874, 0.24648811839404666, 0.23097781427352387, -0.032154147450173434, 0.27394092582487634, 0.11194871463335028, -0.009406014104140598, 0.26469241056978976, 0.2867826303877376, 0.138011631374214, 0.0007302547328134459, 0.2033194824206341, 0.015301309288212236, 0.052108019083004685, 0.07687785582419135, 0.22763416347172938, 0.12151756865198629, -0.2674864508468708, -0.10205002066781314, -0.26875440201787315, -0.0019753353798478697], [0.018923372669730033, 0.09669090134114904, 0.21506298631244639, 0.19659890762841, 0.1596373340420608, 0.32323733952062816, 0.0660773849969184, 0.31096808066827014, 0.03493446087510778, 0.15768384753608694, 0.004643799761610064, 0.03288498088029883, 0.13749075897549828, 0.31592221511869456, 0.3308534077994866, 0.08672049944990218, 0.025594371648479053, 0.2337188217571193, 0.3111610892048317, 0.2507996279065778, 0.22891346304360838, 0.32244367303424043, 0.1529438113893901, 0.2964763172410758, 0.10676695711982592, -0.004189411980757336, 0.14815790951251984, -0.2747082080698089, -0.28772738233423834], [0.7460530094761201, 2.9998800744951013, -3.560623642320335, -0.3979122237379672, -1.7675479950073505, -0.37790517269750434, -0.8623018922597544, 0.5849409385417581, -0.5224490281703261, 0.6924558168820942, -0.2589649941762813, -0.858369718872386, -0.24788458158945348, 0.6134004708057587, -1.144485134123852, 0.18685199149902337, 0.20817877350405706, 0.7696572427553583, 0.10906420433092355, -0.4347533205166256, -1.3309757957722097, -0.045378151145136866, 0.6030020533533846, 1.403191814925727, 3.935276000240289, -2.212700494095795, -2.0650998288054168, -1.96290465178675, -1.9207557747235615], [-0.11564462880781656, 0.03529876589546274, -0.04762752407339118, 0.1631274070377675, 0.2271236684189667, -0.029215111286431727, 0.05607176317309826, 0.2412479141270509, 0.27878664982294343, 0.013274544582326063, 0.15692171169640062, -0.010101054455662948, 0.03079359310782213, 0.12278851353949027, 0.1766446784830932, 0.22476597452452368, 0.15188486187313044, 0.1987746880062556, 0.21080326062262683, 0.29310686145355885, 0.23377976577516504, 0.2458589639915536, 0.024377992372477283, -0.009315514221730159, 0.252854140923296, -0.2041920609561965, 0.09049762126159541, -0.26852756336860184, -0.104130724502468], [-0.16675516963005066, 0.09714452922344208, 0.04521919786930084, 0.14983521401882172, 0.10936416685581207, 0.14294062554836273, -0.022403091192245483, 0.11695270240306854, 0.16515390574932098, -0.12009081244468689, 0.1438858062028885, 0.16774536669254303, -0.18378129601478577, -0.011425405740737915, -0.012370273470878601, -0.0862947478890419, -0.01727677881717682, 0.03740386664867401, -0.14801885187625885, 0.17671804130077362, 0.033846184611320496, 0.03071548044681549, -0.08231037855148315, -0.1509121060371399, -0.01960170269012451, 0.03627023100852966, 0.09128229320049286, 0.06749515235424042, 0.05336877703666687]], "layers.0.bias": [0.3936021256377382, -0.07266656746871368, 1.7164185325279382, 0.35100645665506264, -0.038075255424504725, -0.015564323850296538, -0.15150034427642822, -0.023007839918136597, -2.2164543932229295, 0.015362560749053955, -0.12234453693697377, -0.034347381335080404, 0.1263178437948227, 1.5108024000346068, 0.4981946520428614, -1.283552453456216, -1.2090879717219154, -0.01892618149682685, -6.9431367704223765, -0.2133069921486455, -0.09223459661006927, -1.381668007823295, -0.15593510643244313, 0.1654805690050125, -0.15966887768420093, -0.17763622598600978, -2.097638876357552, -0.08275704687136523, 0.014266639947891235], "layers.2.weight": [[-0.27592007255263984, 0.1715474183412307, -1.0428874625664621, 0.2211445539271373, 0.16113198203140228, 0.16413073373627987, 0.12914715707302094, 0.034969180822372437, -0.5735817662672822, -0.06437256932258606, 0.022288601855929024, 0.11265489100365242, 0.10233555734157562, 0.00973329320619842, -0.4993808108096767, 1.4084452542051096, -0.2541041587618935, 0.26117398336853204, 0.07505695297219304, 0.172049795186494, -0.04798227548599243, -0.1990074491217311, 0.16501573216792248, 0.010316386818885803, 0.27737699696499557, 0.22569774999651496, -1.2348368093738356, -0.04351947274982245, -0.11529680341482162], [0.034683151340953094, 0.014385460696602142, 0.3440963333546494, 0.23029192254716044, 0.00922564052203222, 0.08808292042475648, 0.16533787548542023, 0.012195706367492676, 0.0659286194087693, 0.02087397873401642, -0.011792594175834567, 0.3168308355644726, -0.18510222434997559, 0.14246831315524433, 0.42130709271216266, 0.047481530963431176, 1.3543842380200315, -0.007956713673104422, 0.15305342427517277, 0.1236377417627492, 0.11485104262828827, -0.057745526241004444, 0.08973430942973314, -0.008405685424804688, 0.008202639112276103, 0.0349257657274283, 0.3939841562794515, 0.2074761404106698, -0.12060770392417908], [-0.05973053592455665, -0.048871789135136276, -0.1809442160831001, 0.25827465005163963, 0.20954327426110486, 0.04732200707151025, -0.011668965220451355, -0.10430161654949188, -0.19619631880760216, 0.06642220914363861, 0.23290792174113628, 0.15614043082010484, 0.051624566316604614, 0.26575960890857364, -1.5337982227258231, -0.039258830059710495, 1.2547961767150067, -0.004786071460382261, -0.7190514172964213, 0.24626942801421486, 0.03521728515625, -0.2168665232118837, 0.028044140385986495, -0.029888451099395752, 0.15979614972643322, 0.14086694005478714, -0.21081972017162778, -0.12279458171810521, 0.11141611635684967], [-0.30773975014084193, -0.07649971544742584, -0.030815386506500567, -0.23786221535971613, 0.22020215806111793, 0.3108952297430624, -0.010250329971313477, -0.16419190168380737, -0.1511490658004903, 0.17383195459842682, -0.13366169990912963, -0.11436788799078783, 0.1514587551355362, -0.06086367441283985, -0.004930049606462933, -0.2695073017891857, -0.1461979410346012, -0.2793148280900675, -0.027093628541057492, -0.08564537351676955, -0.12421783804893494, -0.3355732290714061, -0.2929362967624272, -0.052111923694610596, -0.1258445695270224, -0.1464613567303303, -0.3323301299430051, 0.07314838469028473, 0.15724225342273712], [-0.0609863120634746, 0.06956883009451752, -1.5232331186236139, 0.2785717301666676, 0.13909612596035004, 0.1149200052022934, 0.11901994049549103, -0.17941854894161224, -0.2940717260914161, -0.012787878513336182, 0.09239305555820465, 0.27925352866988357, 0.08609001338481903, 0.34912686476525995, -0.3279159449672268, 0.0833875343376453, -0.4287288741504462, 0.10500915348529816, -0.13757988384111003, 0.04123188555240631, -0.14971306920051575, 1.779976738640542, -0.06512975692749023, 0.09762097895145416, 0.040025476716482565, 0.06810273230075836, -0.17913066995770208, 0.20570446716064564, -0.1432999074459076], [-0.13537299609615538, -0.16620390117168427, -0.8838614850769222, -0.07980417747517021, 0.19126663215727457, 0.06634785234928131, -0.10489662736654282, 0.024505048990249634, -0.02031291778954772, 0.14583374559879303, 0.12633414566516876, 0.24766374334278485, -0.0338265597820282, 0.045273217150261114, -0.7628411445508068, -1.6481606647857132, -1.1786374346588517, 0.27589101873789545, -0.4203927049095723, 0.27635339019789235, -0.08156964182853699, -0.9714040524455899, -0.16917283833026886, 0.05091629922389984, 0.3085188783873269, -0.12418332695960999, -0.33584202141987773, -0.13700836700902183, 0.08694417774677277], [-0.07747711070823728, 0.14316199719905853, -0.3093174746461964, -0.16902115941047668, -0.16622547805309296, -0.02073952555656433, -0.12583819031715393, -0.06758184731006622, -0.20206610445995912, 0.1480109542608261, -0.030868202447891235, -0.13753744959831238, 0.14611254632472992, -0.3706522445638753, -0.2863422521336517, 0.007188200950622559, -0.01586174964904785, -0.1577489972114563, -0.15663939672824073, 0.10451148450374603, 0.09288732707500458, -0.021146193146705627, -0.17414461076259613, 0.1790272444486618, 0.16159869730472565, 0.13024874031543732, -0.3578657513577933, -0.14743636548519135, 0.035572752356529236], [0.026368080714336214, 0.07637081495643927, 0.4546201559599317, 0.08560700806674013, 0.21275400055533294, 0.12708799438281773, 0.07657153904438019, -0.04232461750507355, 0.015376860007159123, -0.1485579013824463, -0.295549216523674, 0.06678484330999442, 0.031165555119514465, -1.1247455956257324, -0.33372095096287513, 0.08724883770760392, -0.22487366566425834, 0.04626882351205462, 3.851569140107301, -0.015639431297790947, -0.0469624400138855, 0.33978972575115685, 0.10341390132751979, -0.05082392692565918, -0.08634293358339673, -0.0034666224488014642, 0.051600717932540265, -0.10847812422828185, 0.07060171663761139], [-0.4945172330420576, -0.0261869877576828, -0.4235334391001253, -0.027876168489456177, -0.13173110783100128, 0.10131333768367767, 0.10184414684772491, 0.022276505827903748, -0.21243140536570496, -0.027118563652038574, -0.05388727784156799, -0.019448190927505493, -0.012794673442840576, -0.3132678675070981, -0.3891781423395961, -0.5785589083222547, -0.42252368063693774, 0.12254436314105988, -0.4472726050520664, 0.11450408399105072, 0.14619164168834686, -0.35085768252820204, 0.17043961584568024, 0.13519130647182465, 0.062206149101257324, 0.14079885184764862, -0.5176977294929483, 0.17028744518756866, 0.08143950998783112], [-0.231388738730296, -0.07492240918354101, 0.19292651301912125, 0.2706853271546111, 0.16017488195534144, -0.15245765447616577, 0.07422299683094025, -0.06416232138872147, 0.1893610650722275, -0.05182698369026184, 0.13309817608671085, 0.10745961480687, 0.09474997222423553, 0.012272433102672219, 1.6515552931677264, -0.028063053301759653, -1.1821654095749754, 0.1530131919320238, -0.5507979220676266, 0.12812984442694175, -0.11278153210878372, 0.09075912438234292, 0.19110808795577494, -0.10191734880208969, 0.0001787987436631461, 0.03375353391939664, 0.11087738552481474, 0.2267430072494594, 0.008448392152786255], [-0.15037916771815749, -0.03964507579803467, -0.2670924194602053, -0.09440319209197505, -0.04315381017273185, -0.012864520308848947, 0.10623513162136078, 0.11705733835697174, -0.09164287863277451, -0.11839225143194199, -0.1329459268630266, -0.09460756938990106, 0.008782461285591125, -0.20011040183848475, -0.22430332836005876, -0.041755748737847445, -0.25031613319515655, -0.09827611177916999, 0.03397734603557775, -0.014672356134007157, 0.17081962525844574, -0.08691311625616255, -0.3306023608855631, -0.08487410843372345, -0.2569340079378372, -0.09948885475613971, -0.16967279884072242, -0.07286091893911362, -0.03759446740150452], [0.021149168717623575, -0.032737752972367, -1.2634572770626733, 0.0747030315527457, 0.16286262271060498, 0.06431721463748767, -0.13181069493293762, 0.0012369751930236816, -0.4690871782941864, -0.08301015943288803, 0.14060984928253845, 0.12150678332021761, 0.08877874910831451, -0.07596109648873771, -1.4440050861046956, -0.7196354711643134, -0.6853556370314219, 0.32244920106217423, -4.09061029090634, 0.05533693745164217, 0.1394573301076889, -1.4205747101379413, 0.1476524933756397, -0.12634849548339844, 0.20252371268695002, -0.2970293874205929, -0.6364763174739646, 0.15309706788334881, 0.12812544405460358], [-0.21168724007440856, -0.02479955554008484, -0.07516835658842409, -0.10859507392451918, -0.1519418755365961, -0.16043662757142765, -0.09711617976427078, 0.10658778250217438, 0.034593934424106736, -0.14982597529888153, -0.13408691040446086, -0.31277506308259456, -0.12508514523506165, -0.01472082184355967, -0.18607355692035266, -0.0868813231798088, -0.04591654360793835, -0.027387607739985897, -0.22884698957896915, -0.2604718914070392, 0.04489696025848389, -0.27140106016156423, -0.32752533589086785, 0.07957489788532257, -0.0616533892470848, -0.2007731546826393, -0.20756028519429304, -0.013621583580970764, 0.07076121866703033], [0.043202295899391174, -0.038715243339538574, 0.10464923083782196, -0.10867631435394287, -0.009378001093864441, 0.12958882749080658, -0.1685868799686432, 0.13000772893428802, -0.08655062317848206, 0.053840577602386475, 0.05248807370662689, -0.05779379606246948, 0.0918111652135849, -0.8529012762912338, -0.9043130829785164, -0.07714592665433884, -0.7370718732663051, -0.047769203782081604, -0.062397874891757965, -0.08810491859912872, 0.149342343211174, -0.7492753701982979, 0.10773880779743195, 0.09737645089626312, 0.1333460956811905, -0.034533679485321045, -0.8226996334607893, -0.05346333980560303, -0.12760022282600403], [-0.12807217240333557, -0.0778125748038292, -0.8146764782430577, -0.15011702477931976, -0.003506675362586975, 0.11090223491191864, 0.11904539167881012, 0.1169794350862503, -0.6890302357206116, -0.040597617626190186, -0.03151334822177887, 0.16265173256397247, 0.009500369429588318, -0.6888899177064121, -0.7187787196512067, -0.6814998677651324, -0.5258223978369994, 0.07640381157398224, -0.5709652240379653, 0.016566023230552673, -0.10985147953033447, -0.5938235881729617, 0.06883402168750763, 0.12389029562473297, -0.17027851939201355, -0.17507337033748627, -0.6909547014812534, 0.1454075425863266, 0.09904240071773529]], "layers.2.bias": [1.6831857739176137, -0.2516131570442996, 1.4901113271733522, -0.015133190553829692, 0.5808478761433723, 0.12855865614031844, -0.19629292293820633, 0.5594656943411234, -0.22851695395439586, -5.685381323782544, -0.22055751762335493, -0.8721000744705386, -0.0630884369884248, -0.9388037239573773, -0.8223508220952953], "layers.4.weight": [[-0.20920453766316405, -0.4149313090290231, -0.3528824115803062, 0.07805524865726009, -0.6229688852922273, -0.37879501527089976, -0.18789172172546387, -0.1116696433872134, 0.11828669905662537, -0.29990819004779057, -0.16541778620196843, -0.2860011691442362, -0.002127011201587501, -0.19495978951454163, -0.11132702231407166], [0.11561865576462413, 0.555751473140862, 0.02895172873670688, 0.3969365295561047, 0.24035877434213837, -0.465762797353043, 0.0936905910899085, 0.31459158632830203, -0.1548525978158185, 0.036807138993709056, 0.2575771215393455, -0.26143350093471895, 0.253456919285524, -0.6542799227346923, -0.6900685530426841], [-0.4561959828428323, -0.11280786587398606, -0.434214178546974, 0.012992852747282813, -0.20617883892195854, -0.10174856727433626, 0.292832221128063, -0.06654842655100006, -0.21075265322455966, -0.4625508681801322, 0.15642016091315158, 0.14521618331439637, 0.12600423827172275, -0.5626283152177881, -0.803254849171324], [-0.3822703167162035, -0.14976667406695834, -0.37702688224172276, -0.3585419727194248, -0.06737216018455404, 0.33624642942061356, 0.1548433005809784, -0.1493145601284775, 0.23036572337150574, -0.47457448971324495, -0.11990622926692397, -0.07656142630387135, 0.09780319822687651, 0.11656805872917175, -0.13852575421333313], [-0.5165877401641374, -0.7379458556375604, -0.9499605609529381, 0.04687824845314026, -0.4708290506109175, -0.8331263753891386, -0.12011456489562988, -0.7994820841747737, -0.046904370188713074, -0.9444439870511556, -0.09164075553417206, -0.6288899896844113, 0.15229099988937378, -0.08050136268138885, -0.16833969950675964], [-0.13317244590607402, -0.15983491350350085, -0.3602533789943187, -0.2656439501689351, -0.162501767438264, -0.26055529797304566, 0.18839043378829956, -0.24452278450921838, 0.0014271140098571777, -0.2398903541510054, -0.3901360447517413, -0.08510175166262317, 0.011670719137623234, -0.18591800332069397, 0.23328626155853271], [-0.49697770851101647, -0.305862104020579, -0.1002669968095656, -0.24990740984821036, -0.5218065450689757, -0.12158755256808307, 0.13158586621284485, -0.11591174816662604, -0.058284610509872437, -0.6773875253376462, 0.10496451782652975, 0.15418289404371724, -0.19757991422874868, 0.08878380060195923, 0.060695141553878784], [-0.34198660934923664, -0.3267634415787189, 0.005746768382357794, 0.01094641181702872, -0.19021295011043549, -0.26960392853677895, 0.1578264832496643, 0.09917449813381653, 0.14574754238128662, 0.03660333489096718, -0.19960388101241275, -0.2657150451111287, -0.3031935287149943, 0.09893113374710083, -0.16203831136226654], [0.04899432124130108, 0.07934361158759566, -0.6677265851031638, -0.05054901186847127, 0.02425102390182408, -0.15817526592458891, 0.3435991114566911, -0.615601964189978, -0.1529532822579432, -0.7392769909282549, -0.03573682909107282, 0.08783209197953888, 0.0470146255108608, -0.5816895701807013, -0.45439470177371], [-0.20919927665798513, -1.2492044688330401, -1.2007672737501462, -0.05407949617075272, -0.638677262387008, -0.06567577361400188, -0.15636339783668518, 0.02251606472574641, -0.041270285844802856, -0.6856653594357853, 0.05671557758332394, -0.7237723419337072, -0.10112821769634202, -0.04328007996082306, 0.01419118046760559], [-0.08457145212241908, -0.32586129380550527, -0.1489291659050837, -0.3019728842585457, -0.21708689630031586, -0.31357897677021634, -0.05256970226764679, -0.19071825147199012, -0.257692813873291, -0.14458621404599756, -0.07941603654288419, -0.31887278737725044, -0.16261763513678354, -0.01396186649799347, -0.08770640194416046], [-0.10958102345466614, -0.7031967925506821, -0.6247215247294535, -0.1829981505870819, -0.1407264769077301, -0.18901947140693665, 0.08022916316986084, -0.970788298422651, -0.16661645472049713, 0.022212862968444824, -0.012032866477966309, -0.20061418414115906, -0.022149786353111267, 0.1835642158985138, 0.11727786064147949], [-0.06252168294730662, -0.22542418211216705, 0.11495230120136352, 0.24826229608968822, -0.14043688509490931, -0.1250474205090728, 0.2618186218046809, 0.06500437400684528, -0.24587339891714266, -0.18360553420810996, 0.356946547763951, 0.17304952975030669, 0.35765115154560245, 0.17921316623687744, -0.4899531571857886], [-1.2558819109945873, -1.1094581198245084, 0.039056976447217374, -0.0794236809015274, -1.013785939620886, 0.17650046944618225, 0.15815764665603638, -0.6689914953353858, -0.2504361569881439, 0.5805293895939534, -0.1168237030506134, 0.5824302572408687, 0.03808596730232239, -7.265806198120117e-05, 0.16083329916000366], [-0.062224453041416744, -0.3905547659196428, -0.3545323996446281, 0.31321102360057235, -0.18332965735273482, -0.09713646324461071, 0.31535522665344934, -0.1960961502787746, -0.35047893816650777, 0.06572211853158462, 0.34547564235327005, 0.08395116104284993, 0.20179376392308682, -0.053069666028022766, -0.6168964141463096]], "layers.4.bias": [0.08905745809567174, -1.1042104984928536, -0.0819752486296224, 0.0027472004158826412, -0.8811241879016862, -0.08392019801614585, -0.4959075445327392, -0.008057356641584404, 1.2566601390053083, -0.3507808838283809, -0.12202686336849244, -0.7426417264767482, -0.39122834446747706, -0.8438657675621484, -0.409703438969793], "layers.6.weight": [[0.04240552245329753, 0.3217140623966922, 0.09234064755196777, 0.13086343785071278, 0.5523722565414206, 0.15883274306817877, -0.12799693424832512, 0.04532629559348011, 0.08958792054855352, 0.1632323692019704, -0.07677402325963784, -0.581504978463473, -0.008935601051109654, 0.0680393977866351, 0.09183634026383654]], "layers.6.bias": [2.332307926633128]}