{"layers.0.weight": [[-0.18641694556367597, -0.03359785073672047, 0.1838782886583039, 0.04505191716199847, 0.13043858066308953, 0.047852359897220934, 0.26752639068907946, 0.23520770103101102, 0.16424629854825623, 0.006732560176053198, -0.02793149001668073, 0.023686806969639637, 0.01094783720856499, 0.12250769902152182, 0.22091429154306785, 0.01758069441839462, 0.25068692726389813, 0.2906445295112057, 0.2476751018204776, 0.268747883359886, 0.19096857777367246, -0.030914092206682158, 0.15594584325100277, 0.1851328261179567, 0.1260675236908917, -0.21779064365032336, 0.028476271606687, -0.31470699481076575, -0.03466003921522181], [-0.20214622578477087, 0.047190412712198156, -0.023228564909273924, 0.2998447241943756, 0.15688447076986026, 0.03667350035026139, 0.3066226580003587, 0.004438581841532659, 0.24575111474414593, 0.3035488453428579, 0.3262442984876058, 0.04536224921495701, 0.021100952483453908, 0.08472880753336731, 0.16932455336114177, 0.22205199172280052, 0.056791427406530384, 0.1198539951817503, 0.10040970493291267, 0.30359295274200865, 0.12459658313459297, 0.09559928203859565, 0.24099684267220162, 0.17100271028894884, 0.014403283284296351, -0.038552826382357006, -0.2820309501963733, -0.2856789996437618, -0.2523535844808388], [-0.08611321579857976, 0.17311423042975022, 0.30815859698668835, 0.2515565283708665, 0.07220824169270718, 0.144780749372975, 0.054590336706509965, 0.025391670093294356, -0.01135735986645894, 0.08396173906556785, 0.27425256203854737, 0.30784289693276073, 0.14048876649109862, 0.04269400073488085, 0.1622697815451876, 0.15325557874245826, 0.30334826924577096, 0.2564117611963665, -0.02363900953550462, -0.03046818192122097, 0.2529182940460549, 0.16119610027805586, 0.25436105973798145, 0.24753598218573086, 0.24523445840468608, -0.061250581974149586, -0.24658093539927778, -0.1543694803062461, -0.04522863596841199], [-0.16813311092600233, 0.2002562157404493, 0.2578609946057592, 0.2587242739982145, 0.15815970466753115, 0.22433418345278736, 0.3019854796784875, 0.2800624521891773, -0.0044736973678351786, -0.019867169494515575, 0.09597605738662938, 0.01322500292182977, 0.15243160418669355, 0.26617119817005014, 0.09610015479043617, 0.04751124791092552, 0.023448414833473836, 0.0457508226290145, 0.22303259702743386, 0.22816298391277187, 0.06858819582215851, 0.005366077028329294, 0.21482649931643244, 0.20588595836139878, 0.3222132535135252, -0.1301343836127331, -0.18810740943770973, -0.13675955920191862, -0.3036174284802353], [0.02413864532145953, -0.012310585467789606, 0.09517429028148408, 0.061774775683321966, 0.06265388422574471, 0.16809128620270847, 0.27179526791383163, 0.2809994422866755, 0.2729336191982851, -0.030736307387533524, 0.28024813726945885, 0.26468387673269844, 0.2808930110940379, -0.02387414921151147, -0.004866138031231413, 0.06216910569035857, 0.23991038962819966, 0.1329893926038631, 0.23796574911173135, 0.20626891670234773, 0.19321253793732296, 0.2838505401275579, 0.09989991539864909, 0.19213290150708814, 0.21606193264033766, 0.06618566680202853, -0.07646335659393086, 0.02379954425168893, 0.07233219031286232], [0.013912292342401223, -0.06568888762225585, 1.4338998674314722, 1.1243643296943866, 1.2718690838297804, 2.3500506150836493, -0.7997561819264724, 0.264981452237171, 0.2101600795925554, -0.1215585537790775, -0.2084825677103106, 0.6303251393192979, 1.0653004099453947, 0.5044366169993255, -0.4058350882445658, 0.5022074823122049, -0.4576759518828805, 0.12111780707201711, 0.7688468035154996, 0.46343193927852594, 0.29562724686495834, 1.5343588990400319, 0.0788644375426661, 1.6359632012530294, 1.5105587599312127, -3.669006623979605, 5.86739506158023, 5.981253674237462, -3.6982103132221034], [-0.06274052709341049, 0.1797121912240982, 0.14471815526485443, -0.07175484299659729, -0.16899868845939636, -0.14278754591941833, 0.18382932245731354, -0.06261178106069565, -0.03162713348865509, -0.0270376056432724, -0.11265594512224197, 0.12744741141796112, 0.02133387327194214, 0.12647925317287445, 0.09698839485645294, 0.06241622567176819, 0.055364012718200684, -0.01686955988407135, -0.1522214412689209, 0.16321887075901031, 0.12932108342647552, -0.15724597871303558, 0.13591061532497406, -0.01151132583618164, -0.11337076127529144, 0.04300500452518463, 0.08237682282924652, 0.17858637869358063, -0.051495105028152466], [2.5160159963450117, -0.04300203260351186, 0.13464590522460826, -0.04130343430090379, -0.18648009602610463, 0.36450926930896116, 0.11206458474873836, -0.1567318668863575, 0.14079149995501192, 0.039617791310388575, 0.4121731699277783, -0.08824367656927698, -0.8220316228990764, 0.3330715147860579, -0.22102355216492334, 0.2449759143753315, 0.38263052715145524, -0.372446836660584, -0.08381164387640892, 0.277013367120035, -0.014837249480960551, -0.01940514458799122, -0.5773622219591912, 0.05224884070504929, -0.06843786657551311, -6.424833635191865, -6.417887371445271, -6.393807257667744, -6.356639021897067], [-0.2542515199728347, 0.18220627613850432, 0.23438860985490395, 0.3031720713647899, 0.31284541657450177, -0.001805186887503493, 0.12572269200677202, 0.07333984894142064, 0.1650372861498281, 0.17217862146087015, 0.10040654086029809, 0.16788194006443102, 0.053621754715560854, 0.15724899206181933, 0.07028949240066076, 0.04702722854008405, 0.010100535822873655, 0.02825638555535876, 0.14266303578253142, -0.030275383713197608, 0.2565427345059749, -0.012478014448134052, 0.01602324976138201, 0.22426898533585876, 0.08328877360780404, -0.09280592489505703, -0.31267844079070095, -0.23240674440089884, -0.10461297245299342], [-0.293884756772678, 0.08850985373445375, 0.049761716348825244, 0.20623193364602496, 0.17376920966507814, 0.032241363271025086, -0.025985057305311574, 0.08126947963452702, 0.1764714421223549, 0.2418491030500157, 0.15098784188415384, 0.14732048555836666, 0.22732754322014326, 0.14399637954913824, -0.016594550904290198, 0.17073685714029999, 0.1612816846725341, 0.17003159885571173, -0.01841942936263808, 0.016285844454491584, 0.14225127619845676, 0.18735636028713842, -0.016572591775080803, 0.08718001684404496, 0.13871051155223574, -0.024975688576520196, -0.18251242169499668, -0.22470349932555572, -0.03314368420412287], [-0.2436133539531759, 0.2919559045319639, -0.017196708604395726, 0.20243741369305968, 0.1891781599586601, 0.2976986237049376, 0.12697068909072848, 0.15352040737128428, 0.00043970754941060627, 0.016835437449769956, 0.07041264306423803, 0.25855131257968567, 0.29722609287712093, 0.07600870295417654, 0.12126245080628355, -0.03336777540361938, 0.15724884863732108, 0.21393177005619818, 0.07995326180863233, -0.016086138252494126, 0.10769423836841857, 0.29367804773381617, 0.22170717635751833, 0.07195088623101707, 0.34401338799418213, -0.28223528204753445, -0.05216665574859891, -0.0859721269821753, -0.08322021484876638], [3.4199332715692603, 0.2278267621940231, 0.21469474766635185, 0.14051158853151266, -0.2982835306853105, -0.8300968180290454, 0.42146207761425214, 1.039188079059834, 0.36242608779046864, 0.04670235460605494, 0.8618759059382288, 0.8789046545656035, 0.4845702563470615, 0.726517292179342, 0.9779186125079785, 0.2334054012787846, 0.6451410719367684, -0.4636678312456181, 0.8915736456622034, 0.5834651259973388, -0.2703172089413276, -0.5437956833568623, -0.33650781519534245, 0.1652488438139363, 0.5109526585866588, -0.6847184321605796, -0.765863681988373, -0.6768400517679443, -0.5011181569149649], [-0.33185632329241743, 0.11522117304659162, 0.041998683556924085, 0.22069496545553244, 0.37193561177128887, 0.08334037216252066, 0.033406260567027446, 0.28588188850526447, 0.24577025877346023, 0.3511636379775313, 0.31452789333347364, 0.3266288534881883, 0.2840804599895191, 0.3261039546497539, 0.30105337876580474, 0.40005509194882255, 0.2682916865632577, 0.11330047353488701, 0.17709905469488646, 0.3903934195571253, 0.35062480401380186, 0.3013076317475961, 0.05642090432798555, 0.09148025915619742, 0.32246944456941357, -0.12649810314178467, -0.17662370149924125, 0.10364414751529694, -0.162263885140419], [-0.16946353350315163, 0.04001225144509331, 0.21351793018406567, 0.34271291290329164, 0.23779630585604947, 0.25384349968761405, 0.04483656540001227, 0.30059978759049794, 0.16266563864828462, 0.31934295502327004, 0.23840186928879287, 0.03946135381898843, 0.24343649443230642, 0.2380658702001272, 0.04381230675155942, 0.005436813863991363, 0.17656514454419164, 0.04811233977865143, 0.10933195882634915, 0.043589075997053056, 0.08963067272875913, 0.014366460393266311, 0.03851188937740015, 0.12358087821689072, 0.06236552413311553, -0.3206141677335826, -0.08318179730103804, -0.2147908157936392, -0.34140708704099954], [-1.7783743492709283, -0.8488203687156529, -0.17213373793133163, -0.38639018279616966, -0.6664360450070698, -0.44613796594936744, -0.7617682837447578, -0.7885937339927516, -0.9524132147078749, 0.06825008731399305, 2.9501691165970234, 3.0901603513494185, 1.9091623786884238, -3.0036869928983863, -0.6205522320843608, -0.8051293684758584, 0.44136422605859227, -0.4051802913916918, -0.8928976789571448, -0.13790769892858806, -0.26099646452064257, 1.2498467370189568, 2.632295120429731, 0.5482345283147664, -0.7715170286088616, 3.9867088448982377, 3.867716489619294, 3.884247452470395, 3.9775810712968585], [0.07725910197156487, 3.0963626097609165, -0.5166250062704251, 0.804437172407286, 0.28962305274208633, 1.8322943108480245, 0.20667756802061732, -0.9951069588435818, -0.24884165051058948, -0.2492162157029066, -2.1834389913605237, -1.6261197017078477, -2.9093258993456246, -1.5811446493026526, -1.183616857237247, 0.2965499874721167, -0.5763358920860202, -6.43616874027625e-05, -1.778061761373211, -1.3518677008074338, 0.00846914506756809, 1.1777903797550657, 1.7950236648455384, 0.5431271150459271, 5.439494198905958, -0.012203664592212678, 0.03873204641542136, 0.039535341397303, 0.03188759686912869], [0.033795478965042765, -1.8478096502784447, 0.5066312982313977, -3.3280489264108963, 0.43062724382156026, 2.056297666209144, 2.441629730962052, 3.513485819078693, 3.0053877752567395, 0.134997396549351, -1.9639814654709369, -1.8165438281877815, -0.7784931797051895, -2.3827104370255614, 0.03664063318059987, -0.8260795558907951, -0.9628902772503135, 2.256843881362595, 3.3111620521400567, 2.9540241385545456, -0.4605160864622272, -1.819255396082319, -2.6553358060810686, 1.4898300670513553, -2.5629771460535493, -1.474004055044092, -1.387491341615703, -1.3625013569343494, -1.4027423361112583], [0.8506313863189305, -0.38770778374366394, -1.060596661657896, 1.0477764031930172, -0.45069861778569437, -0.13047954829016994, -0.12715356738575265, -0.11930615665389183, 0.9043874735513879, -1.226166691985136, 2.568237515269332, 1.0760302135870854, 0.44094105126182603, 0.6629492475304538, -0.2628835235316212, 1.40050820438764, -0.29076950677884217, -0.3161283664319996, 0.1436076014237836, 0.3750620401367614, 1.0190477463915204, -1.4990459761906905, -0.21842960279597393, -0.7822069523985434, -0.12221870781982784, -3.086305258264434, -3.166161677460155, -2.9557982923705546, -3.0978490335305984], [-0.13031035668335927, 0.3315142031902215, 0.25835263942630404, 0.3672426231150219, 0.22210764028602764, 0.07680369836234203, 0.2965269960356672, 0.024810847440306805, 0.2760170981140921, 0.06002259208029946, 0.094272877622434, 0.15865741766446104, 0.24322991957957205, 0.16367545853271967, 0.29660141787903277, 0.2499594375630759, 0.21131505991618185, 0.0941198054572668, 0.2144586720616114, 0.2243132625859806, 0.06208719988728098, 0.02712669341694605, 0.11980137438545697, 0.26832895338689633, 0.09836445453499919, -0.053580762953920884, -0.18986718451283505, -0.10953554688717909, -0.24995633411915338], [3.4033810821437287, 1.0829372398652133, -0.29440608561919623, 0.602275345171422, 0.1297977650837777, 0.48430617675340293, 0.2805693826770487, -0.48618325306808496, 0.4206003445960506, 0.2809031747054602, 2.0450716961620445, 0.07139064292417667, -0.086351880011849, 0.9493105248214081, 0.11732882376872539, -0.042800674657781576, 0.02003739760887605, 0.10888924197889481, 0.9177858550593161, 0.7001590343824833, 0.23252565138090223, -0.39674173592613127, -0.6288052670327867, -0.6240970532724688, 0.024744826501228882, -1.7027909671868715, -1.850718456372686, -1.7479247225776648, -1.5173173357419716], [-1.9887622802570382, -0.45203772226631117, 1.141541671945092, 3.1024179035421073, 2.7897870887203235, -0.6366923055724596, -0.21384578150162245, -0.29125124205496045, -1.5046230686458846, -1.2866802133852684, -0.24537357485882133, 0.5313844620134751, -1.02370451015725, 3.8252883423646113, 1.9487560009491964, -0.7638198845192841, -0.8888981316602482, -0.7404680073024396, 0.40161590758478427, -0.1750109142240386, -0.1316888876404968, 1.0228235641858696, -2.3636936962234634, -1.7535945242534539, -1.5155775279701071, 4.333852023147756, 4.287239612397308, 4.3030900051240035, 4.36996356530921], [-0.06366238215112927, 0.2912688563813704, 0.041843594270690315, 0.14229518125755763, 0.06437979679053893, 0.26069922350838776, 0.1595490767305836, 0.25533268531159703, -0.02180644028527151, 0.11217733838090893, 0.28543421748256836, 0.2940379660396131, 0.10559682670521853, 0.23333113754867446, 0.17541034552474893, -0.007033840651680925, 0.23841230590649898, 0.24767863729338727, 0.23082259204413025, 0.25171514303024806, 0.13653585094102966, 0.3273352463070221, 0.13981944694683743, 0.07716322122502187, 0.004665825162285908, -0.04454608781000995, -0.036265703006615524, -0.11015235938791734, -0.0820290491262384], [-0.09488540045596057, 0.07744315324040754, 0.05024373053614889, 0.04997564180026475, 0.11713973586365285, 0.034927494116933425, 0.30688968953548557, 0.3471378151513842, 0.20046217580436895, -0.014864769163732174, 0.21116435022565413, 0.0809301858107877, 0.08179885562170619, -0.009923670133830336, 0.31791307733548696, -0.015985020003079404, 0.08232686970422312, 0.33846249848166166, 0.060339363115421644, 0.046256557825334554, 0.33890547911476443, 0.23541898539258801, 0.20966938923382883, 0.23911397744843257, 0.2876642097776112, -0.10684469793154532, 0.03527628643915582, -0.22318010733070826, -0.00023700365298496038], [0.20708880289565212, -0.7540821815400917, 0.10204063084151678, -0.10715175887193663, 0.4424405839843118, -0.13988152604885082, -0.03448468038330239, -0.03589892998807216, -0.4744212539103077, 1.4887539761554318, 1.4812261319519915, 1.4703286197849892, 0.7211441135563854, 0.7751151697744485, 0.9085198640821126, 0.36305133767760367, 0.4500400075124705, 0.23226333988289977, 0.5218594660731259, 0.43785475753887354, -0.7604215247331645, 0.6629396476139171, -0.5043108073509358, -0.8642342976421414, -0.6651000889070234, -0.524698713292143, -0.39621565067127545, -0.27450666065317736, -0.7903046151165718], [1.2079750617505336, 0.8408252550078718, 1.3373184328227115, 0.188065990313401, 1.1016016604071353, -0.2177972905900004, 0.6667586352056463, -0.19047243144584167, 0.513837126060488, 0.3546927696136913, 0.9609616589711649, 0.13290954474495834, 0.5596503944504477, -0.9865483932919651, 1.1439446437551894, 0.019743566786109654, -0.2572365886515633, -0.004837503816850171, 0.46142771359656665, 0.7515557974464979, -0.11400952663476387, -0.20762811657052, -0.02699234048524065, 0.40024612623071865, 0.7433355736984973, 4.4460144630706395, 4.040666691812029, 4.2259299815410705, 4.697409018163779], [-0.16524100303649902, 0.11275796592235565, 0.07952834665775299, 0.14727632701396942, -0.0712890475988388, -0.006483674049377441, 0.1255553513765335, -0.004315018653869629, 0.13349805772304535, -0.11013941466808319, 0.11992229521274567, 0.16854046285152435, -0.1515398621559143, -0.15272125601768494, -0.06018412113189697, 0.16315536201000214, -0.027261883020401, 0.04243437945842743, -0.06816523522138596, -0.1671716868877411, 0.04281722009181976, 0.0061127543449401855, -0.04087679088115692, 0.16889001429080963, 0.05651751160621643, -0.06682136654853821, 0.11752231419086456, 0.13834817707538605, 0.002802908420562744], [-0.2895241609328808, 0.22341260400989163, 0.18026382897321405, 0.21327672133509495, -0.04083334776672963, 0.10450193447776461, 0.1967688524561235, 0.2554620161790904, 0.035483175731118644, 0.3075525101394896, 0.07108731290722323, -0.012296589037996264, 0.19234509953987886, 0.09187411289433008, 0.062321228824695755, 0.19408818311688694, 0.14216207793708463, -0.033486655838108996, 0.1933932013643883, 0.1461160196894094, 0.12158793104211839, 0.2758811726205385, 0.1511484775249093, 0.14339129538295098, -0.050723548241273356, -0.16834011673927307, 0.017605796456336975, 0.020722241179880484, 0.11189301311969757], [-0.04531744122505188, 0.02812914550304413, -0.037846654653549194, 0.0384240597486496, -0.05585622787475586, 0.014504969120025635, -0.12119855731725693, 0.1392708569765091, -0.09210706502199173, -0.09334288537502289, -0.052046552300453186, -0.04611697793006897, -0.09702932089567184, 0.13811706006526947, -0.0009096115827560425, -0.1474837362766266, 0.15548290312290192, 0.026552245020866394, 0.01707930862903595, 0.1480160802602768, 0.12327457964420319, 0.0726555734872818, 0.09992952644824982, 0.1190030425786972, 0.18023614585399628, 0.13360746204853058, -0.08592342585325241, -0.02562318742275238, 0.043345093727111816], [3.004750846205293, 0.07135566715329872, 0.4992827288377192, 0.3944982164470178, 0.7618263060282638, 0.8780423063393831, 0.2443386041238241, 0.16030651982944408, 0.2725807871928016, 0.26435563449124827, 1.1201071950093675, 0.06928801994050389, 0.4679673733142362, 0.16264318572995387, 0.39958266601478964, 0.06458014941692597, -0.19447125628403975, 0.1954026583047958, 0.5030971590240976, -0.023026251757201348, 0.43647369664846736, -0.2278012505186171, 0.44580966719474113, -0.1370097731647998, 0.18323875544784432, -2.58129979628646, -2.4290111844586475, -2.224463895722975, -2.0446381866991223]], "layers.0.bias": [-0.013033007323870164, -0.13659494148332338, -0.2084185774351352, -0.11260240885791571, -0.11825715418889399, 5.505918790635902, 0.05048729479312897, -7.253958813336763, -0.0027335393989439166, -0.23339942581810177, -0.16471250688396935, -0.5925406407851612, -0.10954609458281374, -0.0598779246673295, 4.3391276199782824, -0.08158516086433491, -1.965449547728658, -3.34253178687438, -0.07302187622257723, -1.7355486840229093, 4.966512106697154, -0.1758635502111554, -0.24450622858080479, -0.9183088446950808, 4.938493155452156, -0.06708740442991257, 0.032469690816339915, -0.07563946396112442, -2.6374486413096854], "layers.2.weight": [[-0.07032884025213317, -0.003823958810765788, 0.00016230945877817771, -0.14145022295093543, 0.35751366075013946, -0.045091458639234694, 0.15684662759304047, -0.06551694110722092, -0.11868810898154236, -0.09126396043428445, 0.03460035303015297, 0.011180316368776911, -0.043863847851753235, -0.014521278059023429, -0.04154316494735808, -0.04653795978413678, 0.0031645209075876948, -0.06000175824646825, -0.0625291566019369, -0.2250549757410778, 0.052651745100260654, -0.1925266320119271, -0.08711291165896481, -0.2662453981106878, -0.09342422436877841, 0.14482547342777252, -0.13176469504833221, -0.024702221155166626, -0.010651395151625274], [-0.010191374708225618, 0.1773307140060953, 0.08034494426413534, 0.018650028218170505, 0.28041822702057845, 0.02345036918203758, 0.14453355967998505, 0.981526901720894, 0.06312543923577654, 0.09018952624806277, 0.13498680374444158, -0.061799554790261564, 0.23400272466715089, 0.33868393808374386, 1.9535526698062904, -0.49409990077482985, -1.0421963607823301, -0.21045531146685012, 0.021748794334299444, 1.0996798904694165, -0.5434033220844194, 0.09923191534745493, 0.18558953097445355, 0.18129971366578512, -1.3606562481502926, 0.13989393413066864, -0.012631298648565882, -0.14565740525722504, 0.6161454682522081], [0.06898474070116677, 0.1680358499288559, -0.12524643540382385, -0.0968189537525177, 0.06459619893076794, -0.2751240243639623, 0.13266827166080475, -0.3050643595967964, -0.05170456030103673, -0.054385177718793615, -0.008537584818317205, -0.13995691928673606, 0.03073185682296753, 0.09200261214129747, -0.18902523901862234, -0.012390251737223777, -0.27764707790334925, 0.025227979275166557, -0.017471544528438302, -0.12059067325267477, -0.25332027045731126, 0.041562214493751526, -0.018848434610198125, -0.015361302605301615, -0.22779448964989052, -0.14732947945594788, -0.01647128164768219, -0.15087856352329254, 0.0025549543492664408], [-0.1840353161096573, 0.1072588711977005, 0.08488894999027252, 0.10317675769329071, -0.0913999080657959, -0.8167641421593621, -0.08560381829738617, -0.6285681018631899, -0.03936059772968292, -0.02032184600830078, 0.08239506185054779, -0.6349606544552526, 0.1592760533094406, -0.12670499086380005, -0.5778239661586978, -0.90715349687299, -0.6903563336409032, -0.9198784911169655, 4.175305366516113e-05, -0.7614600209379175, -0.9073901452004178, 0.025393441319465637, -0.10903610289096832, -0.8925587988678351, -0.6643920798201303, -0.13715480268001556, 0.055454835295677185, -0.17032790184020996, -0.7235945564577346], [-0.09815473032905767, -0.3042794212005991, -0.3331511017605106, -0.1263446966993657, -0.021700551749789437, -0.2796741907959227, 0.03198535740375519, -0.00423473243122891, 0.02375974296796876, -0.07991124989153785, -0.26598319638740775, -0.14202634315771145, 0.14630331099033356, -0.27308932545912135, -0.32665000414504414, -0.31187873318715975, -0.3240399459457168, -0.2540242999164819, -0.03665388661149195, 0.016733760330687863, -0.4782079373355736, -0.24804639690718105, -0.20655124855924786, -0.45049851271288216, -0.23395847275897877, -0.11701683700084686, 0.06691370904445648, -0.0805278941988945, -0.4226317673543792], [-0.2527782321794424, -0.02465977330741621, -0.13912476363053256, -0.03408050945621144, -0.12261682020236442, -0.11701018572900436, 0.02929447591304779, 0.01711807976293756, 0.01705833101134473, -0.0042447533658821, -0.3206234033067285, -0.24400973963318248, -0.025397703051567078, -0.10937061837245682, -0.32083825336484995, 0.025079741384174986, -0.29465476501526794, -0.10808179660648735, -0.24204429302022795, -0.004226730264002494, -0.31336554427635743, -0.0036818952291591115, -0.2697709217216849, 0.002570737930398248, -0.1128734909461806, 0.08993713557720184, -0.008445888757705688, -0.09360755234956741, -0.1562158993966786], [0.21129611333114226, -0.01126573631825827, -0.056476959873815825, -0.05615830500053471, -0.2680139818724195, -0.09590329222778766, -0.1427995264530182, -0.2319944866920903, -0.12285764888424515, -0.0730752394287947, -0.33092444070329446, -0.15409305088862912, 0.1349058300256729, -0.14245970216992496, 0.04168435618871692, -0.21264829222146903, -0.060639710000385656, 0.0077792506735849375, -0.042404154460461266, -0.15514633261701746, -0.2499248298078869, -0.15771626453515317, -0.04687942869906111, -0.005794827879858296, 0.03489559338749091, 0.08359672129154205, 0.19572877205612807, 0.10830537974834442, -0.0017876646449471428], [-0.0898216738508617, 0.0660210789741951, 0.2533758716347457, 0.13741555815269466, 0.1964174561416816, 1.261788461038278, -0.16342732310295105, -0.35706055602344217, 0.11447836427937366, 0.012769635182462514, 0.15535055693635358, -2.1314265821101928, 0.10670180385324823, 0.06697163911795848, 0.7323048232361129, -0.9161640291338167, 0.7438634793533513, 0.9588673314544132, 0.05940636401615963, 2.2243414302273905, -0.7897857268348566, 0.10520346126817397, 0.17816484876804883, 0.31002930081817437, -0.7726614872575225, -0.12437421083450317, 0.1552237816892752, -0.09707363694906235, 0.7118702464939796], [-0.055189014010409224, -0.09811843931674957, -0.15301448106765747, -0.1734965741634369, 0.03671102191487085, -0.061542946319697096, 0.04513634741306305, -0.19652560363715932, -0.05282744765281677, -0.2707885016382781, -0.11037351665306258, -0.27247929012510225, -0.14427603781223297, -0.09263644601353896, -0.09235559566138131, -0.25132787296417386, -0.05161047303919786, 0.10335959494113922, -0.1339718918259703, -0.2411575995410448, -0.3162753383307708, 0.017073277467752487, -0.0902530423122874, 0.042001359533842916, -0.029982413287046265, 0.03398740291595459, -0.04440423846244812, 0.12497790157794952, -0.19910230223486386], [-0.1275920271873474, 0.10316498577594757, 0.1672120839357376, -0.13113437592983246, 0.09481634199619293, -0.6222180840998919, -0.13275441527366638, -0.5788748425879864, -0.17691752314567566, -0.019930079579353333, -0.06937551498413086, -0.666740618935925, 0.05158938467502594, 0.07905121147632599, -0.7533265961900302, -0.13941285014152527, -0.6356900114104559, -0.052562206983566284, -0.10142500698566437, -0.5660074224783703, -0.787036000528322, 0.14126132428646088, 0.04662260413169861, -0.7851738890238777, -0.8039575674854125, -0.11822476983070374, -0.035720378160476685, -0.03937363624572754, -0.48699603657079876], [-0.34233580997586094, -0.04118037223815918, -0.18154367804527283, 0.13648422062397003, 0.03149338247113477, 0.06809154486715642, -0.13828489184379578, -2.015613171927153, -0.2920053992592855, -0.27243771252921706, -0.20608847439377057, 0.49251043362380986, -0.2361323478942806, 0.018108287478276443, -0.3117364029860147, -0.009156070585304443, -0.4711699309129016, 0.04526437010979718, -0.3131600243868897, -0.9747920022349068, -0.17649983603937708, -0.11072052270174026, -0.26175631418131184, -0.20604193933429216, -0.6242541124174823, -0.08520834892988205, 0.17416000554266162, 0.05136324465274811, 0.6866598694201325], [0.010115668436366137, -0.09430992603302002, -0.10931896418333054, -0.07938121259212494, -0.06209794395202616, -0.315920842596619, -0.14551156759262085, -0.17314082971188932, 0.2729893234564129, -0.14088863134384155, -0.25811632525695827, -0.1431114023737923, -0.11115991324186325, -0.01727377092384281, -0.014815713044655121, -0.3224704059097247, -0.053845415151588125, -0.18231071531772614, -0.2637377468398044, -0.2557988262352775, -0.25941036074593743, -0.27537078802635284, -0.20600642281008785, -0.06538627680052723, -0.051182568073272705, 0.08996520936489105, -0.05785548686981201, -0.12849220633506775, -0.21812421757311315], [-0.08810724050072755, -0.12061109393835068, 0.18005578219890594, -0.06573029607534409, 0.0688112651819249, -0.22927629866506127, 0.09921585023403168, -0.03887429006208804, 0.02526817535523688, -0.14491762220859528, 0.03159977452633282, 0.17760952567762142, 0.33756395651979704, 0.022602802870842473, -0.969781752228965, -0.39013326815132926, -0.604148422773326, -0.3222255764759241, 0.00032610183930852695, -0.43896214938937766, 0.002001420605226211, 0.12326101958751678, 0.06475114072483781, -0.42016935411135486, -0.8266693604627026, 0.04835635423660278, 0.030438786987485245, 0.18331296741962433, -0.10752954615545912], [0.0339663898305347, 0.3073747653457862, 0.2522539763834966, 0.06891689877732904, 0.027239998377145292, -0.16349599856619784, -0.1336386799812317, 0.48981009398624026, 0.06852263564927649, 0.1925574475195088, 0.060745772360398055, 0.8886999034374925, 0.16225995807613866, 0.08353629340797454, 0.3869715471621678, 0.7558741522700668, 0.3886917725215895, 0.2245756041004286, 0.1362891412926501, 0.42682388876672467, 0.346311759850214, -0.24466991844968042, 0.12326448516621319, -0.11205818186684056, 0.21757122889017447, -0.028945475816726685, -0.026800567267086732, 0.07708965241909027, 0.6228351024994072], [-0.045498410382497356, -0.08271822333335876, 0.04708242416381836, 0.01912301778793335, 0.08629405893866955, -0.25507897658078427, -0.054476961493492126, -0.2501096134380184, -0.11926844436429196, -0.20918481019390062, -0.006148217063886909, -0.08160045511383676, 0.13687141239643097, -0.01298075829624983, -0.21325506737870567, -0.2686305906552718, -0.12040988088578881, -0.1121930713371072, 0.21266481291729528, -0.09862506955802422, -0.0034426617220291228, -0.006477519869804382, 0.014452816077909237, -0.0460960196070667, -0.26046279165439484, 0.12623871862888336, -0.03631498260076493, 0.10759137570858002, -0.1429223128778656]], "layers.2.bias": [-0.20793239569595945, -2.3481130428500525, -0.3081249279458749, -0.8398886758293987, -0.23892714189997116, -0.3115444473284867, -0.31197994122884093, 0.29865894163573103, -0.147258600705611, -0.7881289586672042, 5.116295457840982, -0.20821776903799857, -0.8875046452951718, -1.913411476374774, 0.06733563208934017], "layers.4.weight": [[0.06073027050401532, -0.30426957916627007, -0.08550998122973608, -0.14179983735084534, -0.0633702463106562, -0.0750874599422202, -0.14458572851021492, -0.10962383218776033, -0.16318574657149643, -0.010325759649276733, -0.11325511050875205, -0.1649821651231895, -0.16773547744390394, -0.27396453739533105, -0.1479912142727832], [-0.030445381999015808, -0.3567017772142589, 0.018899417367231934, 0.1234143078327179, -0.13608646392822266, -0.19650915265083313, 0.19735607504844666, -0.021905914435631883, -0.2314527114897159, 0.13461771607398987, -0.024181288847938357, -0.2070842683315277, -0.22838565707206726, -0.1397994915551417, -0.13003082915282035], [0.23268103778082597, -0.15266315317711635, 0.36754182169710237, -0.5368352311639005, 0.1913454501161156, -0.1797439157962799, -0.06449540850458177, -0.40118223857845, 0.17347269438577076, 0.4619954846828755, -0.7690579793435993, -0.15529325604438782, 0.08054234698629929, -0.9645509820027027, 0.22335146859927896], [0.19807883757757347, -0.34833937873189574, 0.014130128343442327, 0.8351115436733956, 0.14388588357551682, 0.3342218678004436, 0.4182138255107795, -0.027527937229348706, -0.08725433256253486, -0.48818321205031096, -1.262005262652391, 0.18092245156700623, 0.2296714532860942, -0.15295710016077327, -0.06613385018355035], [0.14499220062684384, -0.6875518222125696, -0.05002287030220032, 0.16229090094566345, 0.38761605738141336, 0.2869776487950249, -0.08285785639404343, -0.9972559087218514, -0.03994999825954437, 0.12284651398658752, 0.24871465681574276, -0.04598478972911835, 0.019586444741897007, -0.7170536990733473, 0.21071785688400269], [0.06900985293879287, -0.23773484310109277, 0.014787721429253518, 0.524990120791221, 0.19920984137181993, 0.0901726924065559, 0.0672141379677553, -0.4677812589176166, 0.25586672275743844, -0.48619317640307164, -0.24999976538812094, 0.2923324268762532, 0.45908813585503727, -0.25315178908421987, 0.11856404627787172], [0.01138758659362793, -0.04926953868754986, -0.2630973968157334, 0.1913577914237976, -0.15165379643440247, 0.0019488930702209473, -0.1794460139199366, -0.16972475838123938, 0.030584216117858887, -0.06125915050506592, 0.021331364397869857, 0.22080570459365845, 0.09873601128768549, -0.32419445476634784, 0.04692721169651301], [0.2933788819161685, 0.18860222158670817, 0.13879715772136023, 0.6132756092911835, 0.21381338114378623, 0.15641862168707482, 0.031786671769766746, -0.20525945460953868, 0.08060765317623057, -0.5412545900507276, -0.4342992454987792, -0.10390937649299255, -0.036933970468133126, 0.5114260991399532, 0.2933087185920635], [-0.22075492670914917, -0.32749760747725065, -0.10256096720695496, 0.006816893815994263, -0.2406204035207795, 0.08238855278409885, -0.27689115718807267, -0.19564954281262975, 0.21776467561721802, 0.22073838114738464, -0.11182036995887756, 0.029470056295394897, 0.03247654438018799, -0.10827112236708288, -0.007076233625411987], [-0.1986163077535684, -0.26571868228524453, -0.23708660242379226, -0.19942399859428406, -0.11278493330221007, 0.03690686579719748, -0.11773694470056122, -0.4065400858138289, 0.08443951802080575, 0.1263757050037384, -0.10537147758271742, -0.3144126107411477, -0.1969940520635869, -0.5642010429291234, -0.08400562138640488], [-0.13360771536827087, -0.6798993003025565, 0.024750471115112305, 0.1884908378124237, -0.01688048243522644, -0.014220252633094788, 0.02840280532836914, -0.11872316896915436, -0.18341515958309174, 0.08104273676872253, -0.41733394333126067, -0.07079611718654633, -0.2271297574043274, -0.827375479657938, -0.04317884147167206], [-0.23158866167068481, -0.26109058843285976, 0.016686410228315872, 0.12711158394813538, -0.2458219677209854, -0.22252096235752106, 0.03063592486689612, -0.06236998365865386, 0.02401357889175415, -0.02747325599193573, -0.07695022924636645, 0.25405511260032654, -0.0439216863342253, -0.0999324715026827, -0.10578239340639409], [-0.40066549809506447, 0.019182979615335882, -0.34106816510530696, 0.10259747505187988, -0.39770055491325507, -0.3846824951568846, -0.4433667020750965, -0.3517435780369545, -0.0030918033650776957, 0.16670596599578857, 0.040255304743520265, 0.014409403517191607, -0.345652614724647, -0.1075454174565845, -0.29344475130688263], [-0.094399477387006, -0.2814025839693767, 0.20229309797286987, 0.19028601050376892, 0.06881679835881438, 0.057820560401960326, -0.15643705108676054, -0.36389276964366424, 0.19744285941123962, 0.22879379987716675, -0.23742957413196564, 0.08798107504844666, -0.18151912093162537, -0.37992852098740326, 0.150149405002594], [-0.010800775862753667, -0.33924422993148967, 0.11176148056983948, -0.12104599177837372, 0.10289170061353108, 0.09913259818868302, -0.08434778688039604, -0.007603772728213671, -0.16394177079200745, -0.04548738896846771, 0.10415017604827881, 0.22337496280670166, 0.04212832450866699, -0.10228029719761884, -0.08610484004020691]], "layers.4.bias": [0.040185644422826405, -0.09086018464663903, -0.5415834133029769, 2.5601073714576836, -0.23192083898844842, 0.5002155036981505, -0.2927881124284884, 0.5972639155830124, -0.169988389438078, -0.11088558113208785, -0.8800747172001656, -0.16274471054216902, -0.08122371318568261, -0.24634636842722551, -0.25555554091343086], "layers.6.weight": [[-0.004606874663504738, -0.0028710843753841906, 0.061480011441939944, -0.06127137460844684, -0.3491182608950957, 0.0015931266363532945, -0.00674912057612952, 0.36751976981989243, 0.04173536806431017, -0.4472616638443476, -0.6595544665063408, -0.04473801236225828, -0.037564818774826265, -0.006322798506025718, 0.04448665792534274]], "layers.6.bias": [2.9468132389743387]}