{"layers.0.weight": [[-0.16017353534698486, -0.1427781879901886, 0.06726445257663727, -0.04532432556152344, 0.021334663033485413, 0.01750899851322174, 0.08716078102588654, 0.0879373699426651, 0.15143127739429474, -0.17401733994483948, -0.0681789368391037, 0.10652013123035431, 0.12656466662883759, 0.05875277519226074, 0.02685418725013733, 0.12326417863368988, 0.061880648136138916, 0.10221140086650848, -0.09967432916164398, 0.1451098471879959, 0.13739193975925446, -0.17217354476451874, 0.04401293396949768, -0.06225425750017166, 0.061202481389045715, 0.13791407644748688, -0.0368766188621521, -0.002612754702568054, -0.12332051992416382], [-0.17847337056437088, 0.15599281722693412, 0.07838180334895897, 0.0500265324409427, 0.23830444750522306, -0.013143692052785039, 0.15245586232246794, 0.2409213888600946, 0.2810216948770438, 0.15766079213621695, 0.20105707107462273, 0.13268494064237057, 0.21056106274176614, 0.038532297846962715, 0.15482985633505206, 0.25062204533262095, 0.03888763863743172, 0.21471701197573959, -0.01347609256642229, -0.022955168334792567, 0.060454960504116556, 0.08798495216903816, 0.13462273302301178, 0.13456987877084695, 0.21231726952969943, -0.2884918560277063, -0.2310355596533691, -0.06547997192931843, -0.3086015673598212], [-0.20115394406587328, 0.04316165947193532, 0.2739347340227051, 0.26522455826963054, 0.2430031734628497, 0.09999028021065454, 0.037798649157391714, 0.04816351738882697, 0.15908794468119106, 0.13518901387848933, 0.1665042494562312, -0.005448700127763125, 0.22019083664445885, -0.015347301599226763, 0.28036694068432083, 0.18894499351504998, -0.0007536117277283557, 0.33579625417096554, 0.04513512496854623, 0.11036648552830583, 0.15757432985424716, 0.13763581498340463, 0.1916225265572719, 0.11390404356637494, 0.18924769591899424, -0.1451264714822454, -0.0029887708284941587, -0.17942594365201311, -0.08085473058370732], [0.06526891516979907, -0.06336865862894131, 0.12513715670297273, -0.05032923358256671, 0.00687498670630518, 0.1633181910360665, -0.005149693580508687, 0.2358116374231721, 0.09529134824670796, 0.11143583128384348, 0.12688450131218096, 0.2484687378349153, 0.20391259138016793, 0.08012893031879335, 0.0096061065184899, 0.07601904690351889, 0.003929164249158482, 0.07181951243800481, 0.23596820893418963, 0.2646782126076363, 0.051537978536561634, 0.0878180430763495, 0.24129454725545732, 0.17956229798560042, 0.15948868222572402, -0.2179873927892818, -0.08885112332342339, 0.02281557364058141, -0.07905790137700815], [-0.21544189071132944, -0.14127745434792685, -4.297111435721471, -3.26918263248389, 0.7222586343369772, 3.945837715470494, -3.341878007565369, -6.650124894420304, -1.9936053937413656, 12.57487716110166, 4.582803259370445, 1.1790565771595436, -6.1143844565639895, 0.6101253560539787, 0.6036783955684456, 0.47637786377184005, 1.109564850563393, -1.8856918033778818, -3.8216347247051337, -4.669603117843546, -1.5686745314613377, 8.305688411241661, 6.758999711783214, -0.9589093059404903, 2.070897421177839, -1.0170033008405635, 1.0635573584184883, -2.293636315325003, -0.8906971859693272], [-0.021705716848373413, 0.0727376788854599, 0.12167517840862274, -0.11973652243614197, 0.06474567949771881, 0.08581002056598663, 0.04408194124698639, 0.06118428707122803, 0.11608175933361053, -0.1817070096731186, -0.07750982791185379, 0.009954988956451416, -0.01243525743484497, 0.038624510169029236, 0.1382133811712265, -0.023328393697738647, 0.1463150829076767, 0.08403564989566803, 0.12031672894954681, 0.04837769269943237, -0.034136801958084106, 0.05888219177722931, 0.07592301070690155, -0.10884415358304977, 0.03383859992027283, -0.004477858543395996, -0.07587475329637527, -0.013326555490493774, 0.164062961935997], [-0.009635099412614617, 0.0017513896913031492, 0.30433342692399395, 0.12034119326400976, 0.24810050313648707, 0.32660520494296497, 0.10322494073821131, 0.2983334663475599, -0.025518788605800456, 0.331559666505531, 0.32703077352889287, 0.17878898532379975, 0.09135767572369848, 0.044675037077580304, 0.3318341229934974, 0.058671315676266364, 0.3074738869223868, 0.15366703721302827, 0.025295880250264236, 0.31462719941822725, 0.30580965057133513, -0.025024311319154256, 0.15963667533629106, 0.005481632449329781, 0.10763550087356945, -0.04071806240750086, -0.018527975891942317, -0.0862366582518291, -0.06767231662319907], [-1.5777524942461483, -0.9557440985422058, -1.7664959396463276, -1.6939124615972505, -0.08459225213979246, 1.8743925894470272, 2.817755561324451, 2.1960204484713617, 0.3903224615533217, -2.7202839959135074, -2.9360658521036394, 1.2466822387394894, -1.8998780289926207, 1.1177998288592246, 0.878999281533642, 0.3840163622874191, 2.5667599600544233, 2.5436146972786533, 3.487906589835417, 2.654925207784908, 1.1974337981400385, -1.3836655828485886, -1.5156605347179029, -0.11979997187784139, -0.2545745757391386, 1.4893990238726542, 1.7723612725846811, 1.7522536403035651, 1.9540449490581882], [-0.17971192723151022, 0.11390453788457611, -0.022692385022474233, 0.062486086491889574, 0.028064337150687176, 0.136628941239958, 0.2922282782824687, 0.06515461237912303, 0.07120266540532107, 0.2610661354114605, 0.23725424076809137, 0.11013144430779358, 0.2599603865770457, 0.0006776285368284943, 0.24587075267918376, 0.2682420638949138, 0.2982975135549379, -0.01846761830906308, 0.15751922993631973, 0.08466501554455771, 0.19746333175209835, 0.0330406647464836, 0.03590725024726401, 0.023329226580231052, 0.31907967229826567, -0.16655043795616234, -0.264181942725778, 0.05396329523836953, -0.25772481460238794], [-0.16679467260837555, -0.1166866272687912, -0.03200125694274902, -0.07283103466033936, 0.12808917462825775, -0.05699867010116577, 0.13531775772571564, 0.071507528424263, 0.055873170495033264, -0.070246122777462, -0.1224297285079956, 0.00784999132156372, 0.07354645431041718, 0.10436181724071503, -0.016711130738258362, -0.04538425803184509, -0.13941659033298492, -0.08423645794391632, 0.15577886998653412, -0.07582399249076843, 0.17154471576213837, 0.09262622892856598, 0.157818004488945, -0.061819665133953094, -0.04202532768249512, -0.03776201605796814, 0.09959734976291656, -0.11500176787376404, 0.06894253194332123], [-1.1038728638381765, -0.024672266219913738, 0.059512116373201376, -0.06461779668024262, -0.04182897425008726, 0.0621256735107509, 0.1328059964400621, 0.12233574571077392, -0.02028133447237434, -0.25092282011970046, 0.030978936587824635, -0.026071090521237492, 0.1180127189245446, -0.02308544169352162, -0.08499225100761301, 0.08598439361114488, 0.09470894197662838, -0.020978118659544687, -0.11071837045751262, -0.11994776221544079, 0.07607920100032849, 0.1746856414491713, 0.02339399536928663, -0.05247044343640043, -0.09258305725521863, 0.8089997225438391, 1.2266560465203258, 1.624285913852091, 2.029287653852803], [-0.2528681403383775, 0.06518714491712738, 0.006480034752312576, 0.19642766936810827, 0.08767404780203122, 0.1526982151948026, 0.006166215641579011, 0.09388514931839366, 0.2945229512954634, 0.26753438515995986, 0.09130024395476045, -0.01885636668659981, 0.05171861081194058, 0.28555197615578365, 0.2435350235036102, 0.14782014120391532, -0.017547938921402145, -0.00850326179176579, 0.24699984102469805, 0.0457635779952149, 0.3274800882467849, 0.049920032896646246, 0.11090847391147313, 0.12373078910251943, 0.1694208197378356, -0.1431380636423947, -0.050239393300747046, -0.11323588112242515, -0.08583396561929338], [1.0804529386684456, 0.4508604363584079, -0.31599521535465136, -0.09141970929211529, 0.05851402884393392, 0.02065644657521575, -0.09097119460294263, 0.10082447407501836, 0.0783693090973416, 0.19998592339082363, 0.15380008913947646, 0.5987662856558265, 0.16372508648967138, 0.5000202485228045, 0.214337868005539, 0.0956544696130485, 0.18809123680207496, 0.23627539538852763, 0.18502299680223921, 0.359292163084384, 0.027447342821160504, -0.22871328075811928, -0.3262097133514987, -0.05450616913768965, -0.2123926946264472, -2.7431290289324477, -2.637785694985112, -2.513659081599752, -2.251850586148752], [3.4779639176701584, -1.2852366116983165, 1.7204320605027918, 2.2037746010021526, -1.1957770980333413, 3.7601441455165454, 0.2920353777032739, -1.5460262739506931, -0.09586240961753208, 3.34454624509638, -3.006212917621089, -0.20325570183295838, 2.721614808110674, 0.7095875020065522, -0.672242764032596, 0.20268033418704487, 2.921400828129888, -2.0368759101438516, 0.13540621800362532, 2.695103695455551, 0.43842380473658726, -3.036218554329463, 4.318640199234757, 1.3015070038362107, -1.35884057316073, -9.759675867611652, -9.787891699232684, 0.7573315606658704, 1.3703619058479082], [-0.20562664530001679, -0.01596028762922092, 0.20668070557577684, 0.024401593772222042, 0.033984709144586095, 0.15127395449740552, 0.2726691235901314, 0.04016848271190116, 0.2264560071811087, 0.010966110078383096, 0.28762038195455447, 0.203754604663031, 0.24014778669273312, 0.11774999279147345, 0.14695037017089305, 0.17949802101563098, 0.06592130306020244, 0.1855605284342755, 0.06572108227464774, 0.28427203431325343, 0.21376525493305584, -0.026379253623594823, 0.024987551222727358, 0.06792431549840244, 0.05668956332640551, -0.06654649582432562, -0.17949218620201593, -0.23363858650349678, -0.3089044493805886], [-0.07945743091509257, 0.12583929666150695, 0.010010057605547705, 0.16491992716258955, 0.02525143635159579, 0.17334311334025201, 0.07126908497453997, 0.28807331552728593, 0.2698754733317216, 0.15416846394468753, 0.1892156258940011, 0.11672927300182631, 0.16195341581596984, 0.09727848212957904, -0.02559712979427515, 0.15683690992517346, 0.04040853614734984, 0.004685115186785402, 0.32376482387023514, 0.27835211509755053, 0.05461776472028162, 0.07257365625281739, 0.299266501806527, 0.09792256761462868, 0.070775827978467, -0.24611794416470878, -0.04523413349468474, -0.217897821431971, -0.16522178995991837], [1.4060097809119652, 5.253839551075267, -1.9232102477883544, 3.731548761734502, 0.8337247545648073, -0.6735831087816722, 0.9024902334348235, -2.4850905672732884, 1.714318532935293, -1.4256268613916208, -0.5786272170282301, -4.5277033714576795, -0.32348315132754596, -5.527368755775079, -0.2371589621140788, -0.8468661345899013, 0.8113189139481354, -2.765011933281392, 2.338502492154562, -1.5669034883341497, -1.0913066655041794, 4.454311692668165, 4.733067792928088, -3.21129068989617, 0.6941435292549996, -6.637732471277843, -6.110782810198233, -4.7872673166046775, -4.821039443998241], [-0.315287123453407, 0.3139514144737751, 0.20657402758038212, -0.08210385028653548, 0.07083595578419088, -0.015675846215183777, 0.2978216050180944, 0.18623828447239724, 0.009867452963701584, 0.26286657721028167, 0.3415866990516319, 0.2769638113810807, 0.2657865330565301, -0.0038877224044261767, 0.03532866651148651, 0.11134729420659997, 0.11530272203963057, -0.024969220023096407, 0.1598883788890828, 0.08946027521914697, 0.34952339037007635, 0.18072445599796763, 0.055017408966561404, 0.10782545760301697, -0.021313819325492266, -0.19455762258227174, -0.008109881035980161, -0.03550790032869755, -0.09318876132593269], [-0.058710085690590934, -0.5665041381409357, -3.4683554522406563, -0.4415788393944207, 1.9393008309440307, -0.11950199337706367, 0.21740072390173346, -1.2165051933344506, 2.847975374500257, -2.055903939834229, 1.300261233860514, 6.504037120317977, -9.685863331741325, 0.5346513437887124, 2.785135400688862, 0.8940743729025884, -1.6971101726825084, 0.8789355913296498, 0.05222305260838229, 1.3427687648095792, -2.4744436129278693, 3.039081983779261, -5.966406390911119, 5.006353732280465, 5.684155079564621, 2.398203005780967, 0.9479341888217363, 2.60633943618727, 1.0206284553432596], [-0.06720287762583654, 0.20195668394316615, 0.1837844362443166, 0.12977078071738163, 0.06644302899509372, 0.26641967487477736, 0.013106683386590861, 0.228226685802191, 0.12433437381018593, 0.13404261296444436, 0.08732966983417799, 0.03798253722315168, 0.10779627423503997, -0.006325011376368932, 0.18532861446019314, 0.23226257725926538, 0.31438454566357926, 0.02837501080439475, 0.10192711141797478, 0.23822295129913507, 0.043103294298292676, 0.09996817286053702, 0.31043364816128355, 0.2974257986444102, 0.29021649822337825, -0.2597939734605113, -0.17724002036730402, -0.01697749368487226, -0.12342631316038753], [-0.13834974132003824, -0.05288370492319129, -0.009304418544028654, 0.1100994478645317, -0.025995158682896386, 0.09271545260126135, 0.1301416880365756, 0.05879732797188075, -0.16237556801182187, 0.1297842423937092, -0.1264259736796888, -0.1455681958558194, -0.026927792215886093, 0.07119872421713291, -0.010561213164128226, -0.051996303001958434, 0.0009411774529628274, -0.07524625712733242, 0.15197308296538736, -0.049620503347794526, 0.11756207557637766, 0.013868864839676764, 0.13046307749865194, -0.15605952118245656, 0.17054918709732475, 0.055681345261645504, 0.04228444374430835, 0.06362358177322006, 0.1096655790559736], [-0.706723533798754, 13.04663429388088, 6.465126095606759, -4.609033995206334, -4.482170407963138, -1.3532350357133383, -3.517274769719984, 1.1076423906737847, 1.0143288277419942, -5.348143276255427, 0.8768442238481741, -4.345509602972601, -0.7537381671298118, 0.9134177613784639, -0.7971133597430087, -3.5113604524620463, -1.9419899183825624, 0.3014588505490793, -1.5386011326794968, -1.9422535192665054, -0.5353342374341081, -1.4020085853339335, 3.9775623869305523, 0.24783587284729772, 7.737676100574926, -4.847090927395074, -4.427119904547632, -3.0276122216283605, -2.8009786840614104], [7.455967530943969, 1.3446634202377448, -0.16266581776288183, -0.4983038573044667, 0.5994876960435653, 1.3660354969034623, -0.43488170624442074, 0.20310399590645672, 0.09443990759230324, 1.0458101832132267, 0.5131745839340419, 1.2138001458496972, -0.8256271401017868, 1.5634907860116434, 0.6758253486801601, 0.7960764220744384, 0.5716753894411348, 0.24855240081452482, -0.4004322689728867, -0.09687108903211607, 0.6469326254537247, -0.6681722241072254, -1.3017858605604058, 1.2993832247628392, 0.6698766748554127, -7.3749634273610765, -8.003286910149173, -8.48949797052356, -8.706454712585646], [-0.5648468867072568, 0.2979636851200069, 0.41128452516010344, 0.33831481517446876, 0.435839733789922, 0.5565136154785433, 0.3122301510594327, 0.5808463069423202, 0.5499758409171935, 0.6418960847833973, 0.6073998362712402, 0.29656087233994055, 0.32277539530787414, 0.6230320321072986, 0.45465897152879164, 0.32035963101914905, 0.41787738210240716, 0.5891678539297291, 0.6496019454121437, 0.5591636918353746, 0.5141889765694269, 0.6594233236150411, 0.4807510983219341, 0.4644696829416379, 0.5945088949636846, -0.30634272079901503, -0.5743103453788306, -0.48908159868174705, -0.6408101357480382], [0.19620017681981936, -8.592761340837164, -2.479184201122404, -0.2471282891800079, -0.13042961613324905, -2.2589228711557663, -0.5704158398878665, 0.02725477624861483, -1.610601401347413, 0.5530763393246242, 3.143173473924735, 10.235049233906945, -0.43118289417409283, -2.202277325386029, 5.817543778318825, -2.151545542980655, -0.6867616572401994, 0.3517249955857731, 3.4640823499264437, 0.7904874459232676, 1.3678198294087829, -0.8089085257760242, -2.5964060143620293, 2.808942310618237, -0.5190941215595596, 2.018369763755661, -0.38282143273734043, -4.71420977088271, -0.8813023091215949], [-0.2317301465651979, 0.25367273037048316, -0.052689132042855746, 0.21980374882509926, 0.03208999126618367, -0.08111133091657126, 0.10743905005929706, 0.03780216297184756, -0.01612828343886216, -0.07883037732501955, 0.07778039138752914, -0.14265876833903748, 0.2023540308624842, 0.10301755048061846, 0.21955846252073316, 0.04110989304093527, -0.08636294106423081, 0.1257946367661446, 0.21465960417893332, -0.0457419266298743, 0.16491757781276284, -0.09599628573278646, -0.013637268552626269, 0.11250803316043077, 0.007392889306722173, 0.01067229791492343, 0.0578962548650828, 0.11131717248305004, -0.16855368582655486], [5.981337467313335, 2.104940078044615, 1.1242797626923864, 3.132444941111776, -0.0038517435545635404, 1.352602607232101, 2.147975461628275, -0.585403329854995, 0.20357721795726771, 0.28542765960541017, 1.8890575152074611, 1.5655868499209604, -0.3783522555672324, 0.7042877766938589, -0.22208102986101752, -0.5312954091367963, 0.9657948897499979, -1.4453753205762625, 1.4077467744599033, 2.659399299338633, -0.6064556354055097, 1.0696806555977032, -2.159767656750618, 0.5174436657802401, 0.5422078475065858, 6.062405356395382, 5.2294456457448195, 3.861906686623983, 3.0675924964075407], [-0.1646553359847964, 0.20490723769824276, 0.2501559989710693, 0.05113977445989564, 0.024728867082348456, 0.1274661803983668, 0.3191878727480013, 0.18307336842777144, 0.14707147909196475, -0.02230341243373315, 0.3310538113342004, 0.0782922583100249, 0.3007652657697876, 0.07668821843225977, 0.13868506506528314, 0.24583177347493618, 0.13752557769988935, 0.3194716093163351, 0.11263367369256798, 0.3182453025051062, 0.025448553537134024, -0.0009293175418608524, 0.20793956490414717, 0.08214308177553253, 0.22672875015457297, 0.05720646679401398, -0.08980999141931534, -0.006445202370602025, 0.12693341076374054], [-0.12366410285198624, 0.30721110890720815, 0.02652770045985967, 0.1717996807395369, 0.03337775936956667, 0.30289433329641274, 0.0020734802709290144, 0.21995070705403844, 0.25790425459567734, 0.2154902214141783, 0.06297120132932203, 0.2641073007653733, 0.2128694142700894, 0.12429652533747498, 0.2574829892694641, 0.17212614927955106, 0.14009458530527166, 0.2573550430898836, 0.0669327221378225, 0.005787703767166953, 0.10941675044177668, -0.006471064723091836, 0.19238755904379876, 0.019320759687591827, 0.18465592887381826, -0.26938974688598466, -0.29102148281581847, -0.0003616782726652819, -0.11206346186081369]], "layers.0.bias": [0.09382639825344086, -0.20531577499314793, -0.19259820747176384, -0.1822254012432772, -1.2187219414686339, 0.09019647538661957, -0.07657060754545661, 1.9491006348410946, -0.16690879880516335, 0.09812484681606293, 1.6753772293691367, 0.011129731741506416, -2.627774112588372, -0.36233138173425133, -0.03263794371775271, -0.2026757817351651, -5.876877624785285, -0.13791395248486377, 1.3420434368036753, -0.12822333607247258, -0.07235540454185846, -4.002517848967461, -8.604628007770694, -0.6166914078865287, -0.35574539792792514, -0.22422946597593937, 5.110645730810166, -0.2515964315733495, -0.21302273126025284], "layers.2.weight": [[0.1360233873128891, -0.007031058045363096, 0.02632855860859037, -0.2916122960355611, 0.028288599204152675, -0.11562690138816833, -0.20905291621190583, -0.17570809670257537, -0.21712626672500082, -0.08448071777820587, -0.31913330452699595, -0.0914413828171501, -0.2375854851408263, 0.0023609336823257198, -0.2127480804568149, -0.17492929943752172, -0.14405398143817644, 0.0010319438990955985, -0.226630515677546, -0.1649109818461103, -0.2608376610356748, 0.0052317362178344795, -0.25151354859257746, -0.045301154255867004, -0.02106099896217109, 0.023828123859425444, -0.22754962439875787, -0.030805200338363647, -0.1323943634843897], [-0.04399414360523224, -0.03343714204609584, 0.05663695960552186, -0.036408333958381243, -0.2774372022238826, -0.1160622164607048, 0.06004264266515772, -0.774721972757748, 0.11273161320666085, -0.10493788868188858, -0.2080264595262472, 0.31036300134721084, -0.30435708154466556, -0.12220744327732724, 0.17906999093093987, 0.22166427274750525, -0.1825874073763867, 0.0009369560174177874, -0.12272081213135672, 0.24879034022053292, -0.1557396405512788, -1.7008669573275175, -2.724328318467056, 0.09262137115001678, -0.1895385031436065, -0.12160258973026113, -0.7850910867907996, -0.1255073845386505, 0.26544701294669204], [0.08247680962085724, -0.016906836177857727, 0.07910642082885315, -0.0573864695216287, -0.22459792645229634, -0.04699787497520447, 0.11030199869857792, -0.08190457290196779, 0.19973803318356917, -0.10411475598812103, -0.41849552051112615, 0.09287463087498396, -0.01872593560571501, -0.003810482050416741, 0.15366472322706398, 0.28131658460116654, -0.19054206195214166, 0.1803451723659958, -0.9840641318177987, -0.029469801577372928, -0.23187395780458914, -0.04243980992118432, 0.037845313615646345, -0.498359261169507, -0.012842339147533612, -0.015921922143282835, -0.04749936716743275, 0.04630452334535801, 0.3199245438610986], [-0.1264507919549942, -0.004754588007926941, 0.1429259330034256, 0.031387194991111755, -0.23592352021974325, 0.009602576494216919, -0.09277244657278061, -0.8524962255557383, -0.17008040845394135, 0.10738407075405121, -0.08024223893880844, 0.18101267516613007, -0.8413881807321083, -0.948376067948626, -0.08315993845462799, -0.16284114122390747, -0.8163468813883213, -0.17872273921966553, -0.2830814630521897, -0.08340540528297424, -0.1423524022102356, -0.6499282935808376, -0.6430704744839442, 0.1511991173028946, -1.0780223805372886, 0.16229821741580963, -0.6137145334442564, 0.16694490611553192, -0.021102800965309143], [0.09996269643306732, -0.0017573725652039241, 0.2990820031275897, -0.1422512934185889, -0.9691476742155183, -0.009257376194000244, 0.33879502983102233, -0.3759035165356174, 0.02821000308080136, -0.06984815001487732, -0.07621006730439446, 0.21621181791788807, -0.12080729810900936, -0.22323951392916094, 0.10378011967034423, 0.2722181873387728, -0.1774446577378495, 0.20039669699655524, 0.0007357831016145851, 0.04271885177654427, -0.0015936500554847909, -0.07417778759254237, -0.053851448323251165, -0.485958669104438, -0.7538993906293937, 0.017523331417896713, -0.09895139673053392, 0.047345847803634725, 0.0595754091324136], [0.13723109662532806, -0.03003031730760684, -0.013942954781031539, 0.0555350730037904, -1.5639546870127994, -0.026970714330673218, 0.10046056864843751, -0.427716185704031, -0.02645289662539259, -0.08553972840309143, -0.213270000639127, 0.056779992176662804, -0.17096071289523443, -0.9151720421193765, 0.03480987699299359, 0.10732072367861535, 0.6773289127864567, 0.04238195620777321, 0.6449027771750618, 0.2218443186578722, -0.11931619715969667, 0.01258089777888929, 2.740350289447373, -0.6048407237246188, 0.011226169238999639, 0.09799065599657365, -2.102879102866516, 0.015443708942404454, 0.06574518920522646], [0.18158139288425446, 0.012201332887558059, 0.024972067579579697, -0.10980885198943977, -0.056520211596251244, -0.11002261936664581, -0.12418351345719938, -0.08501507073020652, -0.30705249939444845, -0.14174234867095947, -0.012121501816031558, -0.0017676273329297408, -0.07686875195554081, -0.3637687015326891, -0.1983437637886444, -0.09747758120126956, -0.23303666691585437, -0.22464591110264426, -0.0898592490802882, -0.255865721540897, -0.15513573209704812, -0.17879883609676553, -0.29023866062687015, -0.055880531668663025, -0.10250644678331504, -0.2536591290468411, -0.1103959024190082, 0.01711197439338383, -0.0691855590093035], [0.018484488129615784, 0.17522767750211216, 0.09744015764154836, -0.13993893947774924, -1.4336712848203361, 0.0498356819152832, 0.03243031235071618, -0.2717742097410393, 0.2600335855705491, -0.08701188117265701, -0.1338187036010731, 0.24484899599561694, 0.060239711954262365, -0.1531238568783969, 0.005702794299448841, 0.22207731902345967, 0.5830003539208296, 0.13856213908098594, 0.2343170734489288, 0.2502046526167238, 0.036892058508788725, 0.25047676128922386, 2.5956262507289027, -0.3119468319950578, 0.037521719236285486, 0.1186676054683533, -1.5611064639700476, -0.03414925559006314, 0.33260096202516365], [-0.010814949870109558, -0.11966485239791048, -0.1040593472790015, -0.31557889299422387, 0.0008220263210791267, -0.06327448785305023, -0.17333203574608533, -0.30356358173746073, -0.28675195142240417, 0.10342051088809967, -0.026023172864413465, -0.3150129630418449, -0.060105099856190815, -0.05076267646306645, -0.3154213091656062, -0.2802928290301232, -0.1132913635892788, -0.00807642279225968, -0.15802623466824517, 0.031373555651592056, -0.12450291366735061, -0.04084585751540545, -0.2747742350912158, -0.015093430876731873, -0.16777021555666755, -0.15499782489526945, -0.09594289530311091, -0.2399008345146875, 0.033447715879754376], [0.1140696257352829, -0.1649485612095715, -0.2877441678897116, -0.23306737103335756, -0.18212476319506407, -0.14594608545303345, -0.3151576182319431, -0.08135435285447197, -0.11084989101475086, -0.027246981859207153, -0.18049858436572347, -0.007126521795128644, -0.15664202087491758, -0.053037421048571384, 0.0282670138185714, -0.07331950691295214, -0.2618278623117945, -0.1523754069704304, -0.014626399886762953, -0.05345034353890698, -0.19970110940855612, -0.07293738334795531, -0.2596079317846965, -0.04916082322597504, -0.11624350870550222, -0.2486919518387565, -0.3240322918683038, -0.235621152885971, -0.06611223096827348], [-0.08968965709209442, -0.15844251215457916, -0.03152333199977875, -0.17457729578018188, -0.11717918515205383, -0.0037677884101867676, 0.004537865519523621, -0.15109622442323445, -0.15979082882404327, -0.06767217069864273, -0.18208130323227376, 0.11569933593273163, -0.27592461377350946, -0.16952982382889928, -0.16158825159072876, 0.07499454915523529, -0.46983031184905805, 0.13564570248126984, -0.3572789827277911, -0.149461567401886, 0.023216724395751953, -1.1011145785293552, -0.6438184307797019, -0.043638408184051514, -0.14690794050693512, 0.1340123862028122, -0.9301524834046272, -0.18264637887477875, -0.01921500265598297], [-0.11552609503269196, 0.005795678799211516, -0.06420587253085844, -0.1300022683730822, -0.26926185809180897, 0.1579030305147171, -0.09944655480656765, -0.269201263759013, -0.06142780502829408, -0.023753494024276733, -0.17989549990171058, -0.10418340321936351, -0.18090416648279936, -0.28350356339318766, -0.26347717431293943, 0.01351235973083792, -0.10811337821561202, -0.28416227000590016, -0.22235322140281927, -0.07354360812301683, -0.1579801945715268, 0.025339647859240685, -0.22810899794995623, -0.052064523100852966, -0.06775279209141623, -0.13883256758591495, -0.04619433059207156, 0.046289727091789246, -0.2045601723414951], [0.15480361878871918, 0.23570865162628693, 0.21256820651829245, 0.0994358803336446, 0.22729116248541023, 0.0819316953420639, 0.11248028512258422, 0.05641075772647595, 0.31149037480862646, 0.16405247151851654, -0.2947630151332171, 0.16328613916393006, 0.09847441128321288, 0.4004455846408793, 0.23915482108750083, 0.15031573210297583, 0.38532664491566143, 0.06147340069809675, -0.14796353598947865, -0.004834425755383921, -0.025052285480106833, 0.4121463640176115, 0.7867639958621967, -0.3720957894009089, 0.3976523001022758, 0.2124788284898145, 0.9981030316212168, 0.007246633537669543, 0.3067631571763751], [-0.1827171891927719, -0.07372043332794456, -0.033646235648103, -0.014477580785751343, -0.7603620530118332, 0.048446208238601685, -0.20526536205614665, -0.1747330343904978, -0.2885442957098595, -0.14266854524612427, -0.18264509513627783, -0.29070400662454404, -0.2634408804807671, -0.045957451899430644, -0.13950459908724755, -0.2487861538154539, -0.2781229857225056, -0.019234761595726013, -0.015716273543810385, -0.322987574023495, -0.06214640289545059, 0.009790365517001137, -0.7764298585803387, -0.05529777705669403, -0.20057503288038794, -0.1057064116966085, -0.25026866818625815, -0.012682855129241943, -0.27716965846703945], [0.12839864194393158, 0.3122127974657002, 0.1364618591118354, -0.109020180823583, -0.9889583768706397, 0.06497706472873688, -0.026296683378023704, -0.3060715191415933, 0.2957661689198837, 0.01934969425201416, -0.27711965806656447, 0.05678297583212963, -0.27039753243692494, -0.13992501053032563, 0.2243691165291143, 0.26835384991456085, 0.8290562605760649, 0.20705786970133078, -0.6769876646354747, 0.23332147765394678, 0.05179999215237214, 0.5696827358806287, 1.4053412086549233, -0.37874599936507886, -1.2951097511859573, 0.21109702392421217, -0.7882356071064992, 0.18276965137091328, -0.034317597273488196]], "layers.2.bias": [-0.1557254671141693, -0.05115468509843595, -2.175770527264446, -0.6194796313275318, -1.5827780121726862, -11.488711344551763, -0.2141116970565933, -10.472473052339467, -0.2787864189820897, -0.3072913878557157, -0.8324964201473077, -0.17071655425002719, -7.315023041285729, -1.0019489515933928, -7.465151384257897], "layers.4.weight": [[-0.08922076330141132, -0.03542024949899855, -0.2479204410643589, -0.22799992561340332, 0.06831265647338731, -0.20669820378758702, 0.26471153164475625, -0.19185536644595996, 0.35414227179898866, 0.011146981313938027, 0.06757090321548893, 0.23218950870696792, -0.372924655037475, 0.3716370350421746, -0.056534098874194035], [-0.33644649099920526, -0.23269420862197876, -0.017460859920898283, 0.2270914614200592, -0.266064138656466, -0.2237820778874433, -0.253935821671298, -0.011020945623814395, 0.06203605652416868, 0.09571557486009989, -0.12731501460075378, 0.2537355124950409, -0.27206600751707033, -0.24901185929775238, -0.13427892038791223], [0.10613284638296837, 0.0669507130294821, -0.1865371971714721, 0.02833762764930725, -0.09921750615448818, -0.6244564872984026, -0.042564389527493356, -0.3246829087299295, 0.31382431045789067, -0.07631300314197946, 0.09435693332298888, 0.1766937455229231, -0.7479756181779998, -0.04914143681526184, -0.2648429803472145], [0.12224333519912126, 0.030884940188585952, -0.9224565736280367, -0.8630140276062036, 0.18767807584035576, -0.42352951237698655, 0.23151438050136933, -0.0737116707553547, 0.3852255259005243, -0.07984536364871578, 0.35099839138485134, -0.0008182487472506881, -0.8026182823902965, 0.13098826969915806, -0.35508577440533146], [-0.04637106667055196, -0.06402463734500864, -0.27699425716176146, 0.21761620044708252, 0.04315430296886013, 0.06293155510978891, 0.031542915833012816, -0.8530613576202893, 0.033330942066603204, 0.3425647892039873, -0.01669781878889917, -0.09942663579914215, -1.065291885001039, 0.1871578218725411, -0.2514304247198627], [-0.01970569704950695, -0.2951008102237537, -0.33405736549987186, 0.20738071203231812, -0.1958876963865016, -0.125726204048327, -0.35916622068017046, 0.00044404515710537033, -0.33919510404222025, 0.02908814687525775, -0.1510445773601532, 0.03275372386371534, -0.12556053536152004, -0.17891189064108742, -0.33646737299957585], [0.025848828039474726, 0.013503550427199225, -0.4527718455276772, 0.7883563438466966, -0.11710214401586039, -0.26062486177698924, 0.013920759957051592, -0.04506275861842898, 0.13166392960647502, 0.04331768471116668, 0.20028866173042434, 0.396932950588029, -0.49267337406605827, -0.0469833182884843, 0.011510775042161324], [0.05192446708679199, 1.0393320325514745, -0.8268759752428537, 0.21051770448684692, -0.659426630795948, -0.9607830101131966, 0.13816481828689575, -1.0118880000998767, -0.017000585794448853, -0.07207705080509186, 0.2256678342819214, -0.14579185843467712, -0.5682981418230791, -0.07283687591552734, -0.8626227588933207], [0.2310071949738174, -0.34276213161003605, -0.9728970225484106, 0.18604019284248352, -1.0136212191832594, -1.0664275261065883, -0.05916911386839119, -0.5640821234728326, -0.08082870620073433, -0.01759650255651546, -0.17343363165855408, 0.07175336307883487, -0.7316201716794131, 0.13013538718223572, -0.8137720887799075], [0.24537621631633003, -0.0238915154305956, -0.26038750565262686, -0.06480768322944641, 0.0010296260960655566, 0.005416171947624796, 0.10847556757352717, -0.29123789087659874, -0.10326949589533492, 0.31457118902054443, -0.024996929383943736, 0.07327680867394565, -0.008640235049279504, 0.23271635174751282, -0.04168014614802838], [0.1959080994129181, -0.1455838829278946, 0.04995408654212952, 0.24839046597480774, -0.07129284739494324, -0.23479080200195312, 0.2420623004436493, -0.17021331191062927, 0.10222914814949036, 0.047718197107315063, -0.08247065544128418, 0.13374614715576172, -0.06866641342639923, 0.22334766387939453, -0.23540493845939636], [0.03046552041357076, -0.21547277757591743, -0.09973157376946684, -0.212744802236557, 0.02729050753577921, -0.45591405899127124, -0.3122398571668284, -0.9225111718608096, -0.3103734935631502, -0.006179671149487981, 0.0439642071723938, 0.022942819422922346, -1.1614190931911557, -0.2956055943689483, -0.4096120145455597], [-0.0702871288287085, -0.17672662205687747, -0.311331651305036, 0.19328272342681885, -0.08745946814962571, 0.020853888289810593, 0.44232495312377446, -0.24293012211851622, -0.06156569679649207, 0.3625259079802182, 0.28496496721824377, 0.3456719744308763, -0.2567903338492977, 0.31854557655540644, 0.01082025092760821], [0.22122081162388094, -1.387141942592783, -0.415995075779145, 0.9838544115750731, -0.5846225161726696, -1.2483977342655577, 0.13792702729856474, -0.24470011914157613, -0.023061542079584208, 0.3194039815506438, -0.44832007366565524, -0.07791512815628944, -1.552228124418394, -0.03603884766667971, -0.19786936923649495], [0.3880833630445402, 0.08819510955594494, 0.061420592110638064, 0.5917070259425242, -0.6998254136333971, 0.03022983570530678, 0.13229946636351034, -0.09028885308665144, 0.162919336718089, -0.02604890005150542, -0.20884201931853175, 0.034066342696746986, 0.45072911152415435, -0.5343030164369124, 0.6888029412483417]], "layers.4.bias": [-0.5144445226905523, -0.26710138395195243, -0.8634949716933571, -0.38245395743925836, -0.6798782653627228, -0.26235340778656535, -0.3457871451270709, -0.8744719173771247, -0.46809429003048747, -0.06424902014078149, -0.05358313024044037, -0.3083239913486174, -0.5109586273055874, -1.2923057114758056, -2.611152091145043], "layers.6.weight": [[-0.026654710994926063, 0.04918230885912485, 0.7091188139825313, 0.03259410550834088, 0.6840035892728406, -0.08824485029419295, -0.0951669468029147, -0.690952344229502, -0.5625252007103924, 0.013093029434940458, 0.07594525814056396, 0.5340858905416928, 0.015254270342044901, 0.25112630396502433, 0.2745060105321324]], "layers.6.bias": [3.1199296541176365]}