{"layers.0.weight": [[2.962521821900767, 0.38229611582502904, -0.3491335920938773, 0.037585110129973946, 0.3093369378015716, 0.35602016659824165, -0.48880265236278275, 0.4455543548105084, -0.2513888582079526, -0.2859143921383143, 0.5268737583186478, 0.2207651873467119, -0.5085931598327136, 0.11863253793633755, 0.2669123834465257, 0.06514560776213332, 0.4518106927501337, 0.15468076784315762, 0.042020243324398084, 0.1866133907264258, 0.05452994202816256, -0.12343645249817092, -0.898671877580308, 0.39758957621110447, 0.3344601961291218, -6.096008028672948, -5.742641375993272, -5.408528730701092, -5.255516354827725], [-0.041861504316329956, -0.10912810266017914, 0.0966150313615799, -0.1454634964466095, 0.11072929203510284, -0.040824636816978455, 0.08144907653331757, 0.01483529806137085, 0.09158925712108612, -0.12799155712127686, -0.11722613871097565, 0.06693322956562042, -0.09646660834550858, 0.12336502969264984, 0.11070291697978973, 0.14501835405826569, 0.049676358699798584, -0.1611625850200653, 0.10229133069515228, -0.049873486161231995, 0.09637133777141571, 0.12355963885784149, 0.053810328245162964, 0.002832174301147461, 0.058571189641952515, 0.012793570756912231, 0.1661234050989151, 0.0914519876241684, 0.023812636733055115], [-0.019317214918283643, 0.18298825575207492, 0.13751019382695878, 0.2663118830809767, -0.031674107708236664, 0.016376182801926934, 0.09301374205516758, 0.20334734198669557, 0.044931396907025446, 0.2602923603271519, 0.2341701073759951, 0.009087895352177234, 0.3281567707330375, 0.030871411819099012, 0.2159401117875156, 0.2838861354387683, -0.04009397882313715, 0.050457244411888945, 0.03619034415563712, -0.007918586841369387, 0.006266832940393501, 0.19384755859142946, 0.28616167823303273, 0.17060127952310475, 0.17220266281221577, -0.10171753003787498, -0.1926623593183587, 0.003961743815270476, 0.05863205511036007], [-0.0500784013687021, 0.32834453789357215, 0.009245263293207297, 0.35903084843043936, 0.03778215443626789, 0.21058986101220506, 0.22930307109226827, 0.23252124587936712, 0.3063177254673786, 0.015483322271917146, 0.29616942830660675, 0.1979966649069546, 0.3681401268094459, 0.06344915585229996, 0.016751952178972376, 0.0689202594965081, 0.3091592295129235, 0.15080015541191963, 0.05024603530495148, 0.06253733266457717, 0.297537962117588, 0.11681905553287251, 0.23666892008257398, 0.13710741961639158, 0.007001098325095028, -0.0561017284264901, -0.23244156057422485, -0.3087884029012145, -0.22522233615970566], [0.01828867197036743, -0.014619261026382446, -0.17752932012081146, 0.006771013140678406, 0.1458120197057724, -0.02410462498664856, -0.15431560575962067, 0.1463472694158554, 0.1715090125799179, 0.0773262232542038, 0.18072910606861115, -0.09330552071332932, -0.12988786399364471, -0.06050032377243042, 0.17063258588314056, -0.09296773374080658, 0.1816401332616806, -0.11548347771167755, 0.08516262471675873, 0.0730380266904831, 0.10526596009731293, -0.07062439620494843, 0.07410626113414764, 0.1192144900560379, 0.037437692284584045, 0.14750875532627106, 0.07084150612354279, -0.062464818358421326, 0.0038846880197525024], [-0.21844328003462948, 0.049847026059955134, 0.0859773285473853, 0.08788608599036972, 0.18108475854976486, 0.005205169306216224, 0.012096977887560785, -0.030119015101794065, 0.026566871963047897, 0.3000059824517914, 0.2411091625415849, 0.29561999582957565, 0.11844822144075928, -0.028231692730805908, 0.10450016129625044, 0.2471359932373021, 0.29064506613712077, -0.032939391458360404, 0.25578363787157826, 0.30610476478459464, 0.26305668916960523, -0.027539240083676586, 0.2793024862089579, 0.2595195898400665, 0.24593236983309702, -0.0023072570930773337, -0.008852581217482228, -0.019764604726712123, -0.03354842960834503], [3.757524131912926, 1.3407602775815775, -0.13490762377077425, 0.12300902325835368, 0.3270152828872245, 0.09888742440988474, 0.045011408648386854, -0.1455978099875326, -0.2985538482703591, 0.8191309444159585, 1.7498083868757293, 1.1935472693774347, -0.17358498984728404, -0.3521312813523509, 0.34199581635019305, -0.3587148733361004, -0.3800994086534621, -0.17049271279327066, 0.04254833835152083, 0.048923813444319786, -0.028329578117376988, 0.41218866528586673, -0.08707165872929266, -0.32843219094451953, 0.4699284945682028, -3.0107435281484114, -3.2124855904653153, -3.4171637037099387, -3.4856535988478], [-0.1400504705573416, -0.014485948904631197, 0.059326306743335604, 0.10467757673455409, 0.32611937462594626, -0.00462863744598518, -0.03153676271478607, 0.09369019654459085, 0.23344992085101782, 0.10716710397375086, 0.007933068380280834, 0.12639563605883536, 0.32472719995253907, 0.27254471300151534, 0.303898296283958, 0.14405717964692022, 0.2805272176074235, 0.08341817601388886, 0.03999128098630482, 0.25261598367835775, 0.12588246616839222, 0.29135130438591106, 0.0315846854783342, 0.16617303127195726, 0.07874125389643892, -0.06405869980351905, 0.04930637793916419, -0.2721910274368776, -0.2639998639104388], [1.4733111698429409, -2.6217810510893003, 1.9783404746577193, 0.5618531965856605, 0.015841835777043414, 0.7331311051134368, -0.14298025028637484, 0.21161396519230788, 0.3754845443373447, 0.8006721712263615, -0.6008739387254348, 0.010350652885149442, -0.9275823698660023, 3.283865295879039, -1.4766717239667944, -0.00920249388688587, 0.5547676675731898, -0.1094603249996349, 0.4022535786540335, 0.28919833655763966, -0.10488977427176138, -0.3167299103852571, 0.5294998447197009, 0.8734978311794023, 1.1739528102102998, 0.9410978159985137, -1.7661536040455905, -0.05719985608324066, -0.7022203756430078], [-0.17886738775581584, 0.009333664728704885, 0.13713486123656182, 0.18221052384395195, 0.18934059664149772, 0.24070619866751136, 0.2496136662668417, 0.18690596169253743, 0.05531461097278609, 0.015048073951267251, 0.036274552613192006, 0.00831475954213852, 0.03467857727450049, 0.21687012466426542, 0.27875050690297026, 0.3305581716042079, 0.022962040641620482, 0.1703181959220853, -0.03238514547497141, 0.1739058172127544, 0.04916709240469036, 0.13889573740816896, 0.33249841676485176, 0.13440248542006047, 0.17228164345854913, -0.17423151740260379, -0.12343368887691096, -0.3158026974614814, -0.1731969309800268], [2.504337423403395, -0.14664004333790268, 0.3943781636917386, 0.7820681803109901, -0.30903911558422364, 0.9394259190868208, 0.15208508017110514, 0.5415062601433156, 0.17391849966458414, 0.8869821817589848, -0.43003096200602103, 0.018246343081283884, 0.08714361352006021, 0.8193564474960582, 0.025916378523703498, 0.13545927087390833, 0.9273701570196289, -0.12241155544491047, 0.1497264482370422, 0.09336652204612426, 0.13661434879586984, -0.060771497479230115, 0.8366529668429029, 0.5818485812685645, 0.3723567094228428, -6.443065410735364, -6.462775150222155, -0.5676191604966876, 0.5167833819102827], [-0.08721071727837224, 0.3022319317240763, -0.027605580598758544, 0.30978632777136184, 0.26745490639812375, 0.11004898520643501, 0.14901298111817884, 0.040198663369808686, 0.037612913186880474, 0.24742449289766774, 0.2525293548321962, 0.2784061109231922, 0.0693138477850185, 0.3210268874633428, 0.1697916077783915, 0.015934416259049553, 0.11897322425019712, 0.14985544017496694, 0.02842654046027767, 0.13107571169047103, 0.24189116454752166, 0.2895934069590465, 0.09908364853500937, 0.290594337231894, 0.14670175425516396, 0.01843455929584844, -0.24024369603365284, 0.012338129800008953, -0.2755534995575537], [3.448705744660333, 0.9824183891663895, 0.051239264458278345, 0.5745350695222388, 0.3657472919486584, 0.06400346155103037, 0.464458222141814, 0.38426386010437874, 0.7810399938505082, 0.19730568623031497, 1.1705542547598677, 1.1291101168676274, -0.3089217648132176, 0.5795301056667318, 0.5067379481018037, 0.22838426682653032, 1.0277719358623771, 0.6468885059672532, 0.14435005235276857, 0.3990664029544784, 0.33240618362259744, 0.17839469784213569, -0.05859765357543493, 0.0996872807176354, 0.18901105317834413, 3.5164060649628848, 2.403439702684389, 1.2878691285648443, 0.8176534691227377], [0.017855015478537906, 0.022343592361540297, 0.1087213506519979, 0.17364468729640023, 0.144478385886059, 0.026720102906356256, 0.32990691664023947, 0.32996532611686613, 0.33174699716272854, 0.04682790882399613, 0.11986531631966565, 0.2329100412850816, 0.13088570813467368, 0.30952401689459486, 0.2857198329730359, -0.004574451033455237, 0.26297231589987863, 0.1985019561562135, 0.06019748505351554, 0.1898196634985312, 0.3034334443223626, 0.01008199119881461, 0.2482457779945912, 0.239403730776346, 0.16231053003169965, -0.006753381352226456, -0.11686619936411262, -0.037662347161843045, -0.26906977612772354], [0.12288534979097951, 0.2984018009990216, 0.2028832464244229, 0.4112834005524749, 0.4141048499697167, 0.42005197082845336, 0.40389626362862424, -0.006657958757053754, -0.21662872490309124, -0.45973163428432545, 0.04299445438528114, 0.22631682954119686, 0.27926818745636384, 0.41681884113234724, 0.7391871297505432, 0.5039766045177886, 0.5989617104582641, 0.565735300260319, 0.6047094485694114, 0.4400897131838453, 0.09141182242240974, -0.3432800004840586, -0.05802112915775272, -0.16968865432106378, -0.40081267954787764, 0.2748028150789368, -0.019901349761684735, -0.01963797714772805, -0.12841495153421295], [-0.0340407599467309, 0.07470845127323446, 0.15213172180718454, 0.2970700146974585, 0.00750211399748026, -0.020215580233029544, 0.21536197214335276, 0.30687816877108154, 0.11985513523700142, 0.3281618470681599, 0.06521175191470287, 0.27290786092430774, 0.2331982058003646, 0.17551593252529538, 0.15827368343115816, 0.18921229641294032, 0.11277890788057629, 0.1723518433382044, 0.13422684882164979, -0.03178844852205082, 0.10960021602566535, 0.20316835932459423, 0.18644661687911446, 0.25994897793728267, 0.27769200047916737, -0.33150576212225497, 0.022137502505213066, -0.020719945985994255, -0.21451516940732468], [-0.16085940599441528, -0.07697587460279465, 0.17929662764072418, -0.06888483464717865, 0.1668938547372818, -0.1181931123137474, 0.06404837965965271, -0.12818646430969238, 0.12286366522312164, -0.08107192069292068, -0.03289295732975006, 0.02892741560935974, -0.15971750020980835, 0.009740069508552551, -0.03850090503692627, -0.16961906850337982, 0.1752646416425705, 0.08416964113712311, 0.17606501281261444, -0.10071393102407455, -0.10357756912708282, 0.13796605169773102, 0.17868943512439728, 0.04110507667064667, 0.11157949268817902, -0.00432954728603363, 0.08421646058559418, 0.04509870707988739, -0.015799984335899353], [1.0592604963287673, 3.45942488364948, 1.2134657664838688, 1.2949691691310088, 0.08052485568960374, 0.5253848486010514, 0.5815909817494589, -0.6547949880667204, 1.1494745266188267, -0.3006480873357644, -2.6372532402449416, -5.031696334869929, -0.2879498753251949, -1.8557312514918147, -1.2654859354956771, 0.0213983698244423, 0.48808848136721134, 0.963758767493611, 0.7344364808866674, -0.6036086077374239, -0.12779393069109551, -0.44073394777497604, -0.18532174489742148, 2.3489610529350466, 0.4528858843515257, -1.8071429000606323, -1.7258122496702082, -1.6631153671928887, -1.6477719454609079], [1.1982948621331195, 0.04743141102983529, 0.2742264790102531, 0.673838002075942, 0.45598865330923016, 0.4659167719535756, 0.32852935434110575, 0.6458023395970544, 0.324743070931805, 0.5169635417028571, 0.33281906064633443, 0.21697016971423425, 0.12699515661106786, 0.04218735742650587, 0.7714005017262424, 0.497167025650734, 0.5255350563487108, 0.46473679126785833, 0.3627970351970455, 0.9064883192714349, 0.21900840335564867, 0.27790419324861804, 0.5989024680528784, 0.746568662291878, 0.5037556685473219, -0.18931138742663964, -1.425090680723599, -0.055271364956101555, -0.36252652935070173], [3.0025356653154676, 0.6888152408157043, 0.7810008570859222, 0.4831170473637132, 0.2312428168179736, 0.20356809097133238, 0.2758652537775362, 0.8056567159310148, 0.5269128404916185, -0.6799336728522587, -0.5507248962598202, -1.5943085010932307, -0.6563244755732844, -0.5742240209190838, 0.5921186239631385, -0.01629786182897713, 0.49138209657744597, -0.33074922585451827, 0.2865395656453551, -0.619064849207339, 1.9268862406131464, -0.5777706940657648, -0.8720811921962687, -0.6493027286841521, -0.4980813383058737, -6.154570240113758, -5.819767448961555, -5.6126584251424125, -5.5619322944800675], [-0.08309582620859146, 0.02237117290496826, -0.1824227273464203, 0.08938051760196686, -0.1652158796787262, -0.0874151661992073, 0.11752916872501373, 0.08441255986690521, 0.047113195061683655, -0.010560423135757446, 0.060977473855018616, -0.01111137866973877, 0.18132467567920685, -0.1081220805644989, -0.022282570600509644, 0.17626039683818817, 0.07525770366191864, -0.04336276650428772, 0.1435488909482956, 0.0531671941280365, 0.1492532640695572, 0.07700733840465546, -0.16721636056900024, 0.1377536803483963, -0.14917400479316711, 0.0027070343494415283, -0.03394518792629242, -0.11289092898368835, 0.1462935358285904], [0.5786516761019115, 1.3103082193219937, -1.2076932133858689, -1.823270874378745, -1.3642816550308237, -0.04542537828114004, 0.5957346585009723, 2.174902507910942, 1.9963665594742788, -0.32470823197779475, -1.571383339968071, 0.710941713802671, -0.3267215227018433, 6.2056338360544325, -1.310341091117047, 0.9565248598865201, -0.28149740878633117, -1.3274303352496253, -0.12251947580324711, -0.815993868650301, -0.30241574890366646, -0.9064109282973241, -1.3813103080799878, -1.519655186530638, 0.41426753555177825, -2.399744487674656, -2.2539488234816636, -2.124568411837279, -2.09045095906249], [-0.127457647298386, 0.2872268214560357, 0.35353832728142237, 0.30661751812257765, 0.21360855375462615, 0.09582526439420504, 0.33706548372803025, 0.10076755781578092, 0.13775408261690908, 0.005365327179347989, 0.16850252554565018, 0.21477813745628072, 0.35146323709796073, 0.17046345023740248, 0.24630319467811113, 0.0706897313451775, 0.11160807475682817, 0.12367707603719438, 0.22383960502450273, -0.14710524351294751, -0.056423318571820605, 0.2683479669170636, 0.028994311586227405, 0.10698059946395355, 0.28711429877267075, 0.14437630811596397, -0.2656527002124636, 0.08645281715754795, -0.0265841270919666], [-1.75122714577695, -1.7361221786482386, 1.9048684721360463, -0.5579614784421588, -0.9954334886393944, 3.058546401319694, 2.746827061007315, -0.11688333091010317, -1.0593778591474343, -1.5579162934322461, -0.5872269097219471, 0.7721499243194866, -0.14017646713668716, -0.2519723005740755, -0.19592823067405984, -1.2392383370252378, 0.42590585835696526, 2.5067843336871634, 1.2463359693059783, -1.0594314754415903, -0.5279636371255277, 1.0428493563498764, -0.2472962158509382, -1.5541486983215937, -0.08821584666525534, 5.346705434004211, 4.744465950304117, 4.378941404694926, 4.238815377961589], [-0.08053749799728394, 0.15679921209812164, 0.10231576859951019, -0.024566650390625, -0.04557342827320099, 0.18358857929706573, 0.16080640256404877, 0.05609990656375885, -0.008363470435142517, 0.09738270938396454, -0.1329326182603836, -0.11244959384202957, 0.014087006449699402, 0.028017908334732056, 0.16321660578250885, -0.12025967240333557, 0.09089107811450958, 0.07701702415943146, 0.16632874310016632, 0.057214632630348206, 0.001993626356124878, 0.009594380855560303, 0.15998299419879913, -0.05321738123893738, 0.05644015967845917, 0.11429683864116669, 0.06573344767093658, -0.0843140259385109, -0.11911191046237946], [-0.024720297124571085, 0.034623965339810985, -0.01627815941968641, 0.12688706735688926, 0.2069849484797057, 0.14498161598137155, 0.23833549198750276, 0.22494069669062558, -0.002108790338846318, 0.05736958794666464, 0.2937151532804483, 0.33171427970680245, 0.2834000505557253, 0.13631410493328608, 0.32485502011927536, 0.15518515187536544, 0.18165132663323993, 0.22847859010988114, 0.1993881910266751, 0.33103053379637637, 0.09913939101607483, 0.19301639739804105, 0.16643268318209858, 0.3264846167820535, 0.26137295413345774, -0.10569170734172831, -0.12692958116531372, 0.03282340656821244, -0.08278574049472809], [1.1381655078305162, 0.2459463631558791, 0.3259615264187538, 0.3807010116112836, 0.37407414285609814, 0.3646872871097363, 0.4187485851082123, 0.7387971426954204, 0.07574990245942272, 0.4986556829946904, 0.21085637313076216, 0.1926818927526867, 0.046319661073898434, 0.11569688527245103, 0.6459511381629389, 0.6134076464075892, 0.280496198636856, 0.30231307263146495, 0.22399537198887762, 0.6868320320045734, 0.21398409224348053, 0.2411231296602498, 0.6635817010856818, 0.59631065165133, 0.6373377475849045, 0.1971022360200479, -1.536064790469884, -0.18238603367704445, -0.6289658620658648], [1.3064230049019148, -4.467015285286173, 0.059933151275696206, -1.8883569166933742, 0.021161202264939127, 0.9497345440683532, 0.16217548964812858, 1.1175293724123656, 0.08763161629403017, -0.91257613712623, -0.5455673086082927, 1.4762750195063095, 1.6975625358899789, 0.8980150656492843, 0.41321447933976735, 2.253223008541036, 0.6170210564678852, -1.351465220649497, -0.1192233652481956, -0.06199569090213846, 0.7692567792017484, -0.01762407251829331, -0.7676915858150444, 1.5378154783611009, -2.201931932854941, -3.0447600746650183, -2.8472169467756685, -2.736089688831933, -2.6760806953061675], [1.8173045027981831, -0.11518242090193152, 0.3584864159667162, 0.026342692815789905, 0.21788029463390032, 0.21397669673809916, -0.0036022759610444158, 0.3480005413841586, -0.1525151874656668, -0.18664281367454708, 0.9118830715225854, 1.3263759761957996, 0.6494901100161735, 0.06526340998219345, 0.3192591057907829, -0.039938252748838714, 0.12982392141080148, -0.315952519562417, 0.04344453933277607, 0.20577711588529324, -0.003081342151242777, -0.39820931053562086, -0.17317266871802894, -0.4496474316288103, 0.47104439947583315, -4.073816839814292, -4.097664765672473, -3.9611048689914776, -3.945599143227684]], "layers.0.bias": [-5.855066262787771, -0.1508624106645584, -0.06257119640801703, -0.32248293543020623, -0.0985354483127594, -0.22386023577965505, -3.398629418443204, -0.17156517569714835, -0.3937785757800429, -0.10205005840140455, -1.3115798154505744, -0.00023983945190176313, 2.492183314551811, -0.2035841705706009, 0.09306323661583761, -0.10367620302217198, 0.009499877691268921, -1.4329489862628806, -0.686223122532093, -6.241477100446007, -0.11520303040742874, -2.192231550821781, -0.3574884814489617, 5.199044452614766, -0.012646794319152832, 0.015649053445419708, -0.33071067476357563, -2.9997860226322977, -4.478447842339298], "layers.2.weight": [[-0.05698858490735035, 0.16102363169193268, -0.10193470920134805, -0.06520339508987026, 0.17230622470378876, -0.14733102500205458, 0.0029082390803193397, -0.193508229782852, 0.022044318815110025, -0.001979756708032859, -0.22002695500860456, -0.2877283017023183, -0.0344950239087579, -0.23774348987588576, -0.09016345336667894, -0.1789348927289411, -0.153004989027977, -0.19533885633605202, -0.25813246586561744, -0.31429879132597466, -0.044823870062828064, -0.12613235884459842, -0.18322679304448866, -0.1407434062258835, -0.06476470082998276, 0.012397230906108857, -0.24257077130139423, -0.10060259370044787, 0.003973962530110684], [-0.19121929078845654, -0.005198180675506592, -0.13395328406826484, -0.22684699040187714, -0.05921925604343414, -0.043569896366216464, -0.26661175345278276, -0.04502842924283928, -0.26780225317833645, -0.12854143977165222, -0.004493311047554016, -0.0974712342895047, -0.15389499309104776, -0.2288360527258647, -0.16158562898635864, -0.10082379283880653, 0.11340926587581635, -0.14284971356391907, -0.05745747685432434, -0.022301463411818157, 0.16555167734622955, -0.249867000603459, -0.10579363526933999, -0.27323340141707325, -0.08253065496683121, 0.009371072053909302, 0.06304803490638733, -0.03891061815671952, -0.1118249096707478], [-0.06508926159383839, 0.09699712693691254, 0.029103301493156698, -0.030255805013057416, 0.1321742981672287, -0.23900068866955437, -0.27299650927200375, -0.01117283733933957, -0.2252973705016731, 0.027465527970419006, -0.2896272155874316, -0.12523383900020738, -0.3168928586262115, -0.05299299563194401, -0.10491791309738253, -0.00030243514633869224, 0.10936416685581207, -0.007176165957802347, -0.17253993107053753, -0.03318498356928874, 0.16515390574932098, -0.27022849045938363, -0.0062518697841323105, 0.017607674585651496, -0.18378129601478577, -0.16156178614350578, -0.16250758158439943, -0.2364323311000255, -0.16741440253556172], [-0.5282344991517894, -0.14801885187625885, 0.14731275585478176, 0.1609303786137987, 0.03071548044681549, 0.067825090848311, -0.561202690612787, 0.13053218504224115, -0.11297574890893755, 0.24141980140022828, -0.0681987668897399, 0.2035060633522036, -54.05764624034794, 0.22623181212158133, -0.1333287214470055, 0.2704016121945356, 0.11206237971782684, -0.10178722829429396, -0.2501754615557296, -0.1691900893731527, 0.11510492861270905, -0.19037473560621768, 0.1640363487431983, 1.3095034402044752, 0.1263178437948227, 0.1398269966624185, -0.08787606659161769, -0.19545023350148855, -0.0011403433372865687], [-0.02416349461809464, 0.14035923779010773, -0.18699245906587872, -0.23120677849327087, 0.030140474438667297, -0.005798041820526123, -0.019543907185106922, -0.1386120181461764, -0.16705300876951065, -0.06777618825435638, -0.10834739145991965, 0.014266639947891235, -0.2965499100358351, 0.07345883548259735, -0.2822085540078558, 0.10998223721981049, 0.010996997356414795, -0.1190892763269652, -0.007797366623027525, -0.10305757549411486, 0.16190631687641144, -0.20176261766681958, -0.26681932397544134, -0.24873524599909227, 0.10233555734157562, -0.07741378247737885, -0.12409346874865565, -0.02438352132326871, 0.00917041202771827], [0.6551284675941103, -0.036667704582214355, 0.04963658864653429, 0.12998134292546476, 0.17241840064525604, 0.16501647277163609, 0.9987366274915164, 0.2773656908238703, -0.23932641785700765, 0.2980099173387059, 0.2493444583791132, 0.034840762628625704, 0.6757532263291984, 0.06717420530928732, 0.15122469406464584, 0.17439388557237034, -0.1409119814634323, 0.5630152829039331, 0.14530177617187442, -0.13998814000966112, 0.13804851472377777, 0.3664972829311794, 0.007686392275656214, 0.5437393368709137, -0.18510222434997559, 0.27672381280830916, 0.04689360241382127, 0.4772044802165247, 0.09945577721242027], [-0.8707759054690392, -0.02087642252445221, -0.026499822735786438, 0.11485104262828827, 0.023700520396232605, -0.06040334701538086, -0.7204297111509489, -0.14195522665977478, -0.9092767190246197, 0.10831217467784882, -0.5388859168201316, -0.12060770392417908, -0.706661567755729, -0.14670716226100922, -0.021428793668746948, 0.11196471750736237, 0.05940768122673035, -0.8969303600248978, -0.011668965220451355, -0.8162712063715472, 0.09610049426555634, -0.6396073144696662, 0.08277268707752228, -0.8876755707307457, 0.051624566316604614, -0.16378465294837952, 0.05363917350769043, -0.8902228347855037, -0.7662521370788024], [-0.8241666613578943, 0.11909641325473785, 0.09613345563411713, 0.03521728515625, 0.1749083548784256, -0.12208089977502823, -0.689590507846222, 0.008889734745025635, -0.6696837485957247, -0.0381619930267334, -0.9113956815841089, 0.11141611635684967, -0.8919739040897294, -0.07649971544742584, -0.8431176416356769, -0.08772501349449158, 0.07006959617137909, -0.4935992477121367, -0.7024435318161258, -0.8985606225305157, -0.0010122805833816528, -0.5605322726078832, 0.01647372543811798, -0.6985040566956838, 0.1514587551355362, 0.08927394449710846, -0.5891528664300323, -0.8536765088171963, -0.6561681916908396], [-0.7818889796299785, 0.12304399907588959, 0.06447438895702362, -0.12421783804893494, -0.1854555308818817, -0.14280158281326294, -0.7034397374340129, 0.024292707443237305, -0.6441707707193253, -0.18219254910945892, -0.6633842329048514, 0.15724225342273712, -0.7382537365862157, -0.027002498507499695, -0.878659968728877, 0.17245768010616302, 0.13909612596035004, -0.5154035445994612, -0.6181626869647304, -0.8388621729974496, -0.025958850979804993, -0.7497498149174554, 0.09239305555820465, -0.6806776679474799, 0.08609001338481903, 0.05840958654880524, -0.8110479916694543, -0.8989759347423958, -0.702667098992717], [0.9815250449420713, -0.10513105243444443, 0.09597769229500275, 0.017103177139396183, -0.12154516577720642, 0.0850076685407599, 0.781677079292446, 0.05126385117092516, 0.17096842036265297, 0.23573654883200013, -0.3001379995119547, 0.006837738815939142, -0.49373023289067924, -0.016066299353860083, -0.05616145614429106, 0.054710050984477974, 0.0413055419921875, 0.13623978853771504, -0.1412854473887024, 0.26140802068640473, -0.12563550472259521, 0.1363488198090781, 0.28655156703095674, -0.5251685454809943, -0.0338265597820282, 0.10454451307591751, -0.06276306749624783, 0.26578756208369414, -0.15484532676804194], [-0.025995659835390025, -0.11286170780658722, 0.2691836026909208, 0.04886108581069839, -0.18118871748447418, -0.01903794469878298, -0.0909422372779024, 0.3085193973880019, -0.2856557111493647, 0.12630867910097776, -0.36925399160874633, 0.23708146568087787, 0.04205734951930811, 0.29329862463697887, -0.2171877066812004, -0.018883794630349813, -0.16622547805309296, -0.16872194194532072, -0.2829278247130209, -0.21011954293190266, 0.05581502616405487, 0.0018853084709670159, 0.12622864238400108, -0.18525532175251513, 0.14611254632472992, 0.034597555731391116, -0.19587246541117517, -0.1452120351538694, -0.16753604452396553], [-1.5974336347271276, 0.09590323269367218, 0.11280437653084448, 0.2731513068341903, -0.021146193146705627, -0.024007701592008327, 1.8934899122255182, 0.3117424009940701, 0.059361297335608354, 0.05030079957912278, 0.06428549999333888, 0.1857102410364271, -0.37586439134170213, 0.12916151459015898, -0.0794105903331784, 0.10957791917946534, 0.06262202560901642, -0.0755726353863543, -0.07247765531585708, -1.3932278284178534, 0.17874877154827118, -0.7063255419287119, 0.03690970987247634, -2.0034451768360757, 0.031165555119514465, 0.3140503975522804, -0.008636149192736753, -0.01134600699101631, 0.21775454847854583], [-0.10217855057986142, 0.14186181128025055, -0.01564780128502949, -0.19710012357593185, -0.1288650631904602, -0.19685310389290117, -0.21351892578461978, -0.09039985572941076, -0.0034852514857611314, 0.010553629909899344, -0.3118559138455209, -0.079535789105592, -0.2814766829899394, -0.1763240554636953, -0.2149304723901232, -0.1780137992725837, -0.13173110783100128, -0.691668895183557, -0.048292939219596515, -0.12786117624457694, 0.14010436832904816, -0.17725623471513244, -0.20402494401908844, -0.16958588089155094, -0.012794673442840576, -0.10582426588672332, -0.17459333984664857, -0.32033482819202136, -0.21431780535486425], [-0.02759314679876563, -0.08416230231523514, -0.03563349488309072, -0.0039459013500456625, 0.05750279128551483, 0.02030578859222264, -0.014946231430077625, -0.08793097887149082, -0.009338197334022379, -0.3113691942072121, 0.17028744518756866, -0.06869776586536842, -0.31418573198446376, -0.3231122082317792, 0.06197969615459442, -0.017910510342053418, 0.010042697191238403, -0.15245765447616577, -0.07591105979559616, -0.21429985453881037, 0.1580076962709427, -0.20196447475809964, -0.16717019471760297, -0.28610826102673703, 0.09474997222423553, -0.21785454543575541, -0.10030398517847061, -0.06255069791713623, -0.10447931192244851], [0.5873673496213397, 0.049118176102638245, -0.03783497565746546, 0.05816541885672791, 0.05895538628101349, 0.0409715473651886, 1.1935370706507031, 0.0016458255343788503, 0.4546330645123981, -0.3028638254337018, -0.33864916451526034, 0.15858233765634105, -0.8598686775431102, 0.11049012770944473, -0.2518889551932953, 0.20587060653453662, 0.10698346793651581, 0.18286854148385856, 0.23844316226064732, 0.32911161495663716, 0.05849479138851166, 0.04444490584524063, 0.1865424056743055, -0.301196258481242, 0.008782461285591125, 0.10015813684995323, 0.14422866513489052, 0.2886433848546739, -0.5121214398645387]], "layers.2.bias": [-0.11653493499702171, 0.0339815311998958, -0.014672973866727765, 4.612646015628587, -0.12666207892581235, -3.559482775209746, -0.7973817054895476, -0.7665549822267592, -0.5921661588118148, -4.250105691227711, -0.1635749590613271, -3.2804640316491, -0.05871364101659565, -0.2801176220244352, -6.232629258451092], "layers.4.weight": [[-0.029189111145192657, 0.16782733768355348, 0.03081089455501097, -0.11374543490311677, -0.06350635967469763, 0.5408634040451893, 0.6010109786615841, 0.6561426634733762, 0.490406096908378, 0.23283477423200707, -0.0010681025258848951, 0.1569558060583483, -0.04891621004815434, 0.3054846002712466, 0.20274610099626025], [0.1296856191515175, 0.018313436428754284, 0.344045252031942, -0.2177949359127687, -0.0720312759538236, -0.7805194367019272, 0.0701678991317749, 0.4768740173757721, 0.6860685166731691, -0.06022556747520531, 0.39309302444313254, -0.26043655312792385, 0.12017452761870238, 0.02503737285540387, -0.010097630418124023], [-0.07364237671415279, -0.014320343732833862, -0.13503456115722656, -0.04629705716165635, 0.18130486026650608, -1.012284114812822, 0.02231663465499878, -0.22711719572544098, -0.17392383515834808, -0.6149836106919823, 0.13919174195143974, -0.7459280043208039, 0.14334693551063538, 0.17067697644233704, -0.8958357740544897], [-0.3254991853330583, 0.06242668628692627, -0.3261679389870731, -0.461211661307461, -0.03777844078139021, -0.7496314276096943, -0.0704125165939331, -0.08049151301383972, -0.018940046429634094, -0.9012203966243499, -0.11730810021779932, -1.0478334541661145, -0.004627527555178758, -0.1511082947254181, -1.0217063882486925], [0.0291168036473947, -0.3845297770256084, 0.030630708478306835, -0.27255543074977384, -0.0641089872691783, -0.7346320088856626, -0.08035901188850403, 0.12765824794769287, -0.08388642966747284, -1.1049144463636742, -0.2863303616081026, -0.11221595115068847, -0.21655799793562888, -0.23689366033183937, -0.3222500543461032], [0.057514399173418156, -0.08893020180611104, -0.00033295218223912675, -0.014741209984016847, 0.18541023135185242, -0.19815480702467667, -0.041094258427619934, -0.07433776557445526, -0.17742091417312622, -0.32821481063794633, -0.2583316086743933, -0.378863621450353, -0.35886688119409277, -0.15500993672601734, 0.0040676925100790896], [0.15665740589357877, 0.3127694294127036, 0.09373676608714185, -1.4444653649771695, -0.11342382438471456, -2.491385214061269, 0.013209730386734009, 0.6147310298360988, 0.5599657262542711, -1.8685759604858205, 0.38332918650837094, -0.23503184919533518, 0.24621820428406746, 0.17316625431108001, -1.0699895775248178], [-0.09046316184888542, -0.05441472935348162, 0.022124766432047974, -0.38690036359617275, -0.24342964589595795, -0.21025769598500393, 0.20218098163604736, 0.13771286606788635, 0.14644953608512878, -0.23966276881799842, 0.087973280248279, 0.03757832157463867, -0.16553500263866366, 0.028169063434780386, -0.08040025186123148], [-0.10764180123806, 0.17940211296081543, 0.003268808126449585, -0.09791480004787445, 0.005980372428894043, -0.33712437136173784, -0.20284807682037354, -0.2433171421289444, -0.05906684696674347, -0.7604437065797882, -0.027051150798797607, -0.152224333684946, 0.17024514079093933, -0.2287583202123642, -0.31852704768115375], [-0.03462811906093048, 0.11828669905662537, -0.14977490901947021, -0.21003901634971103, -0.19657502514194966, -0.22383942659567405, -0.19495978951454163, 0.5617380571683598, 0.7685510748719232, -0.15044596311374378, 0.24729196189416003, -0.07395155671114621, -0.6781282010917653, -0.16333472728729248, -0.0778437983578736], [0.05932860502482063, 0.3625463487046193, 0.19947930875659586, -1.5491199006414396, -0.2670156475063021, -1.7336559767652326, 0.09243053197860718, 0.639543915890622, 0.4066256497368003, -0.7374833353977827, 0.025614611732032923, -0.41316371115370865, 0.25175780726328567, 0.21042410171901813, -1.12642777685093], [0.07208350230030022, 0.006519394652490584, -0.291319610330571, -0.9476407562644604, 0.046963339317525755, -0.8155556123387606, 0.0449451208114624, -0.14797866344451904, -0.1603717803955078, -0.9121388126827145, -0.39913765335385604, -1.103661214551737, 0.0924792168049272, 0.08576986053907412, -0.8401609808999188], [0.017770197893391494, 0.23036572337150574, -0.2549838721752167, -0.04615333373768864, -0.12397022316343678, -0.009897074314386026, 0.11656805872917175, 0.545128133640263, 0.8494301393839052, -0.33059836633563755, -0.06415861962221375, -0.22230429104417349, 0.20337125658988953, -0.044724300503730774, -0.2253562692787309], [-0.16415102938366377, -0.046904370188713074, -0.2363346517086029, -0.15624181775953971, 0.006580829427810814, 0.01605672605505422, -0.08050136268138885, 0.5130311521243854, 0.814303555951175, -0.058927645109690195, 0.09833439835634929, -0.22186893547979636, 0.06087729334831238, -0.026762738823890686, 0.03423806031858845], [0.030243125997074172, 0.15154176816555143, 0.16869357015166758, -0.2845325506887823, 0.11108084168670246, -0.48377884285940237, -0.18591800332069397, 0.9092668465789852, 0.6747503631351779, -0.5588497495854977, 0.2574064458176672, -0.829502884039469, -0.04580567684482542, 0.0094772725089994, 0.03677517278889699]], "layers.4.bias": [-0.028269212143180403, -0.46774833498740054, -1.2173233647347916, -0.6208829568686868, -0.516972568761437, -0.19709143248162825, -0.07630381862160739, -0.08944255334820991, -0.6426244893990041, -0.11253899138002763, -0.5542411638565903, -0.30571767100947583, -0.9072618793084104, -0.38450157043908123, -0.024290131731100836], "layers.6.weight": [[0.36165594489498104, 0.43366850636404697, -0.48750109949806825, -0.5961315253037085, -0.5656249812607718, -0.002918151545753151, -0.03840013831818259, -0.011900617658395493, -0.28574317384418335, 0.07382301648208439, 0.4353362772264787, 0.5434055794954393, -0.026982688059086792, 0.041165358720978366, -0.6259758021476041]], "layers.6.bias": [2.6441154873461103]}