{"layers.0.weight": [[-0.16017353534698486, -0.1427781879901886, 0.06726445257663727, -0.04532432556152344, 0.021334663033485413, 0.01750899851322174, 0.08716078102588654, 0.0879373699426651, 0.15143127739429474, -0.17401733994483948, -0.0681789368391037, 0.10652013123035431, 0.12656466662883759, 0.05875277519226074, 0.02685418725013733, 0.12326417863368988, 0.061880648136138916, 0.10221140086650848, -0.09967432916164398, 0.1451098471879959, 0.13739193975925446, -0.17217354476451874, 0.04401293396949768, -0.06225425750017166, 0.061202481389045715, 0.13791407644748688, -0.0368766188621521, -0.002612754702568054, -0.12332051992416382], [-0.17847337056437088, 0.15599281722693412, 0.07838180334895897, 0.0500265324409427, 0.23830444750522306, -0.013143692052785039, 0.15245586232246794, 0.2409213888600946, 0.2810216948770438, 0.15766079213621695, 0.20105707107462273, 0.13268494064237057, 0.21056106274176614, 0.038532297846962715, 0.15482985633505206, 0.25062204533262095, 0.03888763863743172, 0.21471701197573959, -0.01347609256642229, -0.022955168334792567, 0.060454960504116556, 0.08798495216903816, 0.13462273302301178, 0.13456987877084695, 0.21231726952969943, -0.2884918560277063, -0.2310355596533691, -0.06547997192931843, -0.3086015673598212], [-0.20115394406587328, 0.04316165947193532, 0.2739347340227051, 0.26522455826963054, 0.2430031734628497, 0.09999028021065454, 0.037798649157391714, 0.04816351738882697, 0.15908794468119106, 0.13518901387848933, 0.1665042494562312, -0.005448700127763125, 0.22019083664445885, -0.015347301599226763, 0.28036694068432083, 0.18894499351504998, -0.0007536117277283557, 0.33579625417096554, 0.04513512496854623, 0.11036648552830583, 0.15757432985424716, 0.13763581498340463, 0.1916225265572719, 0.11390404356637494, 0.18924769591899424, -0.1451264714822454, -0.0029887708284941587, -0.17942594365201311, -0.08085473058370732], [0.06526891516979907, -0.06336865862894131, 0.12513715670297273, -0.05032923358256671, 0.00687498670630518, 0.1633181910360665, -0.005149693580508687, 0.2358116374231721, 0.09529134824670796, 0.11143583128384348, 0.12688450131218096, 0.2484687378349153, 0.20391259138016793, 0.08012893031879335, 0.0096061065184899, 0.07601904690351889, 0.003929164249158482, 0.07181951243800481, 0.23596820893418963, 0.2646782126076363, 0.051537978536561634, 0.0878180430763495, 0.24129454725545732, 0.17956229798560042, 0.15948868222572402, -0.2179873927892818, -0.08885112332342339, 0.02281557364058141, -0.07905790137700815], [-0.20813719136225078, -0.5721936241735095, -5.350857636882161, -3.697338251825452, 0.4136108197625256, 3.55431690282577, -3.409137742074332, -6.4382495820260734, -2.139996400685371, 12.309808792956312, 4.288301169628413, 0.8711198642356102, -6.3863827720721655, 0.5402958068391256, 0.8427686067046303, 0.5448829860206987, 1.25113764201561, -1.9767744246256618, -3.667195923339408, -4.3259698982453285, -1.5397260386543559, 8.180989223480424, 6.548695034227074, -1.301515909786067, 1.6127918030502786, -0.9520211263626964, -1.1371902594721832, -1.1155039864084593, -1.1290049446678119], [-0.021705716848373413, 0.0727376788854599, 0.12167517840862274, -0.11973652243614197, 0.06474567949771881, 0.08581002056598663, 0.04408194124698639, 0.06118428707122803, 0.11608175933361053, -0.1817070096731186, -0.07750982791185379, 0.009954988956451416, -0.01243525743484497, 0.038624510169029236, 0.1382133811712265, -0.023328393697738647, 0.1463150829076767, 0.08403564989566803, 0.12031672894954681, 0.04837769269943237, -0.034136801958084106, 0.05888219177722931, 0.07592301070690155, -0.10884415358304977, 0.03383859992027283, -0.004477858543395996, -0.07587475329637527, -0.013326555490493774, 0.164062961935997], [-0.009635099412614617, 0.0017513896913031492, 0.30433342692399395, 0.12034119326400976, 0.24810050313648707, 0.32660520494296497, 0.10322494073821131, 0.2983334663475599, -0.025518788605800456, 0.331559666505531, 0.32703077352889287, 0.17878898532379975, 0.09135767572369848, 0.044675037077580304, 0.3318341229934974, 0.058671315676266364, 0.3074738869223868, 0.15366703721302827, 0.025295880250264236, 0.31462719941822725, 0.30580965057133513, -0.025024311319154256, 0.15963667533629106, 0.005481632449329781, 0.10763550087356945, -0.04071806240750086, -0.018527975891942317, -0.0862366582518291, -0.06767231662319907], [-1.5777524942461483, -0.9557440985422058, -1.7664959396463276, -1.6939124615972505, -0.08459225213979246, 1.8743925894470272, 2.817755561324451, 2.1960204484713617, 0.3903224615533217, -2.7202839959135074, -2.9360658521036394, 1.2466822387394894, -1.8998780289926207, 1.1177998288592246, 0.878999281533642, 0.3840163622874191, 2.5667599600544233, 2.5436146972786533, 3.487906589835417, 2.654925207784908, 1.1974337981400385, -1.3836655828485886, -1.5156605347179029, -0.11979997187784139, -0.2545745757391386, 1.4893990238726542, 1.7723612725846811, 1.7522536403035651, 1.9540449490581882], [-0.17971192723151022, 0.11390453788457611, -0.022692385022474233, 0.062486086491889574, 0.028064337150687176, 0.136628941239958, 0.2922282782824687, 0.06515461237912303, 0.07120266540532107, 0.2610661354114605, 0.23725424076809137, 0.11013144430779358, 0.2599603865770457, 0.0006776285368284943, 0.24587075267918376, 0.2682420638949138, 0.2982975135549379, -0.01846761830906308, 0.15751922993631973, 0.08466501554455771, 0.19746333175209835, 0.0330406647464836, 0.03590725024726401, 0.023329226580231052, 0.31907967229826567, -0.16655043795616234, -0.264181942725778, 0.05396329523836953, -0.25772481460238794], [-0.16679467260837555, -0.1166866272687912, -0.03200125694274902, -0.07283103466033936, 0.12808917462825775, -0.05699867010116577, 0.13531775772571564, 0.071507528424263, 0.055873170495033264, -0.070246122777462, -0.1224297285079956, 0.00784999132156372, 0.07354645431041718, 0.10436181724071503, -0.016711130738258362, -0.04538425803184509, -0.13941659033298492, -0.08423645794391632, 0.15577886998653412, -0.07582399249076843, 0.17154471576213837, 0.09262622892856598, 0.157818004488945, -0.061819665133953094, -0.04202532768249512, -0.03776201605796814, 0.09959734976291656, -0.11500176787376404, 0.06894253194332123], [-1.1038728638381765, -0.024672266219913738, 0.059512116373201376, -0.06461779668024262, -0.04182897425008726, 0.0621256735107509, 0.1328059964400621, 0.12233574571077392, -0.02028133447237434, -0.25092282011970046, 0.030978936587824635, -0.026071090521237492, 0.1180127189245446, -0.02308544169352162, -0.08499225100761301, 0.08598439361114488, 0.09470894197662838, -0.020978118659544687, -0.11071837045751262, -0.11994776221544079, 0.07607920100032849, 0.1746856414491713, 0.02339399536928663, -0.05247044343640043, -0.09258305725521863, 0.8089997225438391, 1.2266560465203258, 1.624285913852091, 2.029287653852803], [-0.2528681403383775, 0.06518714491712738, 0.006480034752312576, 0.19642766936810827, 0.08767404780203122, 0.1526982151948026, 0.006166215641579011, 0.09388514931839366, 0.2945229512954634, 0.26753438515995986, 0.09130024395476045, -0.01885636668659981, 0.05171861081194058, 0.28555197615578365, 0.2435350235036102, 0.14782014120391532, -0.017547938921402145, -0.00850326179176579, 0.24699984102469805, 0.0457635779952149, 0.3274800882467849, 0.049920032896646246, 0.11090847391147313, 0.12373078910251943, 0.1694208197378356, -0.1431380636423947, -0.050239393300747046, -0.11323588112242515, -0.08583396561929338], [1.0804529386684456, 0.4508604363584079, -0.31599521535465136, -0.09141970929211529, 0.05851402884393392, 0.02065644657521575, -0.09097119460294263, 0.10082447407501836, 0.0783693090973416, 0.19998592339082363, 0.15380008913947646, 0.5987662856558265, 0.16372508648967138, 0.5000202485228045, 0.214337868005539, 0.0956544696130485, 0.18809123680207496, 0.23627539538852763, 0.18502299680223921, 0.359292163084384, 0.027447342821160504, -0.22871328075811928, -0.3262097133514987, -0.05450616913768965, -0.2123926946264472, -2.7431290289324477, -2.637785694985112, -2.513659081599752, -2.251850586148752], [3.295920231430611, -0.08822866094476622, 1.4133247660064938, 1.3164110773987967, -1.8335229342337032, 3.370477953624886, 0.37511024816083793, -1.4394518176560376, 0.08489075387856426, 3.7155944753465535, -2.8986258908386127, -0.1242134086518331, 2.9185135285510264, 0.6828917277581991, -0.5706072518635544, -0.23363708091464536, 2.6962224646643382, -2.329146150982511, 0.07024653887313963, 2.4438138216420233, 0.3100087231187457, -3.1336336739359947, 3.951705631236698, 0.6791675953292252, -1.6756494930610824, -9.759675867611652, -9.787891699232684, -1.0625482775424335, 0.699399535181075], [-0.20562664530001679, -0.01596028762922092, 0.20668070557577684, 0.024401593772222042, 0.033984709144586095, 0.15127395449740552, 0.2726691235901314, 0.04016848271190116, 0.2264560071811087, 0.010966110078383096, 0.28762038195455447, 0.203754604663031, 0.24014778669273312, 0.11774999279147345, 0.14695037017089305, 0.17949802101563098, 0.06592130306020244, 0.1855605284342755, 0.06572108227464774, 0.28427203431325343, 0.21376525493305584, -0.026379253623594823, 0.024987551222727358, 0.06792431549840244, 0.05668956332640551, -0.06654649582432562, -0.17949218620201593, -0.23363858650349678, -0.3089044493805886], [-0.07945743091509257, 0.12583929666150695, 0.010010057605547705, 0.16491992716258955, 0.02525143635159579, 0.17334311334025201, 0.07126908497453997, 0.28807331552728593, 0.2698754733317216, 0.15416846394468753, 0.1892156258940011, 0.11672927300182631, 0.16195341581596984, 0.09727848212957904, -0.02559712979427515, 0.15683690992517346, 0.04040853614734984, 0.004685115186785402, 0.32376482387023514, 0.27835211509755053, 0.05461776472028162, 0.07257365625281739, 0.299266501806527, 0.09792256761462868, 0.070775827978467, -0.24611794416470878, -0.04523413349468474, -0.217897821431971, -0.16522178995991837], [1.9440072313684398, 5.108929662607338, -1.7907950149122882, 4.186980311622907, 1.0680936914643913, -0.3482660528922838, 1.3417895029977869, -2.2469895833798295, 2.113707400556136, -1.5634104018857606, -0.9224267006746371, -4.61464628373018, -0.5453227093289054, -6.298614850879269, -0.596364813976507, -0.8061882597925253, 0.7474902069916886, -2.5941569424303776, 2.706812208236242, -1.265772800057047, -0.4103366157051504, 4.654076114197501, 4.781915791948503, -2.4489769273449045, 0.09236425199076408, -4.018835064636637, -3.5986517331945116, -3.5405247568992984, -3.439368539209388], [-0.315287123453407, 0.3139514144737751, 0.20657402758038212, -0.08210385028653548, 0.07083595578419088, -0.015675846215183777, 0.2978216050180944, 0.18623828447239724, 0.009867452963701584, 0.26286657721028167, 0.3415866990516319, 0.2769638113810807, 0.2657865330565301, -0.0038877224044261767, 0.03532866651148651, 0.11134729420659997, 0.11530272203963057, -0.024969220023096407, 0.1598883788890828, 0.08946027521914697, 0.34952339037007635, 0.18072445599796763, 0.055017408966561404, 0.10782545760301697, -0.021313819325492266, -0.19455762258227174, -0.008109881035980161, -0.03550790032869755, -0.09318876132593269], [-0.07521520827876697, -0.6912908737743131, -3.531202092621727, -0.5921706775903016, 1.7486551297335406, -0.298400834456189, 0.03622904562027052, -1.3999980369833767, 2.6072256660085693, -2.206614525142407, 1.2019038889889275, 6.456281233199332, -9.689060828101114, 0.5754852823234718, 2.881495143531157, 0.9434157697814708, -1.687514293395698, 0.8457978294334824, -0.02538307426230238, 1.2123634943736865, -2.7463608274357054, 2.8662141686654774, -6.125810044200397, 4.85533177653555, 5.530577402503392, 2.9079645810822905, 1.1235650567662159, 1.898503030459286, 1.2359418456192584], [-0.06720287762583654, 0.20195668394316615, 0.1837844362443166, 0.12977078071738163, 0.06644302899509372, 0.26641967487477736, 0.013106683386590861, 0.228226685802191, 0.12433437381018593, 0.13404261296444436, 0.08732966983417799, 0.03798253722315168, 0.10779627423503997, -0.006325011376368932, 0.18532861446019314, 0.23226257725926538, 0.31438454566357926, 0.02837501080439475, 0.10192711141797478, 0.23822295129913507, 0.043103294298292676, 0.09996817286053702, 0.31043364816128355, 0.2974257986444102, 0.29021649822337825, -0.2597939734605113, -0.17724002036730402, -0.01697749368487226, -0.12342631316038753], [-0.13834974132003824, -0.05288370492319129, -0.009304418544028654, 0.1100994478645317, -0.025995158682896386, 0.09271545260126135, 0.1301416880365756, 0.05879732797188075, -0.16237556801182187, 0.1297842423937092, -0.1264259736796888, -0.1455681958558194, -0.026927792215886093, 0.07119872421713291, -0.010561213164128226, -0.051996303001958434, 0.0009411774529628274, -0.07524625712733242, 0.15197308296538736, -0.049620503347794526, 0.11756207557637766, 0.013868864839676764, 0.13046307749865194, -0.15605952118245656, 0.17054918709732475, 0.055681345261645504, 0.04228444374430835, 0.06362358177322006, 0.1096655790559736], [-0.49572325943244355, 13.50086735408491, 6.985994587569473, -4.18939735525887, -4.111767643277902, -1.062373596578673, -3.1410797462952784, 1.1182768575373636, 0.4736950467776455, -5.704355331218849, 0.25358000345646603, -4.596024151477291, -1.0647264910934044, 0.7888050652700541, -0.8112331688110371, -3.300236714309766, -1.4958131858067305, 0.6258773842097411, -1.0691101674689547, -1.759310756127437, -0.916948249102283, -1.2616924853821674, 3.5988023469187307, 1.0248818480651831, 7.164397833752855, -2.349124873208088, -2.6603283897329, -2.703172806240939, -2.680946659364941], [7.4399443338408675, 1.6192188929261826, -0.475326989478673, -0.8139648301052416, 0.36490420523768174, 1.2258138376481245, -0.378468343261656, 0.30377633835678386, -0.14348262657748653, 1.0526305745820623, 0.2607412162536665, 1.2132203600289013, -0.7437729579507967, 1.6009529983992925, 0.43855764301884226, 0.5882065018984958, 0.43999149234971796, 0.11056084706503881, -0.3990740325656706, -0.06073000934752036, 0.40603137979182347, -0.5720433809981035, -1.567343796331944, 1.521344480372513, 0.30019585452621284, -8.109123721479094, -8.008743751097308, -7.973730053063804, -7.924393335561736], [-0.5648468867072568, 0.2979636851200069, 0.41128452516010344, 0.33831481517446876, 0.435839733789922, 0.5565136154785433, 0.3122301510594327, 0.5808463069423202, 0.5499758409171935, 0.6418960847833973, 0.6073998362712402, 0.29656087233994055, 0.32277539530787414, 0.6230320321072986, 0.45465897152879164, 0.32035963101914905, 0.41787738210240716, 0.5891678539297291, 0.6496019454121437, 0.5591636918353746, 0.5141889765694269, 0.6594233236150411, 0.4807510983219341, 0.4644696829416379, 0.5945088949636846, -0.30634272079901503, -0.5743103453788306, -0.48908159868174705, -0.6408101357480382], [0.0831781853593021, -8.390466317093956, -2.2582513982541483, -0.31587481042700877, -0.32531264903993523, -2.517094772333321, -0.8696020765045165, -0.28638287611495356, -1.9006588373264963, 0.318811148976907, 2.9888534418881876, 10.19481928976615, -0.3189083148488794, -2.5555853996926965, 6.24030646144717, -2.073685877227728, -0.8031047281758718, 0.1441381791689608, 3.17457090085861, 0.4342689787452756, 1.0071687749210858, -1.1058732395478155, -2.782096512510388, 2.765934668860244, -0.3598088237283997, -1.0320450024090302, -1.09852994997817, -1.1286825044526991, -1.1078762404327056], [-0.2317301465651979, 0.25367273037048316, -0.052689132042855746, 0.21980374882509926, 0.03208999126618367, -0.08111133091657126, 0.10743905005929706, 0.03780216297184756, -0.01612828343886216, -0.07883037732501955, 0.07778039138752914, -0.14265876833903748, 0.2023540308624842, 0.10301755048061846, 0.21955846252073316, 0.04110989304093527, -0.08636294106423081, 0.1257946367661446, 0.21465960417893332, -0.0457419266298743, 0.16491757781276284, -0.09599628573278646, -0.013637268552626269, 0.11250803316043077, 0.007392889306722173, 0.01067229791492343, 0.0578962548650828, 0.11131717248305004, -0.16855368582655486], [5.862771114324197, 2.3595002307439223, 1.2445932849314987, 2.7160259181655757, -0.386128651947862, 1.1233531460418895, 2.2287637482114033, -0.3377694401429217, 0.027945495450156555, 0.2046702353888044, 1.5254356481018745, 1.478037355342967, -0.2445389069011937, 0.7453073130649376, -0.08352512050896886, -0.6183774339225016, 0.921593479623862, -1.509644994761185, 1.5735694572563705, 2.9312454185363066, -0.7641924299727256, 1.183084252839241, -2.4446498288026035, 0.555289780536635, 0.15302995239075426, 6.332277876592871, 5.099161690679583, 4.01406247875457, 3.2159510715132327], [-0.1646553359847964, 0.20490723769824276, 0.2501559989710693, 0.05113977445989564, 0.024728867082348456, 0.1274661803983668, 0.3191878727480013, 0.18307336842777144, 0.14707147909196475, -0.02230341243373315, 0.3310538113342004, 0.0782922583100249, 0.3007652657697876, 0.07668821843225977, 0.13868506506528314, 0.24583177347493618, 0.13752557769988935, 0.3194716093163351, 0.11263367369256798, 0.3182453025051062, 0.025448553537134024, -0.0009293175418608524, 0.20793956490414717, 0.08214308177553253, 0.22672875015457297, 0.05720646679401398, -0.08980999141931534, -0.006445202370602025, 0.12693341076374054], [-0.12366410285198624, 0.30721110890720815, 0.02652770045985967, 0.1717996807395369, 0.03337775936956667, 0.30289433329641274, 0.0020734802709290144, 0.21995070705403844, 0.25790425459567734, 0.2154902214141783, 0.06297120132932203, 0.2641073007653733, 0.2128694142700894, 0.12429652533747498, 0.2574829892694641, 0.17212614927955106, 0.14009458530527166, 0.2573550430898836, 0.0669327221378225, 0.005787703767166953, 0.10941675044177668, -0.006471064723091836, 0.19238755904379876, 0.019320759687591827, 0.18465592887381826, -0.26938974688598466, -0.29102148281581847, -0.0003616782726652819, -0.11206346186081369]], "layers.0.bias": [0.09382639825344086, -0.20531577499314793, -0.19259820747176384, -0.1822254012432772, -1.8051210411110037, 0.09019647538661957, -0.07657060754545661, 1.9491006348410946, -0.16690879880516335, 0.09812484681606293, 1.6753772293691367, 0.011129731741506416, -2.627774112588372, -1.323695472269716, -0.03263794371775271, -0.2026757817351651, -3.568319509807673, -0.13791395248486377, 1.2912402559125706, -0.12822333607247258, -0.07235540454185846, -2.9011628393126285, -8.198590789236215, -0.6166914078865287, -1.3522890809232968, -0.22422946597593937, 5.263381651602381, -0.2515964315733495, -0.21302273126025284], "layers.2.weight": [[0.1360233873128891, -0.007031058045363096, 0.02632855860859037, -0.2916122960355611, 0.028288599204152675, -0.11562690138816833, -0.20905291621190583, -0.17570809670257537, -0.21712626672500082, -0.08448071777820587, -0.31913330452699595, -0.0914413828171501, -0.2375854851408263, 0.0023609336823257198, -0.2127480804568149, -0.17492929943752172, -0.14405398143817644, 0.0010319438990955985, -0.226630515677546, -0.1649109818461103, -0.2608376610356748, 0.0052317362178344795, -0.25151354859257746, -0.045301154255867004, -0.02106099896217109, 0.023828123859425444, -0.22754962439875787, -0.030805200338363647, -0.1323943634843897], [-0.04399414360523224, -0.03343714204609584, 0.05663695960552186, -0.036408333958381243, -0.2774372022238826, -0.1160622164607048, 0.06004264266515772, -0.774721972757748, 0.11273161320666085, -0.10493788868188858, -0.2080264595262472, 0.31036300134721084, -0.30435708154466556, -0.12220744327732724, 0.17906999093093987, 0.22166427274750525, -0.1825874073763867, 0.0009369560174177874, -0.12272081213135672, 0.24879034022053292, -0.1557396405512788, -1.7008669573275175, -2.724328318467056, 0.09262137115001678, -0.1895385031436065, -0.12160258973026113, -0.7850910867907996, -0.1255073845386505, 0.26544701294669204], [0.08247680962085724, -0.016906836177857727, 0.07910642082885315, -0.0573864695216287, -0.22459792645229634, -0.04699787497520447, 0.11030199869857792, -0.08190457290196779, 0.19973803318356917, -0.10411475598812103, -0.41849552051112615, 0.09287463087498396, -0.01872593560571501, -0.003810482050416741, 0.15366472322706398, 0.28131658460116654, -0.19054206195214166, 0.1803451723659958, -0.9840641318177987, -0.029469801577372928, -0.23187395780458914, -0.04243980992118432, 0.037845313615646345, -0.498359261169507, -0.012842339147533612, -0.015921922143282835, -0.04749936716743275, 0.04630452334535801, 0.3199245438610986], [-0.1264507919549942, -0.004754588007926941, 0.1429259330034256, 0.031387194991111755, -0.23592352021974325, 0.009602576494216919, -0.09277244657278061, -0.8524962255557383, -0.17008040845394135, 0.10738407075405121, -0.08024223893880844, 0.18101267516613007, -0.8413881807321083, -0.948376067948626, -0.08315993845462799, -0.16284114122390747, -0.8163468813883213, -0.17872273921966553, -0.2830814630521897, -0.08340540528297424, -0.1423524022102356, -0.6499282935808376, -0.6430704744839442, 0.1511991173028946, -1.0780223805372886, 0.16229821741580963, -0.6137145334442564, 0.16694490611553192, -0.021102800965309143], [0.09996269643306732, -0.0017573725652039241, 0.2990820031275897, -0.1422512934185889, -0.9691476742155183, -0.009257376194000244, 0.33879502983102233, -0.3759035165356174, 0.02821000308080136, -0.06984815001487732, -0.07621006730439446, 0.21621181791788807, -0.12080729810900936, -0.22323951392916094, 0.10378011967034423, 0.2722181873387728, -0.1774446577378495, 0.20039669699655524, 0.0007357831016145851, 0.04271885177654427, -0.0015936500554847909, -0.07417778759254237, -0.053851448323251165, -0.485958669104438, -0.7538993906293937, 0.017523331417896713, -0.09895139673053392, 0.047345847803634725, 0.0595754091324136], [0.13723109662532806, -0.03003031730760684, -0.013942954781031539, 0.0555350730037904, -1.2052991560829651, -0.026970714330673218, 0.10046056864843751, -0.427716185704031, -0.02645289662539259, -0.08553972840309143, -0.213270000639127, 0.056779992176662804, -0.17096071289523443, -0.45322562756130236, 0.03480987699299359, 0.10732072367861535, 0.6291505559773096, 0.04238195620777321, 0.5059517221212709, 0.2218443186578722, -0.11931619715969667, -0.08940885109709179, 3.1119081029449394, -0.6048407237246188, 0.19668328982797745, 0.09799065599657365, -1.8519682875527277, 0.015443708942404454, 0.06574518920522646], [0.18158139288425446, 0.012201332887558059, 0.024972067579579697, -0.10980885198943977, -0.056520211596251244, -0.11002261936664581, -0.12418351345719938, -0.08501507073020652, -0.30705249939444845, -0.14174234867095947, -0.012121501816031558, -0.0017676273329297408, -0.07686875195554081, -0.3637687015326891, -0.1983437637886444, -0.09747758120126956, -0.23303666691585437, -0.22464591110264426, -0.0898592490802882, -0.255865721540897, -0.15513573209704812, -0.17879883609676553, -0.29023866062687015, -0.055880531668663025, -0.10250644678331504, -0.2536591290468411, -0.1103959024190082, 0.01711197439338383, -0.0691855590093035], [0.018484488129615784, 0.17522767750211216, 0.09744015764154836, -0.13993893947774924, -0.9748061558123775, 0.0498356819152832, 0.03243031235071618, -0.2717742097410393, 0.2600335855705491, -0.08701188117265701, -0.1338187036010731, 0.24484899599561694, 0.060239711954262365, -0.3942531960269494, 0.005702794299448841, 0.22207731902345967, 0.605164587291134, 0.13856213908098594, 0.8251605620605814, 0.2502046526167238, 0.036892058508788725, -0.20101292202252571, 2.766748949770839, -0.3119468319950578, 0.19557061661122158, 0.1186676054683533, -1.3444735575196436, -0.03414925559006314, 0.33260096202516365], [-0.010814949870109558, -0.11966485239791048, -0.1040593472790015, -0.31557889299422387, 0.0008220263210791267, -0.06327448785305023, -0.17333203574608533, -0.30356358173746073, -0.28675195142240417, 0.10342051088809967, -0.026023172864413465, -0.3150129630418449, -0.060105099856190815, -0.05076267646306645, -0.3154213091656062, -0.2802928290301232, -0.1132913635892788, -0.00807642279225968, -0.15802623466824517, 0.031373555651592056, -0.12450291366735061, -0.04084585751540545, -0.2747742350912158, -0.015093430876731873, -0.16777021555666755, -0.15499782489526945, -0.09594289530311091, -0.2399008345146875, 0.033447715879754376], [0.1140696257352829, -0.1649485612095715, -0.2877441678897116, -0.23306737103335756, -0.18212476319506407, -0.14594608545303345, -0.3151576182319431, -0.08135435285447197, -0.11084989101475086, -0.027246981859207153, -0.18049858436572347, -0.007126521795128644, -0.15664202087491758, -0.053037421048571384, 0.0282670138185714, -0.07331950691295214, -0.2618278623117945, -0.1523754069704304, -0.014626399886762953, -0.05345034353890698, -0.19970110940855612, -0.07293738334795531, -0.2596079317846965, -0.04916082322597504, -0.11624350870550222, -0.2486919518387565, -0.3240322918683038, -0.235621152885971, -0.06611223096827348], [-0.08968965709209442, -0.15844251215457916, -0.03152333199977875, -0.17457729578018188, -0.11717918515205383, -0.0037677884101867676, 0.004537865519523621, -0.15109622442323445, -0.15979082882404327, -0.06767217069864273, -0.18208130323227376, 0.11569933593273163, -0.27592461377350946, -0.16952982382889928, -0.16158825159072876, 0.07499454915523529, -0.46983031184905805, 0.13564570248126984, -0.3572789827277911, -0.149461567401886, 0.023216724395751953, -1.1011145785293552, -0.6438184307797019, -0.043638408184051514, -0.14690794050693512, 0.1340123862028122, -0.9301524834046272, -0.18264637887477875, -0.01921500265598297], [-0.11552609503269196, 0.005795678799211516, -0.06420587253085844, -0.1300022683730822, -0.26926185809180897, 0.1579030305147171, -0.09944655480656765, -0.269201263759013, -0.06142780502829408, -0.023753494024276733, -0.17989549990171058, -0.10418340321936351, -0.18090416648279936, -0.28350356339318766, -0.26347717431293943, 0.01351235973083792, -0.10811337821561202, -0.28416227000590016, -0.22235322140281927, -0.07354360812301683, -0.1579801945715268, 0.025339647859240685, -0.22810899794995623, -0.052064523100852966, -0.06775279209141623, -0.13883256758591495, -0.04619433059207156, 0.046289727091789246, -0.2045601723414951], [0.15480361878871918, 0.23570865162628693, 0.21256820651829245, 0.0994358803336446, 0.40874733953711906, 0.0819316953420639, 0.11248028512258422, 0.05641075772647595, 0.31149037480862646, 0.16405247151851654, -0.2947630151332171, 0.16328613916393006, 0.09847441128321288, 0.29400250369084124, 0.23915482108750083, 0.15031573210297583, 0.05424765090882984, 0.06147340069809675, -0.44724499320259625, -0.004834425755383921, -0.025052285480106833, 0.3147553147529895, 0.3919451020448346, -0.3720957894009089, 0.4709880968961511, 0.2124788284898145, 1.144700062885174, 0.007246633537669543, 0.3067631571763751], [-0.1827171891927719, -0.07372043332794456, -0.033646235648103, -0.014477580785751343, -0.7603620530118332, 0.048446208238601685, -0.20526536205614665, -0.1747330343904978, -0.2885442957098595, -0.14266854524612427, -0.18264509513627783, -0.29070400662454404, -0.2634408804807671, -0.045957451899430644, -0.13950459908724755, -0.2487861538154539, -0.2781229857225056, -0.019234761595726013, -0.015716273543810385, -0.322987574023495, -0.06214640289545059, 0.009790365517001137, -0.7764298585803387, -0.05529777705669403, -0.20057503288038794, -0.1057064116966085, -0.25026866818625815, -0.012682855129241943, -0.27716965846703945], [0.12839864194393158, 0.3122127974657002, 0.1364618591118354, -0.109020180823583, -0.7198400046981503, 0.06497706472873688, -0.026296683378023704, -0.3060715191415933, 0.2957661689198837, 0.01934969425201416, -0.27711965806656447, 0.05678297583212963, -0.27039753243692494, 0.29376790813349696, 0.2243691165291143, 0.26835384991456085, 1.2044054293804947, 0.20705786970133078, 0.772119143249274, 0.23332147765394678, 0.05179999215237214, -1.766529918791371, -1.0672102714494138, -0.37874599936507886, -1.2951097511859573, 0.21109702392421217, 0.43907297863795836, 0.18276965137091328, -0.034317597273488196]], "layers.2.bias": [-0.1557254671141693, -0.05115468509843595, -2.175770527264446, -0.6194796313275318, -1.5827780121726862, -11.093470936869691, -0.2141116970565933, -10.371065931682226, -0.2787864189820897, -0.3072913878557157, -0.8324964201473077, -0.17071655425002719, -7.1883116567683505, -1.0019489515933928, -6.560686425691154], "layers.4.weight": [[-0.08922076330141132, -0.03542024949899855, -0.2479204410643589, -0.22799992561340332, 0.06831265647338731, -0.20669820378758702, 0.26471153164475625, -0.19185536644595996, 0.35414227179898866, 0.011146981313938027, 0.06757090321548893, 0.23218950870696792, -0.372924655037475, 0.3716370350421746, -0.056534098874194035], [-0.33644649099920526, -0.23269420862197876, -0.017460859920898283, 0.2270914614200592, -0.266064138656466, -0.2237820778874433, -0.253935821671298, -0.011020945623814395, 0.06203605652416868, 0.09571557486009989, -0.12731501460075378, 0.2537355124950409, -0.27206600751707033, -0.24901185929775238, -0.13427892038791223], [0.10613284638296837, 0.0669507130294821, -0.1865371971714721, 0.02833762764930725, -0.09921750615448818, -0.6244564872984026, -0.042564389527493356, -0.3246829087299295, 0.31382431045789067, -0.07631300314197946, 0.09435693332298888, 0.1766937455229231, -0.7479756181779998, -0.04914143681526184, -0.2648429803472145], [0.12224333519912126, 0.030884940188585952, -0.9224565736280367, -0.8630140276062036, 0.18767807584035576, -0.42352951237698655, 0.23151438050136933, -0.0737116707553547, 0.3852255259005243, -0.07984536364871578, 0.35099839138485134, -0.0008182487472506881, -0.8026182823902965, 0.13098826969915806, -0.35508577440533146], [-0.04637106667055196, -0.06402463734500864, -0.27699425716176146, 0.21761620044708252, 0.04315430296886013, 0.06293155510978891, 0.031542915833012816, -0.8530613576202893, 0.033330942066603204, 0.3425647892039873, -0.01669781878889917, -0.09942663579914215, -1.065291885001039, 0.1871578218725411, -0.2514304247198627], [-0.01970569704950695, -0.2951008102237537, -0.33405736549987186, 0.20738071203231812, -0.1958876963865016, -0.125726204048327, -0.35916622068017046, 0.00044404515710537033, -0.33919510404222025, 0.02908814687525775, -0.1510445773601532, 0.03275372386371534, 0.003475735143233554, -0.17891189064108742, -0.33646737299957585], [0.025848828039474726, 0.013503550427199225, -0.4527718455276772, 0.7883563438466966, -0.11710214401586039, -0.26062486177698924, 0.013920759957051592, -0.04506275861842898, 0.13166392960647502, 0.04331768471116668, 0.20028866173042434, 0.396932950588029, -0.49267337406605827, -0.0469833182884843, 0.011510775042161324], [0.05192446708679199, 1.0393320325514745, -0.8268759752428537, 0.21051770448684692, -0.659426630795948, -0.9607830101131966, 0.13816481828689575, -1.0118880000998767, -0.017000585794448853, -0.07207705080509186, 0.2256678342819214, -0.14579185843467712, -0.5682981418230791, -0.07283687591552734, -0.8626227588933207], [0.2310071949738174, -0.34276213161003605, -0.9728970225484106, 0.18604019284248352, -1.0136212191832594, -1.0664275261065883, -0.05916911386839119, -0.5640821234728326, -0.08082870620073433, -0.01759650255651546, -0.17343363165855408, 0.07175336307883487, -0.7316201716794131, 0.13013538718223572, -0.8137720887799075], [0.24537621631633003, -0.0238915154305956, -0.26038750565262686, -0.06480768322944641, 0.0010296260960655566, 0.005416171947624796, 0.10847556757352717, -0.29123789087659874, -0.10326949589533492, 0.31457118902054443, -0.024996929383943736, 0.07327680867394565, -0.008640235049279504, 0.23271635174751282, -0.04168014614802838], [0.1959080994129181, -0.1455838829278946, 0.04995408654212952, 0.24839046597480774, -0.07129284739494324, -0.23479080200195312, 0.2420623004436493, -0.17021331191062927, 0.10222914814949036, 0.047718197107315063, -0.08247065544128418, 0.13374614715576172, -0.06866641342639923, 0.22334766387939453, -0.23540493845939636], [0.03046552041357076, -0.21547277757591743, -0.09973157376946684, -0.212744802236557, 0.02729050753577921, -0.45591405899127124, -0.3122398571668284, -0.9225111718608096, -0.3103734935631502, -0.006179671149487981, 0.0439642071723938, 0.022942819422922346, -1.1614190931911557, -0.2956055943689483, -0.4096120145455597], [-0.0702871288287085, -0.17672662205687747, -0.311331651305036, 0.19328272342681885, -0.08745946814962571, 0.020853888289810593, 0.44232495312377446, -0.24293012211851622, -0.06156569679649207, 0.3625259079802182, 0.28496496721824377, 0.3456719744308763, -0.2567903338492977, 0.31854557655540644, 0.01082025092760821], [0.22122081162388094, -1.387141942592783, -0.415995075779145, 0.9838544115750731, -0.5846225161726696, -1.2483977342655577, 0.13792702729856474, -0.24470011914157613, -0.023061542079584208, 0.3194039815506438, -0.44832007366565524, -0.07791512815628944, -1.552228124418394, -0.03603884766667971, -0.19786936923649495], [0.3880833630445402, 0.08819510955594494, 0.061420592110638064, 0.5917070259425242, -0.6998254136333971, 0.14325536015986276, 0.13229946636351034, 0.15570700911182972, 0.162919336718089, -0.02604890005150542, -0.20884201931853175, 0.034066342696746986, 0.4549355268906447, -0.5343030164369124, 0.12980611355948335]], "layers.4.bias": [-0.5144445226905523, -0.26710138395195243, -0.8634949716933571, -0.38245395743925836, -0.6798782653627228, -0.13332131569637393, -0.3457871451270709, -0.8744719173771247, -0.46809429003048747, -0.06424902014078149, -0.05358313024044037, -0.3083239913486174, -0.5109586273055874, -1.2923057114758056, -2.714883384693666], "layers.6.weight": [[-0.026654710994926063, 0.04918230885912485, 0.7091188139825313, 0.03259410550834088, 0.6840035892728406, 0.04047435779357411, -0.0951669468029147, -0.690952344229502, -0.5625252007103924, 0.013093029434940458, 0.07594525814056396, 0.5340858905416928, 0.015254270342044901, 0.25112630396502433, 0.29678832499055846]], "layers.6.bias": [2.6423177461867247]}