{"layers.0.weight": [[-1.9776546513926865, -0.6307008495815193, 0.44634165847252205, -0.10486951388815159, 0.24642409698027648, 1.6818745578367829, 1.0143953566005686, -0.643374759706996, -0.14960869514997532, -0.883882912069916, -0.3156925692724336, 0.2140056872584539, 0.04547094442076091, -0.24121921529808601, 0.44575439345781126, 0.2752992704699845, -0.05245397234602475, -0.11818454399542638, -0.07238207285781667, -0.07364373470456803, -0.07590241475720369, 0.6118397833205983, 0.029213772446082524, -0.45340640558959155, 0.09650705178208799, 5.92349406361714, 5.832361654867302, 5.716451028279487, 5.579344632117538], [-0.26618886916392426, 0.1664452154635587, 0.08561334864964579, 0.04254670107426701, 0.1471229921337941, 0.09431331635229942, 0.17005000400376574, 0.03961242041333138, 0.09840406111587592, 0.07932314217360996, 0.24621640435260295, 0.31801214286862656, 0.27228892033634455, 0.2656041778115054, 0.18188244107558776, 0.28219504626856357, 0.28770540217545715, 0.09416829418174318, 0.02307698343845974, 0.2811922444313372, 0.2141737860584634, 0.2562786066502074, 0.0371318332030248, 0.3177667549471745, 0.19893011550811637, 0.033128902316093445, -0.0007803227023927033, 0.06381364166736603, 0.07685600221157074], [-0.10405408591032028, 0.13641823828220367, 0.1855299323797226, 0.15306402742862701, 0.016925334930419922, 0.10026140511035919, 0.18004341423511505, 0.17659880220890045, 0.15021605789661407, 0.11118896305561066, 0.16842861473560333, -0.1488358974456787, -0.13852892816066742, 0.15779702365398407, 0.0452670156955719, -0.025258496403694153, -0.03962838649749756, -0.11280590295791626, 0.1049729436635971, 0.06749479472637177, 0.16939611732959747, 0.029695838689804077, 0.18208308517932892, -0.16103005409240723, 0.14475657045841217, 0.18282850086688995, 0.006862640380859375, 0.12156490981578827, -0.12319115549325943], [0.07794179022312164, -0.055243298411369324, 0.04649244248867035, -0.11344768851995468, -0.07788883149623871, 0.02253417670726776, 0.1849605292081833, -0.12040621787309647, 0.10879190266132355, 0.008306115865707397, 0.12496234476566315, 0.11602385342121124, 0.10939599573612213, 0.1334713250398636, 0.10784865915775299, -0.025230348110198975, 0.17269329726696014, 0.17452199757099152, -0.03806625306606293, 0.09629623591899872, -0.06653449684381485, 0.043931588530540466, 0.15125583112239838, 0.10794781148433685, -0.10337948799133301, 0.1641649752855301, 0.05527925491333008, 0.1078372448682785, 0.07327409088611603], [0.22999809704259927, 3.9566407944183606, -0.11108107572376015, 1.5880261119080323, 1.0120394694062458, 1.3318444050203397, 0.010502935249674246, -0.9366915517439295, 0.003781280122455324, 0.3157620560309129, -1.4981563959316955, -3.3018508108736118, -1.7628916591786685, -0.3695866480026323, -1.0380537453574652, -0.6006453262682644, -0.924996484352406, 0.42036684691172754, -0.8751155989450742, -0.696924129365938, -0.6002496985688227, -0.3368432837370751, 0.6473240667823578, 1.438176022052458, 2.591418860166363, -0.018501378997769807, -0.00833221996540039, 0.008742879583725433, 0.03072382062301969], [-0.11929310113191605, -0.0365876704454422, 0.18328402936458588, 0.1381831020116806, 0.08923916518688202, 0.040782272815704346, -0.18260285258293152, -0.03416246175765991, -0.03475755453109741, -0.022568538784980774, 0.03032630681991577, -0.08126621693372726, -0.17773553729057312, 0.16954632103443146, -0.05262690782546997, -0.16765087842941284, 0.14409519731998444, -0.08242754638195038, 0.1332983821630478, 0.14945541322231293, 0.13997186720371246, -0.02686348557472229, -0.008629962801933289, 0.06285186111927032, 0.02964426577091217, -0.1493537575006485, 0.0997498482465744, -0.1540331244468689, -0.022752776741981506], [-0.14373164843541733, 0.2041888181373939, 0.31786932619221253, 0.1779982602175867, 0.059654603962773466, -0.023792682936928322, 0.1310483629540733, 0.307530001706015, 0.00549155706946992, 0.28293261521404317, 0.2632396193061046, 0.07246407510347827, 0.21626570377606452, 0.09021199107700062, 0.22646899148399688, 0.06506957178616897, 0.32317157598960294, 0.056168499584650866, 0.12767199527095624, 0.06090863019643482, 0.1830736614258962, -0.025959258908528907, 0.31778812530900263, 0.2714509115991342, 0.23479683760316217, -0.07752395421266556, 0.029287957155580607, -0.039451614022254944, -0.056205153465270996], [-0.13517031073570251, -0.04014553129673004, -0.1028282418847084, 0.009325727820396423, 0.017179399728775024, -0.09870240092277527, -0.038317471742630005, 0.018597424030303955, 0.021275654435157776, 0.16545994579792023, -0.09345655888319016, -0.05952046811580658, 0.07281012833118439, -0.09268985688686371, 0.05866369605064392, -0.07920538634061813, 0.04110954701900482, 0.0037620961666107178, 0.09974934160709381, 0.10189448297023773, 0.1537889689207077, -0.030693799257278442, 0.034613728523254395, -0.18201594054698944, -0.023362576961517334, -0.040046557784080505, 0.007905319333076477, 0.13822336494922638, -0.08963285386562347], [2.6965374416414623, -1.322711654994466, -0.8255945101948907, -0.45309367212517576, -0.05453704373828062, 0.07593884588275217, 1.1686656033430782, -0.19612808012033445, 0.5852156067538001, 0.689302750407823, 0.6074530308923034, -0.0427160331062216, -0.39152491370424997, -0.9558467503196848, -0.10431967884452946, 0.23893067460688353, 0.019174075662336622, 0.07920238380667846, 1.044894365122519, 1.050307517838687, -0.10675717552389481, 0.2764010659939469, 0.3349240089695634, -0.37550571025853957, 0.43688934856563616, -3.864804459456944, -3.9755065611594302, -3.9974033569149756, -3.933414972039217], [-0.013358223826684217, 0.25833215295665, 0.036777000337630046, 0.20903689597825773, 0.29039029385896376, 0.13449584962168643, 0.005422871736063063, 0.09366680816332336, 0.17479735144640965, 0.1876182008888892, 0.3015656674076082, 0.08591865940697221, -0.036628212145247675, -0.0068840251956194245, 0.019695429425363183, 0.012447663075703304, 0.0453701283837462, 0.19217438728704722, 0.18904138771447113, 0.18770103989398987, -0.022715976977353277, 0.1876086609359974, 0.23591476311108395, 0.24152483580191858, 0.21440673864061435, -0.19859323193212347, -0.20436757428812335, -0.0897661757430983, -0.21264488027813702], [0.05532446229406761, 0.26191607868939737, 0.19685328336645355, 0.17536243206686894, 0.14522012169001106, 0.12243182047407927, 0.146305055776217, 0.28239787371483255, 0.06295597189727421, 0.1770347250012116, -0.001069550489643289, 0.3005925068618032, 0.21994661693706988, 0.04364009089332258, 0.27715739395755457, -0.049270705671061454, 0.11164834544274628, -0.006246820712088949, -0.04379405800865674, 0.11110926898209986, 0.06639681788766774, 0.23929676959982155, 0.22880772909320232, 0.19970956208237306, 0.2517190305846837, -0.005417936028075765, -0.011458837599591638, -0.0016024004605535757, -0.2150648875861458], [-0.24599406793714265, 0.1874254593552814, -0.04774063404247639, 0.20073950481116398, 0.02606852946796555, 0.07537752649725776, 0.14773344613520992, 0.18546660890622058, 0.30862028308451545, 0.0653391063270565, 0.1631281763649583, -0.046931601089679295, -0.01691819942824394, 0.17017699144982779, 0.2377882446481677, 0.13854771793267476, 0.19244744643672837, 0.1625132428737645, -0.017437333368796624, 0.017629819580465604, 0.13151597970326473, 0.2542341700843841, 0.18946683277161314, -0.023735361589822646, 0.21706842713299934, 0.0033427810893675875, -0.27578323694504225, -0.17365621472487114, 0.020329212476454687], [-0.30456689809257365, 0.28804752351785406, 0.16703118379972182, 0.2023567428272749, 0.31894717206629086, 0.10419587149779953, 0.05974645243101877, 0.16834540345240867, 0.07442509885213917, 0.03937747904396215, 0.20651311843417353, -0.02173627422246577, 0.3370471430217355, 0.2803590626976979, 0.23422077676432382, 0.16237729220912434, 0.0037044220356004225, 0.0030315461243887874, -0.0031508688836207276, 0.18190222691492236, 0.02631180884292779, 0.1640923801310803, 0.32096122082046014, 0.021118382158716035, 0.18368971190041886, -0.21817968956507675, -0.025304773212063883, -0.05831708380389388, -0.30288852236030006], [0.11519645154476166, 0.1393408626317978, 0.06242792308330536, 0.003286793828010559, 0.00276009738445282, 0.17263726890087128, 0.05573001503944397, 0.11215822398662567, 0.02805478870868683, 0.13384820520877838, 0.041604235768318176, 0.16799847781658173, 0.04417787492275238, -0.11174099892377853, 0.17872501909732819, -0.013724789023399353, 0.15330477058887482, -0.13733269274234772, 0.1272415965795517, -0.16622111201286316, 0.1198621541261673, 0.01926232874393463, 0.03212831914424896, 0.06556583940982819, 0.12598146498203278, 0.09009496867656708, 0.03715620934963226, -0.011792242527008057, 0.11884774267673492], [-0.11900031235352006, 0.06287059872943, 0.04209599050009792, 0.13409573933092042, 0.12248339935494167, 0.01355473385929315, -0.02413824574539377, 0.1021891779161551, 0.1960237424314854, 0.25967796793545195, 0.20216037842357865, 0.18527129719470017, 0.22375442624265582, -0.002484597162640145, 0.21566262332423142, 0.21554126996996356, 0.055451651085739906, 0.16336914620124982, 0.3066768015679154, 0.024799476329685613, 0.03806779089959202, 0.09365954243081707, 0.26469724475040773, 0.2755169472416799, 0.31184943546055627, -0.3336485808067514, -0.3316986600468089, -0.16892265083984068, 0.03243173813519087], [-0.319892187233572, 0.0978399397616809, -0.02413184412546997, 0.1889077482104041, 0.25966749223854285, 0.060945495454066016, 0.00039573520349794444, 0.2958217868510567, 0.13124491373600594, 0.0068667963645907045, 0.02022023265667403, 0.14622013062735123, 0.23013228382922887, -0.011302289947322994, 0.03792127037300123, 0.3185554799807282, 0.10209455206837882, 0.04675380089051863, 0.15368108959322457, 0.2703900954613717, 0.16272625623535664, 0.0602741700212906, 0.3283220830253871, 0.03716654406968722, 0.027411740580759618, -0.2837007801321463, -0.11654733510789313, 0.03147150063282391, -0.20348617286846846], [-0.10067530461495651, 0.06072037519999612, 0.05010050058238104, 0.28935074511329556, 0.2989598904249266, 0.24492388801211157, 0.07056422169856298, 0.06054856458475241, 0.17467373016561724, 0.03315417380009711, 0.2141648314801083, 0.1265103306066021, 0.21541612176981992, 0.05927843792341023, 0.10547550585251446, 0.0881621149761505, 0.1713277838316972, 0.10571771171275074, 0.3260262575983175, 0.010873182268069038, 0.2082245175507219, 0.2282660776935504, 0.2856124816052825, 0.0258217254423711, 0.14815471827407342, -0.22180960923698043, -0.11570487309527466, -0.04421418485911243, -0.2943179591227893], [-0.04517322202121418, 0.05428414099504915, 0.2567363085300994, 0.12764957510699695, 0.23071101541200204, 0.061886899026663236, 0.18866660761304746, 0.02744653283693382, 0.17153280763891368, 0.042737932940596586, 0.3250236634803242, 0.1999295859560015, 0.12437285335036283, 0.32386162051204603, 0.10954770083678206, 0.08127872765348726, 0.06856841337217856, 0.06685694965238533, 0.20964435217235083, 0.14065238248981324, 0.09645269969631, 0.34802521443776313, 0.013627642131451522, 0.04071976123366241, -0.0016024886300312947, -0.08483885850707507, -0.02580336563852274, -0.15189906092550234, -0.30352945239580253], [0.014083173524035854, 0.10593587421228841, 0.29789747185837523, -0.016511826606808336, 0.322980483212173, 0.2407477973039419, 0.06331553012440606, 0.2045909759263905, 0.07924718933861846, 0.08695128200213754, 0.23259960437096724, 0.33735053159982265, 0.17618592943436395, 0.24902762895974342, 0.3228724809778463, 0.2571264842984457, 0.31713412551510006, 0.043711371321245245, 0.15395383309672303, 0.016602403068685587, 0.036004057359824246, 0.05126433593087841, 0.04774575476530327, 0.04708307034590736, 0.13288694263031395, -0.028428721569874253, -0.15656915629236165, -0.28980014592849, -0.21565418019904442], [-0.22697591963670913, 0.3063797425776897, 0.13531403419639862, 0.026564996915471557, 0.08070364804848555, 0.19765361223765213, 0.04151018021551229, 0.26715143140323216, 0.323672027425789, 0.02457108770441926, 0.2601954167818447, 0.022653712451473275, 0.007629029527013043, 0.21053512836555727, 0.2308528616695627, 0.3266855419896788, 0.11175051430823042, 0.0019419904820383587, 0.13020494372640687, 0.16031468215580116, 0.007758066080875684, 0.11875125765884469, 0.19901683809623824, 0.11293653085854718, 0.30595977417175324, -0.02076639235019684, -0.09959399694105593, -0.15805651627724218, 0.09748376905918121], [-0.1390688717365265, 0.18043048679828644, 0.0025430917739868164, 0.1467031091451645, 0.09611473977565765, -0.17789888381958008, 0.06069463491439819, 0.15200282633304596, -0.03384914994239807, -0.14509865641593933, -0.15310406684875488, 0.15468327701091766, -0.16028381884098053, -0.02042122185230255, 0.09006227552890778, -0.029520034790039062, -0.0030406415462493896, 0.012601733207702637, 0.11516182124614716, -0.10299099236726761, 0.0377231240272522, 0.15563653409481049, -0.01842115819454193, -0.0038386881351470947, 0.1316499263048172, 0.06890244781970978, -0.15035516023635864, 0.004300117492675781, -0.04591333866119385], [-0.03705476224422455, -0.10752711445093155, -0.032550156116485596, -0.03004312515258789, 0.13411946594715118, 0.18060778081417084, 0.13993079960346222, 0.09069152176380157, 0.18095336854457855, 0.013174176216125488, 0.034355685114860535, 0.10968263447284698, 0.1609860211610794, 0.05226728320121765, 0.16900618374347687, -0.05228297412395477, 0.18540681898593903, -0.145671084523201, 0.15568365156650543, 0.08773963153362274, -0.12804476916790009, 0.026808828115463257, 0.18411682546138763, -0.08097732812166214, 0.1626453846693039, 0.17184163630008698, 0.0007421523332595825, -0.04643529653549194, -0.10594255477190018], [-0.13949303430345766, 0.254475283521552, 0.008619558461084876, 0.03697993922011387, 0.02276462455926193, -0.027644063841439723, -0.011136235209160938, 0.16088238099061555, 0.047680704421914355, 0.03935554413013522, 0.047086206706845074, 0.04893478582284091, 0.30436245554793173, 0.1938551729236392, 0.2742351145822284, 0.269186883736293, 0.052467133624026836, 0.259907838747241, 0.27175148601607546, 0.2984095007365845, 0.3314063050953076, 0.27928724887696865, 0.3347281525265539, 0.27658118866479237, 0.20121682740939217, 0.03417846749551947, -0.18006310022371178, -0.2693662089201242, -0.14326256030971823], [-0.31840271815431537, -0.03118249090718716, 0.2770587500341253, 0.22610278524437855, 0.13436360027208946, 0.32072404943455496, -0.002817796250880192, 0.16904827976341927, -0.0034936136097778103, 0.29297424440044945, 0.10875430467975433, 0.2697559230204417, 0.02117219919313194, 0.13710622647364062, 0.05720039979295102, 0.130968917831357, 0.07074958607867177, 0.08935284717320152, 0.30962894829100407, 0.1375007863656751, 0.033289574670186464, 0.22767159565051756, 0.07009853031841928, 0.04263112377715614, 0.08310376687426493, -0.09773584751917921, -0.1451524943113327, 0.020411939306414422, -0.15204492211341858], [2.6429713846961866, -1.0309453863276565, -1.1009799508451696, -0.150991850809416, 0.8425686895472246, 0.6365232712306248, 0.4672130805461157, 0.6787696154299088, 0.01482608510464814, 0.907574529432689, 1.2629228780726287, 1.447349845286782, 1.1304927537660898, -0.22341815818191152, 0.328504222149333, 0.12329101333816209, 0.6218266982165354, -0.11661886649748146, 0.20362904695096587, 0.9333264938507734, 0.35449792379277356, -0.615423828504844, -0.9960654872103493, -0.4020578289701583, -0.13835559545488108, -0.8329709341831137, -0.7763457647636791, -0.7137650060559239, -0.6560260411234713], [3.205623438485638, 0.5988285679073224, 0.3560437081984991, 0.09304682955616118, -0.29639443420758727, 0.49316415277165776, 0.21579711841634494, -0.38849398349385134, 0.06927151378339935, 0.44446998017167055, 0.9468793769004447, 0.7929653074718647, -0.21330042840162772, 0.2743898374635666, 0.4008433464871368, 0.21563535046930152, 0.40058022086796646, -0.569347091700394, 0.2178075886778886, 0.9666947177875571, 0.15155937774445888, -0.3912469081599829, -0.5134185910490837, 0.08762503093319757, -0.06763369013578505, -2.431020666655029, -2.568566948876146, -2.570030333573362, -2.4604198463654616], [-0.05844565025147097, -0.09028367832170522, -0.01992972707079816, -0.0405247529318152, 0.18655215282731588, 0.1524259268270547, 0.10381604362976204, 0.15276995854417375, 0.20156973896857877, 0.09089921174656725, 0.06961496755581414, -0.07035361392108176, 0.14832586156639085, -0.3784002060491999, -0.19824278712843527, -0.079678737909898, 0.16681139328914824, 0.11900984890681729, 0.1064327615665368, 0.08710379446786354, 0.13481531036302632, 0.2339004590977429, 0.32582337024979724, 0.06625332593660808, 0.06038721052871277, 0.11316484091859198, 0.26556586378702635, 0.33116603659072796, 0.2349080585679053], [2.0610397942881367, 0.5564342412557878, 0.5740186002069307, 0.030554546134802636, -0.39042609071023293, -1.1506077854486028, -0.17136358747436878, -0.9270239092896028, -0.36087960237389455, 1.7285334235278451, 2.268956253759453, 2.277800705839129, 0.8937262938973539, -0.4716675532698922, 0.4978528992684025, -0.26320321703672866, 0.16735565740650699, 0.18460078368558278, 0.2327835439772885, 0.12713176405857618, -0.14448602443061398, 0.823581580941511, 0.35095532377745087, 0.5021607022345219, 0.9502695112148973, 3.5705569406832254, 3.2419797617332358, 3.0830310567563792, 3.0666671831513517], [0.2452327664358968, 0.08091192994833601, 0.04927100319925652, 0.024215958494473104, -0.01979487192556689, 0.22862030546295448, 0.16725421852016228, 0.2712628632103897, 0.273552999074124, 0.2874803958669197, 0.3258303052015525, 0.30226080719108, 0.07076198464222581, 0.2522132570693784, 0.06595557671609555, 0.1514011310802376, 0.17630971705170048, -0.020624620023298873, 0.14434163557520702, 0.11420612028464697, 0.20627703866667516, 0.16906919386416996, 0.11874041258901537, 0.25473436894696505, 0.2665303206703589, 0.42039515698541563, 0.3633685913481817, 0.05103453692000233, -0.16105581892707585]], "layers.0.bias": [6.567900248264656, 0.02400999411775199, 0.16625644266605377, 0.05878506600856781, -0.06423870977146039, 0.06154632568359375, -0.11543898979437806, -0.08947863429784775, -4.442171483090177, -0.15901674139616484, -0.1089529157089779, -0.1566913354914755, -0.170922704966827, -0.09544165432453156, -0.2086457087041656, -0.1563974311262264, -0.07233543805732984, 0.0028670591158064334, -0.27483442546744696, -0.08117403843020703, 0.15253211557865143, 0.007151767611503601, 0.0021282095028739424, -0.3258270019906033, -0.6397161605008009, -2.8879061873910805, 0.1464864301473443, 3.6515685847587442, 0.06941942643322609], "layers.2.weight": [[-0.7267057469734604, 0.02003338932991028, 0.03183157742023468, -0.12415330111980438, -0.7730590629777769, -0.16775795817375183, -0.17012429237365723, 0.0723692923784256, -0.08477995544672012, 0.16285796463489532, 0.11314292252063751, 0.0688781589269638, 0.01411275565624237, 0.15099282562732697, 0.1523624211549759, 0.09175963699817657, 0.1578771322965622, -0.1795925348997116, -0.0012974739074707031, 0.11598353087902069, -0.051390454173088074, 0.04148739576339722, -0.08845310658216476, 0.06678412854671478, -0.17704908549785614, -0.9038377809179308, -0.8307954019239466, -0.1257569044828415, -0.1255895048379898], [-0.13033963252922645, 0.032912880182266235, 0.039824292063713074, 0.11012087762355804, -0.29372355193457833, -0.18044975399971008, 0.01785153947434174, -0.11374256759881973, -0.167937140252288, -0.26364508065927655, 0.016964231081737727, -0.0606413334608078, 0.034979484658901466, 0.048699960112571716, 0.0029516073296153985, 0.001516620808999942, -0.10703927605055287, 0.026172384747463053, -0.27483120316873083, 0.009139756092330423, 0.011881962418556213, 0.13602666556835175, -0.06575330184497451, -0.0016015979569606433, -0.2581541559494436, -0.1212243543022581, -0.19585570517327464, -0.0713091918226747, -0.03678019344806671], [-1.4487298107260975, 0.3263471645157507, 0.14844746887683868, -0.1459536999464035, 0.5051159554134308, -0.0953863188624382, -0.21824249407005505, 0.1378960758447647, -1.4277569330329398, -0.04147189435466558, 0.21724815682007056, -0.12319066243515603, -0.038211831009716195, 0.13532157242298126, -0.00948468040861836, -0.003118044421730344, 0.04868935594227724, 0.2867178520961673, 0.1486146840498499, 0.07317091524600983, 0.11798007786273956, 0.18412016332149506, 0.2024894376281604, 0.0031992738239202483, 0.8579129559926307, -1.053378497934097, 0.005929406027469118, -0.16411716938001591, 0.42443155559296586], [-0.28485240889019076, 0.059465765953063965, -0.021569490432739258, 0.0792057067155838, -0.15856430432412016, 0.12234063446521759, -0.16342939494081854, -0.1747809201478958, -0.06356898861936894, -0.05099032910144691, -0.026308530821910356, -0.0926840528845787, -0.29187061701979305, 0.11993803083896637, -0.09640031546389097, -0.22735247892434512, -0.20305068870550713, -0.06471584658480231, -0.058548536293038696, -0.2835575720047029, -0.12211505323648453, -0.020407676696777344, -0.12452556040499214, -0.09904087624921279, -0.24806278229375486, -0.17036587914496382, -0.19062734540849685, -0.03545637119967024, -0.026828110218048096], [-0.8187843725488163, -0.02408607304096222, 0.03305204212665558, -0.13522079586982727, -0.5408068464755315, 0.0136079341173172, 0.0478426069021225, -0.04111681878566742, -0.6625526284404769, -0.06749877333641052, 0.0999283641576767, 0.004059940576553345, 0.0681048184633255, -0.1358862817287445, 0.13819076120853424, -0.1488059163093567, 0.03081969916820526, -0.0811065211892128, -0.09379597753286362, 0.1021871417760849, -0.08015812188386917, -0.08983465284109116, 0.07067124545574188, -0.08878464996814728, -0.7879400184725756, -0.8710146332036914, -0.8737561617673656, -0.7940348282111526, -0.10463979840278625], [-0.1789082731522466, 0.11054705083370209, -0.12984870374202728, 0.09777344763278961, 0.004666299286795946, 0.13101686537265778, -0.17063243687152863, -0.0032821744680404663, -0.0735320529557224, -0.2511600168069818, -0.24748149492735916, 0.15542007982730865, -0.19567054006697537, -0.03305742144584656, -0.3296014292564076, -0.23572446752800363, 0.024168451822476147, -0.05005770523925452, -0.17673349526767163, 0.008372843265533447, 0.1312834471464157, -0.17529405653476715, -0.2835250841911211, 0.004243227349853695, -0.22478184717394306, -0.01801545460225338, -0.23810922449813257, -0.2756259456294941, -0.07716947793960571], [-0.2838652047845201, -0.10875833034515381, 0.05043819546699524, 0.183480367064476, -0.7459743971017411, 0.049188032746315, -0.04653981328010559, 0.08024667203426361, -0.4284916403951993, -0.057123541831970215, 0.17833657562732697, -0.07353942841291428, -0.03954988718032837, 0.0018474161624908447, 0.0029018372297286987, 0.13472969830036163, -0.018338695168495178, -0.17724408209323883, -0.08029446005821228, -0.16226816177368164, -0.04134020209312439, 0.12883050739765167, 0.04787410795688629, 0.028523802757263184, -0.35010387184080005, -0.3575507713375879, -0.2522379421351666, -0.16276783982493967, -0.01561763882637024], [-0.8337319660136654, -0.14730046689510345, -0.08681579679250717, -0.1560019701719284, -0.5595386041717618, 0.09594176709651947, -0.026598244905471802, -0.1805945336818695, -0.7114945159287521, 0.14940281212329865, -0.1747775673866272, -0.18392503261566162, -0.15790969133377075, 0.1626686006784439, 0.15721909701824188, 0.13193686306476593, 0.11559145152568817, -0.028284147381782532, -0.08511517196893692, 0.13250328600406647, 0.08393765985965729, -0.08745454996824265, 0.10133983194828033, -0.18394680321216583, -0.8162910224665398, -0.9634366489477535, -0.15686985850334167, 0.6634675321426406, -0.10414949059486389], [-0.1899524015090065, -0.0653330609202385, -0.17537279427051544, 0.09591345489025116, -0.3212036539235336, -0.007155165076255798, -0.14168358585871554, -0.14955410361289978, -0.3092219218272165, -0.19272592696766627, -0.26340577312708285, -0.08994153141975403, -0.15793132024851825, 0.07742507755756378, -0.02954750825003679, -0.04290465538738209, -0.06212721125524414, -0.031046406826635644, -0.06849396637288008, 0.023537744636921442, -0.11471633613109589, 0.13730184733867645, -0.3254430221052401, -0.15127565836564083, -0.10014271524228774, -0.09866754557177852, -0.10209646717099304, -0.10844591259346834, 0.05082970857620239], [-0.0694607667223055, -0.16430962085723877, 0.1704508513212204, 0.17059658467769623, -0.07972181067544826, 0.10245718061923981, -0.13244646787643433, 0.07194839417934418, -0.27178420824058047, -0.20305285329367204, -0.0018729845437558887, 0.13530544936656952, -0.14745740481630082, 0.1183948665857315, -0.03144346952594304, -0.2680178405071704, -0.2857251252892894, -0.2576211331508242, -0.2781888388296088, -0.09895072173734118, -0.1807551234960556, -0.1410026103258133, -0.2173987891989352, -0.05793151259422302, -0.01871495875001129, -0.19950014653442102, -0.09000953286886215, -0.06346015123068127, 0.13404937088489532], [-0.038899973034858704, 0.04509827494621277, 0.160713329911232, -0.09188804775476456, -0.10280400514602661, 0.009736984968185425, -0.032449036836624146, 0.049662068486213684, 0.027809008955955505, -0.12554004788398743, 0.008716106414794922, 0.10166589915752411, 0.008298501372337341, 0.07954375445842743, -0.016215622425079346, 0.004037916660308838, -0.16814006865024567, 0.11789356172084808, -0.060534730553627014, 0.014827191829681396, -0.16679033637046814, -0.0967894196510315, -0.0669955387711525, 0.09844537079334259, -0.1416098177433014, -0.04771067202091217, 0.08414871990680695, -0.0764622613787651, 0.04231840372085571], [-0.044528096367607926, 0.13826079017412254, -0.15310728549957275, -0.11653105169534683, 0.6787855378308372, -0.020758584141731262, -0.24686431998069333, -0.030809372663497925, 0.28163353245622436, -0.10835313003036971, 0.2018208482485764, -0.11901979752942296, 0.06542263866072626, -0.036387428641319275, 0.2835672775002891, 0.3272279799096377, 0.0793401131485995, 0.15222312441616864, 0.05780557381251672, 0.006720470265929809, 0.009193181991577148, 0.07936061918735504, 0.04490914164633498, 0.20537940449413428, 0.44945536349566756, 0.11389087229598362, 0.13880143835484499, 0.9394195713425982, 0.4185472880656555], [1.3778730007100486, -0.0013239999015166536, -0.13551782071590424, 0.15427352488040924, -0.04174924766591229, -0.11235311627388, 0.1668974608182907, 0.150856152176857, -0.19359171729443236, 0.04093744255232412, 0.16673891246318817, -0.2938828920971303, 0.11817749160748525, -0.1253519356250763, -0.1242406964302063, 0.0817035585641861, 0.12862856686115265, 0.04105236627258354, 0.17211854747548183, 0.1506744772195816, -0.10339653491973877, 0.1387142390012741, 0.12442628298329508, 0.09696964919567108, -0.04840044130848677, 1.654005544542084, 0.07097808625198328, -0.9948756020605535, 0.25891106537346914], [-0.0648832100074822, 0.130506674948859, -0.14722871780395508, -0.07935447245836258, -0.2601614153215115, -0.15125147998332977, 0.25981978981873477, 0.11265088617801666, -0.15724295790396386, 0.17818494528589723, 0.18950588715087735, 0.006604806554884171, 0.38494317777856274, -0.15919700264930725, 0.20268877065824242, 0.14685171377914244, 0.028711039429784025, 0.19525826706911395, 0.15797387389640524, 0.12800682783824033, -0.07221178710460663, -0.053191572427749634, 0.19890903682028008, 0.2206176982657677, -0.5457893781878832, -0.16481748964943824, -0.09057269246009193, -0.17582397536425518, 0.12126470264140349], [-0.7583613869230497, -0.05134022235870361, -0.04570050537586212, 0.002379283308982849, -0.14203056693077087, 0.16981162130832672, -0.04369434714317322, 0.03701424598693848, -0.6001563684253001, -0.012232914566993713, 0.02382025122642517, -0.014977291226387024, -0.010953813791275024, -0.032014399766922, -0.16756467521190643, 0.056883156299591064, 0.007627233862876892, 0.015371665358543396, 0.014189794659614563, -0.02597878873348236, -0.13152773678302765, -0.039932429790496826, -0.1725275069475174, 0.16610150039196014, -0.8190313680124904, -0.7267413935988923, -0.04152505099773407, -0.9187305562155857, 0.09298025071620941]], "layers.2.bias": [-0.7520963339615349, -0.14434827210049256, 2.789318055529271, -0.15137750602224997, -0.8593973726853872, -0.32361907518543154, -0.8755408573142109, -0.8409242535590682, -0.207787019013922, -0.10787821499890143, -0.011568620800971985, -1.5191548231000056, -1.2992304916836215, 0.17994491880314603, -0.8490789146867381], "layers.4.weight": [[-0.1780586838722229, -0.027180969715118408, -0.24226462841033936, -0.20049509406089783, -0.09177033603191376, -0.23877350986003876, -0.07526500523090363, 0.18460333347320557, -0.11300171911716461, 0.22652888298034668, 0.2415378987789154, -0.916754079247056, -0.40679013206240355, -0.44542845219407784, -0.15846684575080872], [-0.05549399554729462, 0.08646905422210693, -0.205729678273201, -0.24192820489406586, -0.08320480585098267, -0.07869485020637512, -0.011008024215698242, -0.23852980136871338, -0.13966552913188934, 0.09864750504493713, -0.029237300157546997, -0.8159366918605618, -0.44983071948519004, -0.8915354007698137, 0.13328123092651367], [-0.5594146636616966, 0.0492154582315461, 0.005851882329380272, 0.23742093533143, 0.8801467867462819, 0.31951537433194105, -0.6342644097665537, -0.9291322088962818, 0.07209250575625974, 0.3861890878182963, 0.2289937436580658, -1.0085784267334277, -1.3906895121525065, 0.04868012932222411, 0.8295249176277169], [0.21308887004852295, -0.061517655988316156, -0.04516268327499551, 0.09852302405809286, 0.14731401205062866, 0.016188399989635307, -0.08335965871810913, 0.06272232532501221, -0.2443880663161562, -0.3542255313769206, -0.0663084089756012, -0.09639909564731802, -0.6064639855111249, -0.21201614767342036, 0.2287428379058838], [-0.151060089468956, -0.08907003700733185, -0.23278023302555084, 0.18501809239387512, 0.1875230371952057, -0.14757123589515686, 0.004091382026672363, -0.22742077708244324, -0.13581138849258423, 0.09624844789505005, -0.12366054952144623, -0.07530172169208527, -0.2546018064022064, -0.04326152801513672, 0.10962378978729248], [0.13849413394927979, -0.08906575633345608, -0.4393683776918121, 0.08923165116609508, -0.23795409500598907, -0.0819719082002064, 0.24033603072166443, -0.07798124849796295, -0.0680157961695921, 0.09914425548515837, -0.21023988723754883, -0.12002602001088755, -0.2982449220568611, -0.16779195894119522, -0.07638280093669891], [0.2430238425731659, -0.25579169392585754, -0.012098059058189392, -0.18699099123477936, 0.1965104043483734, -0.10630691051483154, -0.11838795244693756, 0.24857422709465027, -0.24394096434116364, -0.19320470094680786, -0.22551022469997406, -0.604594143926522, -0.37610415834664895, -0.1317148506641388, 0.24250951409339905], [-0.5213404397497353, 0.0125916293386315, 0.09100331666948346, 0.3189986294594507, 0.6913737183881252, 0.13791701764569209, -0.6314996855716313, -1.06376545968014, -0.093319485366078, 0.1072283642164411, 0.18777617812156677, -0.18437592645270326, -4.769210738508725, -0.04497411259389009, 0.5615584957347618], [-0.09166556596755981, -0.08760359722139133, -0.23169031034741933, -0.18334653196338951, 0.07764285802841187, 0.05623575013825721, -0.14485040307044983, 0.05282628536224365, -0.08185770010286351, 0.02564250718894217, 0.2003021240234375, -0.05854559718340656, -0.19840535236883403, -0.24859541135419366, -0.20607388019561768], [-0.6831759527205555, 0.36519495986872935, -1.1828381282995162, 0.12526984165646463, 0.7953561041666013, 0.23938765528551656, -0.5711775814842058, -1.020861313514377, 0.37311248046502865, 0.020818872599498116, 0.05163544416427612, -0.890176500337283, -0.07894852970829176, -0.11016252300826006, 0.5116301120165037], [-0.2007601410150528, -0.2512728273868561, 0.04425057768821716, 0.06437203288078308, -0.11846259236335754, 0.17993736267089844, -0.22993166744709015, -0.10755927860736847, -0.15728679299354553, 0.07512274384498596, -0.16270746290683746, -0.8552345798740784, -0.42129521442538376, 1.029177084402871, -0.11482055485248566], [-0.422681848334875, 0.15895199719510322, -1.5667494140718927, 0.3573619078819055, 0.4483656779587441, 0.17815814810822544, -0.31256592576860304, -1.0678002819469161, -0.07175687841972288, 0.31069376493320155, -0.204708069562912, -0.6166802022542435, -2.707349487280185, 0.3211890443144044, 0.6166503964828021], [-0.6941040759961947, -0.04758868039709434, -0.08928785214519068, 0.2674206978131599, 0.5987736374469772, -0.013189981266905553, -0.4178334350584904, -0.6965069948641613, 0.37262014733055404, 0.06429906416803874, -0.20133723318576813, -0.33982699988193427, -1.5667829615229647, 0.031342470438924984, 0.6019770787763726], [-0.46074087015495535, 0.3915224962233978, -0.25364487419069814, -0.022599016779452703, 0.4664835892751739, 0.3811208696692744, -0.6393232723324079, -0.8308769150051055, 0.1316312607979396, 0.051084683661861065, 0.019440054893493652, 0.568737525463516, 0.5152044201130239, -0.012335905460839118, 0.9000339374065746], [-0.009395167231559753, 0.05339852540557056, -0.1663722393386483, 0.043825342903190796, -0.1986396312713623, -0.2244647669938918, -0.19998005032539368, -0.07682275772094727, 0.0178519680768955, -0.15607920671673173, 0.18659958243370056, 0.007680163925187715, -0.6150136316878426, -0.30813374310028246, -0.22608208656311035]], "layers.4.bias": [-0.7777542298344087, -0.7186855779443766, 0.6326650874710198, -0.19040496891468559, -0.09641554951667786, 0.0011954926743605425, -0.33422823486740505, 1.528512278629101, -0.3949486967195266, 0.14568367134486349, -0.7240142668263896, 1.2792212776114757, 1.9899879800718325, 0.9328205877755198, -0.26766176835125605], "layers.6.weight": [[0.45079031121839047, 0.5734427519023991, 0.040992636017546616, -0.03211052392039503, -0.006099790334701538, 0.1301283736897757, 0.1706663054914399, -0.08648127495726383, 0.13612868845173512, -0.08282941794842456, 0.6908187699860759, 0.757672656916654, 0.09525252046243081, 0.44546411596509594, 0.0489811122676935]], "layers.6.bias": [2.192580759432962]}