{"layers.0.weight": [[-0.10064179179555771, 0.1444027884271993, -0.031062776579168914, 0.06221447620168334, -0.029397022007326898, 0.2915621420180412, -0.011772588163165005, 0.11930723481256195, -0.03375807621781794, 0.28408884880210794, 0.14067944723489198, 0.05357643293447728, 0.33322247829936424, 0.29505995324696954, 0.27111131764179874, -0.010208167719020573, 0.07152811927996867, 0.1121101256917018, 0.3032799362840836, 0.26248240441192366, 0.020793151810242647, 0.28607883817797863, 0.28323864650854674, 0.09387488581569935, 0.2474033508295971, -0.02516935730601534, -0.08106437332725698, -0.19387418853358304, 0.02412081912407014], [-0.13460605821722724, 0.2203599854944586, 0.20875309358866612, 0.0670943362180872, 0.10222459865115816, 0.30734964586739644, 0.04473565551645721, 0.15180773982991197, 0.07270010788078067, -0.011819851360491752, 0.14517043737646732, 0.02039847308862317, 0.25904194343054543, 0.12927656129669535, 0.3319250604665605, 0.03545250475961968, 0.17424342402869827, 0.012209416981033623, 0.1531093708467329, 0.1476432183930819, 0.2571741914238231, 0.06840202271728277, 0.2315465819311737, 0.26861712959224077, 0.1046440430262158, -0.07588743010689056, -0.0014549883909682508, -0.23447275369246381, -0.28859040983806544], [2.015463545740149, 5.407595979968274, 2.8158133147128637, 1.3471309179940583, -2.710804694086233, -3.1956960573514728, -2.374085187404607, 1.5395222697800153, 0.04026320018469216, 1.3854656210132195, 1.6911863024181188, -2.0290553758653527, -1.5855398346240623, -9.063547226158478, 0.8654392763600239, -5.352106545645899, 1.8899918938589204, 6.593114996532489, -0.2951623999050186, -1.1865487097943122, 0.09031647396218528, 1.2264109763902669, 1.286519926505959, 1.4676978530038363, -0.12722669129830555, -6.0562696684039485, -5.753982377666822, -5.527642720203452, -5.378627769580402], [-0.09400592421002471, 0.2403152871669793, 0.27141402592231667, 0.17628523443252003, 0.24594586512436475, 0.12656647403184912, -0.018755774731293685, 0.2525070693434898, 0.09371804750964546, 0.21667151976289567, 0.15021647366837226, 0.2493902087771206, 0.08921865273621554, 0.014850486880495383, 0.05883813017682125, 0.11706300770737427, 0.2695855599853122, 0.23182771356772544, 0.10634120572185737, 0.1771659960996909, 0.22553660347486723, 0.07460800718218692, -0.05411880063875422, 0.005530323379019596, -0.024712186066611155, -0.02412906280229019, -0.2148550130708737, 0.009367817554022512, -0.06276240208693265], [-0.02063395082950592, 0.1061362475156784, 0.035429924726486206, 0.12001220881938934, 0.15171892940998077, -0.0036221444606781006, 0.14212565124034882, 0.059949472546577454, 0.1351001113653183, -0.17848172783851624, -0.17484605312347412, -0.007082074880599976, -0.15208962559700012, 0.1836175173521042, 0.10072819888591766, -0.022759318351745605, 0.14828993380069733, 0.008229047060012817, 0.04675769805908203, 0.15263573825359344, -0.06044617295265198, -0.10845246911048889, 0.013198375701904297, 0.12270908057689667, 0.04935918748378754, 0.14679260551929474, -0.16035325825214386, -0.18014447391033173, -0.14900647103786469], [0.31123019707390165, -9.920532979207549, 0.6490468067568304, -5.5054055028818984, 0.2810447873500065, 1.106988459158442, -0.4906524961263933, -0.9241583558252359, 0.4206312836929622, -1.2350105726473894, -1.6262492715543566, 7.56460512104429, 0.26669094208790056, 2.2279876583295612, 1.7419895673803043, 3.480227729959483, 0.30406794332669196, -2.626217832483296, 3.1291876850727567, 0.12230702037109173, 1.7646178054992843, -0.3835826253124805, -2.7593457214845065, 3.0759473010741236, -0.7570453016686758, -0.9167240367223276, -0.8800015163820004, -0.8553678428129875, -0.8430026342749919], [-0.11303991079330444, -0.11290440708398819, -0.12540672719478607, -0.01599523425102234, 0.08054257929325104, 0.11172516644001007, 0.03578716516494751, -0.13784252107143402, -0.04324428737163544, 0.1488574594259262, -0.13151177763938904, -0.08279521018266678, 0.12329436838626862, 0.10063542425632477, -0.08858267217874527, -0.12240537256002426, 0.1541510969400406, 0.165914848446846, 0.16702841222286224, 0.10860998928546906, 0.021540582180023193, 0.1318277269601822, 0.13404534757137299, 0.16632123291492462, -0.10145869851112366, 0.1778310388326645, -0.1616443693637848, 0.11035336554050446, 0.051349252462387085], [-0.08561234176158905, 0.15289224684238434, -0.1222810372710228, -0.12775887548923492, -0.05749276280403137, -0.03628471493721008, 0.059612780809402466, 0.08860988914966583, 0.08289538323879242, 0.03308100998401642, 0.04851025342941284, 0.11429671943187714, 0.14035426080226898, 0.09819112718105316, 0.05473090708255768, 0.1035047322511673, -0.134145125746727, 0.18188725411891937, -0.139699786901474, 0.03602571785449982, 0.15516729652881622, -0.10130684077739716, 0.17163707315921783, 0.07886235415935516, 0.06798584759235382, 0.034990668296813965, 0.09576345980167389, 0.04006469249725342, -0.13281531631946564], [7.634770176032159, 1.9997304690297355, -0.5147373608700999, 1.8328484222970538, 0.20312453539262185, 0.05342220186949492, 0.5811309887982908, 0.11851736081571808, 0.14133631024148852, -0.005396472440159487, 0.8080917318759336, 0.40427599196426517, -0.1711359041705994, 1.419257083094893, -0.26479315580623947, -0.3811978079330602, 0.5957046934058694, -0.23915730407547425, 0.11907873001438624, -0.16889459357025655, -0.1837316752045811, 0.8732790442085839, 0.00039925650948653647, -0.2491681858319531, 0.21556513976784106, -7.458741885943961, -7.318805072349327, -7.29882665828189, -7.182462366471972], [0.015267381164134713, 0.13057866724993952, 0.18737489876164504, 0.1297977490555533, 0.23297613133314057, 0.19434325762592836, 0.2490083403682283, 0.10574616946421363, 0.29878776064060497, 0.025771040790614774, 0.17727234554402693, 0.13506256065501254, -0.050805213144474295, 0.05007872506298156, 0.2916021330306048, 0.2820833243842134, 0.3052182263861409, 0.14169030209939262, 0.0640882084452109, 0.16218963926492055, 0.2991140214644612, -0.01004886545163269, 0.08302756307517468, 0.15765643688934974, 0.09008153447427937, -0.061569842866985205, -0.09928798233419855, 0.004908966342201084, -0.18054537508181595], [-0.0775711145061515, 0.2512262008636256, 0.12828434448041667, 0.3442389389011913, 0.20252715719372838, 0.33103866411962884, -0.008439945568483905, 0.15654378556013593, 0.008530987996838761, 0.04697137944375902, -0.014782944715107951, 0.08658095608480225, 0.27375775845496075, 0.11643537395628618, 0.24016149833937842, 0.13289183787635186, 0.17496345315058434, -0.021799082701402423, 0.29178218870767697, 0.07860328323317205, 0.3083020178516733, 0.16317435302625197, 0.29175492321792534, 0.0700514439280185, 0.2584012562862354, -0.06978774672793236, -0.29361345468212924, -0.2326445195572755, -0.1820755936073973], [-0.05558974529894776, 0.29663567957625814, 0.02714550698054323, 0.16184276448830562, 0.1267537028347707, 0.08278853253286243, 0.10341707826026507, 0.25967275715826316, 0.021795934415315986, 0.21249066930654764, 0.22273772367396213, 0.28614760316616467, 0.11013203692567881, 0.13420749588432676, 0.191519531484259, 0.33273592082926173, 0.06653205595008023, 0.22012717036028231, 0.2060436995908729, 0.3034292444820836, 0.2334282976311148, 0.1015035056544802, 0.22653595719199401, -0.03530915700672733, 0.06410635243636276, -0.27593886803201967, -0.21791512447646183, -0.0924874513782199, -0.0024817851607611286], [-0.11563065089142834, 0.2533238736438592, 0.1081169781667135, 0.25615612963171647, 0.238724223297284, -0.03512188658936502, -0.0017093982415858926, 0.06313785176286028, 0.12989639422869154, 0.22523804241943213, 0.09872802019431214, 0.18538017000698176, 0.17973236926699082, 0.10076026365502501, 0.0056857056531557865, 0.04950343893940162, 0.3028680204730537, 0.05428551360288399, 0.2712641111178129, 0.014783016275144327, 0.25826770490078066, -0.003237318053986291, 0.2828634024596014, 0.22652462645194482, 0.18895402363856104, -0.280422866884868, -0.04129498748096848, -0.3071454108191104, 0.31288776256031653], [-0.09293793886899948, -0.0009771734476089478, -0.13120700418949127, 0.01414276659488678, -0.10933505743741989, -0.029017597436904907, 0.16217167675495148, 0.15695415437221527, 0.050519928336143494, 0.1655815988779068, 0.13784228265285492, -0.16419664025306702, 0.18098177015781403, -0.02014218270778656, -0.0349901020526886, 0.04280352592468262, -0.1289752572774887, -0.0018423795700073242, 0.009695306420326233, 0.04129156470298767, 0.10399837791919708, 0.06459499895572662, 0.07179830968379974, -0.06280218064785004, -0.12036807835102081, -0.10396932065486908, -0.134334996342659, 0.08655275404453278, 0.09908027946949005], [-0.23808135809831193, 0.27548875196912503, 0.28460131745750517, 0.12077678433165039, 0.13668014111105684, 0.12519052407720488, 0.12459221500187372, 0.2406715276553423, 0.0646186629562191, 0.15911510692152667, 0.35140788923816935, 0.224904819327831, 0.13951968656344263, 0.09289739655868372, 0.09692472357848443, 0.09427676354529246, 0.38353674289622436, 0.11053268200531842, 0.16374095494702837, 0.16163062819667648, 0.125712968530961, 0.19333263763758593, 0.25375060081939715, 0.11656178481802723, 0.23397602605838888, -0.27616028441503215, -0.061493121228442284, -0.31230309538520346, -0.07463319688527921], [-0.0943829064575045, 0.21560485209371755, 0.24192926868083464, 0.32055076499985846, 0.17073508430865805, 0.1978015024429138, 0.06290313115379736, 0.2599143590093723, 0.20614649757796485, 0.053866074031115145, 0.3300332328829644, 0.18078119169975793, 0.26144934351784227, 0.06462430373008249, -0.03203485766737092, 0.3200837009083646, 0.1186392653140429, -0.010115371566877529, 0.04804133972571575, 0.09097588538869804, 0.27762626481393643, 0.05958745766566032, 0.12786417486320376, 0.2009359707182225, 0.026227942840491677, -0.11592577275091734, -0.2435595199371716, -0.0989909765129099, -0.04899085283032059], [-0.11791797661418767, 0.05626027242500499, 0.05727860468984072, 0.1627731254334257, 0.17045618522644213, 0.24206860179701734, 0.12125062126783907, 0.30384072369274556, 0.1850289865166912, 0.1893005076195268, 0.003167537252494233, 0.11703182066366821, 0.2552055638905978, 0.04493954386456493, 0.0012383335987270247, 0.0330860208943524, 0.31738728581346737, 0.09650527719891955, 0.25966690087763633, 0.2103217263638488, 0.1038030225667572, 0.2444499722837357, 0.19921058940181874, 0.22108740935654417, 0.1435124132518414, -0.3206541256011324, -0.37124874410540837, -0.2533598922271693, -0.281979557331662], [-3.5533191146458414, 0.058551423871444526, -0.428726126091553, -0.019609985124216373, 0.7290100247765419, 0.06862010236589683, 0.025249923141911552, -0.35726450151451, -0.0911002917762141, -0.27478236013839386, 1.638533221553036, -0.7196938852593667, -0.6712194970604914, 0.11993432588057273, 0.46309907490276947, 0.5804954484328388, -1.163179490687549, 0.49406446165594897, -0.09755736636179907, 0.5503144914025931, 0.15314241695703096, 0.6259563264512373, -0.9112372435142673, 0.9519270076678115, 0.47144623355465365, 12.097607979937948, 11.170687060330804, 10.44284453453978, 9.89065034497308], [-0.20275570454738615, 0.12784587205998268, -0.02793125538705313, 0.15536979018466907, 0.2637060623407766, 0.3358033713896642, 0.0994782726281491, 0.058307687263169754, 0.19182895904343025, 0.24237030363456494, -0.008285862258141779, 0.0006996000394504623, 0.2047914720264562, -0.01309280667154291, 0.14229928903196126, 0.007096671040437725, 0.2886006022212924, 0.1627562054887731, 0.2776184378039733, 0.2765630429721199, 0.047974384943569676, 0.25016241838502057, 0.24018231313134558, 0.17999573557613247, -0.00873461512582657, -0.030252355830561132, -0.010765539856019227, -0.2782742455159951, -0.19666496434803782], [-0.09551528191865767, 0.15338222442565666, -0.07604928966584037, 0.2456181526910912, 0.2082146610583417, 0.14030769787832378, 0.216857809587611, 0.21053683753926736, 0.2117152771991351, 0.03160776543615657, 0.2264361878197461, 0.17061101628888625, 0.040572399448262506, 0.1002006584088875, 0.05553625822161472, 0.015172256091715202, 0.2720906725775389, 0.02210714150777279, 0.12552016407337893, 0.07797755831787656, 0.014393628276635859, 0.1677119580295919, 0.041333710696924104, 0.1031815711596035, 0.264261455612849, -0.018821054099211212, -0.0944521944840584, -0.14924670519209393, -0.13842321175269026], [-0.14167386293411255, 0.1585136204957962, 0.14814989268779755, 0.1372774988412857, 0.09404845535755157, 0.002624213695526123, 0.06266172230243683, 0.016341879963874817, -0.09139534831047058, -0.010111674666404724, 0.11983959376811981, 0.1099437028169632, -0.12816771864891052, -0.1350494772195816, -0.05809861421585083, 0.11137290298938751, -0.08202875405550003, 0.1256544440984726, -0.16637305915355682, 0.12314735352993011, 0.09590522944927216, 0.013055577874183655, 0.0398411750793457, 0.18141697347164154, -0.08496171981096268, 0.11095510423183441, -0.06251239031553268, -0.17449843883514404, -0.16804353892803192], [-0.14798773933483783, 0.29303700986407377, -0.012606373680882766, 0.3317348476686152, 0.2810103911101378, 0.026525858239862827, 0.10617918020089832, 0.328185659549898, 0.24769723635725166, 0.32997906352811096, 0.008269836532122106, 0.12142107390969878, 0.006482228647513895, 0.16929736165409423, 0.33108148545243105, 0.1850352469184331, 0.18733875789170581, 0.3047981991283214, -0.006138196051471409, 0.01659431813326909, 0.2347930109553957, -0.020836861278400388, -0.028277386753508226, 0.30376775492557295, 0.09240118774092057, -0.0223096486756011, -0.07224160598822633, -0.07902602451283529, -0.12230099361722428], [-0.057258084416389465, 0.0938856452703476, 0.13991762697696686, -0.14304602146148682, 0.031092047691345215, -0.15693923830986023, -0.14515292644500732, -0.06253835558891296, 0.12763233482837677, 0.16925393044948578, -0.12870624661445618, 0.00848226249217987, 0.046495407819747925, 0.17449362576007843, -0.13639090955257416, 0.0796436220407486, -0.09818436205387115, 0.07371298968791962, 0.021339893341064453, 0.11960594356060028, 0.17956112325191498, 0.1171799749135971, 0.04972684383392334, 0.005160301923751831, -0.03476019203662872, -0.08270398527383804, -0.1112029030919075, -0.17403924465179443, 0.03140799701213837], [-0.20245970461110321, 0.22837920043355076, -0.018654279584395438, 0.024324183734921824, 0.21571408229337116, 0.03864990074462951, 0.218008576832044, 0.06494599708233642, 0.3268034184389392, 0.33198162762777506, 0.30207859006303767, 0.004583864903895716, 0.09540106748454731, 0.12378859966430357, 0.12276576183708329, 0.2894753234873086, 0.09403342554704361, 0.06695864528459006, 0.32903824399498177, 0.07968528110760977, 0.10365065184731641, -0.020755924224111773, 0.26754771290260687, 0.1968480264691072, 0.13957989346948482, 0.002263396978378296, 0.12117357552051544, -0.043691513277462256, 0.02655668556690216], [-0.1711947519534738, 0.1549102409381487, 0.17382972721418383, 0.28391559346044676, 0.14091737820537908, 0.28019387093266285, 0.22422214002067337, 0.14787344433249838, 0.3060783082421865, 0.21950544500067992, 0.21917494065610815, 0.1953904150557359, -0.019945465804595094, 0.16531293497247185, 0.26916059687778704, 0.020892431970603694, 0.23265798268857818, 0.13185405823454638, 0.04189395787831277, 0.3282559324648736, 0.11422968882062864, 0.24940442692054812, 0.18043337801366985, 0.298559857770152, -0.02914724314149913, -0.015482917428016663, 0.0828363448381424, -0.018374766240083825, -0.08192907273769379], [-0.23871073420643021, -0.020015862782135845, 0.12436342463890813, 0.3281942502693616, 0.22531815507520536, 0.3350498304216496, 0.20494612702486012, -0.022492423303168523, 0.13697072004093278, -0.01187301005544829, -0.009031031751164416, 0.04365602547190441, 0.2764891549174956, 0.1680812760056711, 0.2596079326354736, -0.03220721146365866, 0.1476076498333042, 0.04575533771064127, 0.1549601733693209, 0.07366186819652575, 0.15697458048725796, 0.024583190088006662, 0.23630301443134064, 0.11662978341740629, 0.19391200055484678, 0.008862470836829452, -0.005381334967817765, -0.32741658472311513, -0.10437215931601587], [2.3702934138333798, 3.7504550238807894, 0.5693026764207255, 1.138663493880932, 0.24293341701119983, -0.35863132949192816, -0.0011588660690747654, -0.6601554366423908, 0.24055306633258255, 2.266361418399821, 3.155742750913895, 0.4831672251493876, 0.06660391363289565, -1.920366149352314, -0.15307013649879966, -1.0089807257497658, -0.03854259103494703, 1.0276027601912028, -0.005523440615745714, -0.786508840414307, -1.872836436832421, 3.9628211361858487, 4.573463383843987, -3.3715570779550714, -0.5256045326253546, 9.332658244363254, 8.259316061271804, 7.845602373820627, 7.547613550386277], [-0.0622002833988857, 0.3015688282127124, -0.023879775579851333, 0.0819586148356616, 0.25665766021303354, 0.2767021753016229, 0.20889027259182857, 0.17699169232225664, 0.2734016705201424, 0.2120181335043728, 0.25234888722989196, 0.050463179530652, 0.29524740004051836, 0.2875294698800145, -0.022035994042905467, 0.19415047973997154, 0.08788326684788103, 0.21133998932509915, 0.2880515784998957, 0.11326089630557609, 0.14752475523407751, 0.026816991808541576, 0.1218018443552178, 0.1559926691590322, 0.07838169965140176, -0.25022989568777243, -0.061970358742640376, -0.3134178035529492, -0.14781901581865356], [2.399282083379267, 2.039295283050921, 0.2675667406811303, 2.5226577645424815, 0.16531168848615188, 0.3808802960702835, 0.345237153709717, 2.681528827109096, -0.5288766642147815, -4.994799752104244, -3.5348315953260148, 0.3855599531687446, 1.6178027054167405, 2.3318853540463667, 0.32022697647600795, -0.7144834615480318, -1.244437935169232, 0.9096682636764722, 1.1518901338189245, 2.26386363923685, 2.5023481031987767, -4.98191072590606, -6.615252825841918, 2.0938157137710025, -0.2669612171779314, -5.688506935750658, -5.320148343935928, -5.0935663491784915, -4.90836161393945]], "layers.0.bias": [-0.25211177171806287, -0.14118729037898897, -5.900548065672779, -0.09232386221870083, -0.1555863618850708, -0.7170689844197939, -0.1654849648475647, 0.13022927939891815, -7.690244345821763, -0.28823954234638405, 0.017554215662483143, -0.25513988773496293, -0.18990859372248506, 0.007436662912368774, -0.22229265132475864, -0.10865270598145167, -0.21417198940859786, 12.889044404095442, -0.14512660157585394, 0.07291090841942319, -0.02928866446018219, -0.08085463379136955, 0.14630581438541412, -0.3001944992317469, -0.1126010967588063, -0.2893870940145548, 9.37724924917222, -0.07381499568011504, -5.595017945186609], "layers.2.weight": [[0.30080217305712287, 0.162355380939522, -0.10902841535908482, -0.09824714331129382, 0.1630745679140091, -0.031283112118179, -0.006043687462806702, -0.07837395370006561, -0.14865074804692185, -0.2017979720819962, 0.11714925864461799, 0.29982055961494297, 0.32900222596727785, -0.03249654173851013, 0.058330737607244845, 0.3055283743732809, 0.22682537748996637, -0.07398247331278789, -0.0032820139411149107, -0.14523039486177333, 0.12504340708255768, 0.20678378118878865, 0.023165732622146606, 0.02399270236492157, 0.08383457362651825, 0.32550096381664845, -0.16983732731647613, 0.025571369630350855, -0.27335465153639477], [0.0292733773801922, 0.2889020482928453, -0.4215473517082095, 0.22270389397517376, 0.13364548981189728, -0.8014004803536092, 0.028521910309791565, 0.11087124049663544, -2.5085902518855794, 0.19319332516622376, -0.01827529614140753, 0.0802957225419337, 0.3091447727882897, -0.12894490361213684, 0.2028105860949823, 0.14847337056342047, 0.11346365762605758, -11.200161804924731, -0.020443241270842894, -0.026609733486833632, 0.17965419590473175, 0.13572700433587562, -0.021705716848373413, -0.07724417522661813, 0.12167517840862274, 0.030400949712801616, -0.4546873547163078, 0.23594746238204026, -2.1490918585254613], [-0.08895336376211586, -0.03405587989536276, -0.3318446965419078, -0.22764306278181573, 0.009954988956451416, -0.16257288562713343, 0.038624510169029236, 0.1382133811712265, -0.17346608327639165, -0.003822493215887041, -0.06610202275402113, -0.029820787689971213, -0.10175997282674713, -0.034136801958084106, -0.09125549166146099, -0.07421460265890883, -0.25898182947530196, -0.11629906789798637, -0.15461534479591657, -0.2260094327815469, -0.013326555490493774, 0.013925635053673504, 0.1445866972208023, -0.153767392039299, -5.2439248672296876e-05, -0.18320692705792185, -0.054939694095867006, 0.023975272392822468, -0.19921234980278937], [0.14609764516353607, -0.17776337265968323, 0.04027597469502887, 0.03542142401734894, 0.025729209184646606, -0.20254699570600965, -0.10949548333883286, 0.17877773940563202, -0.2326083870493847, 0.016521864138273574, -0.1372493029703541, -0.12671014666557312, 0.1622728854417801, 0.15291975438594818, -0.3172517822233979, 0.0058844685554504395, -0.2879359972401799, -0.1877570876918974, 0.11559818685054779, -0.007362812628075475, 0.06390081346035004, 0.09007193148136139, -0.0005654990673065186, -0.006792396306991577, -0.027480080723762512, -0.1504840850830078, -0.1306532329379754, -0.022595837712287903, -0.14378669931640606], [0.035263270139694214, -0.13431954383850098, -0.14829372232750854, -0.017911330355670732, 0.0010169148445129395, -0.08866791566662782, 0.05965252220630646, 0.0003257840871810913, -0.2190853097091134, -0.036777122940090674, -0.27145053777113026, 0.15828032791614532, -0.038898006081581116, -0.14426061511039734, -0.3002387769164909, 0.1159239262342453, -0.2451566865453301, -0.0060130824845347755, 0.16530926525592804, -0.09402942220063176, 0.05180741846561432, -0.1618860810995102, -0.029574289917945862, -0.03623288869857788, -0.17282991111278534, -0.08765143156051636, -0.26104551880359617, -0.01350855827331543, 0.0031184669503325074], [0.06515484941838823, 0.07120295749482553, 0.14942530260247375, 0.25366359839488956, -0.04000592231750488, 0.4708379933807406, -0.1494598388671875, 0.09573321044445038, 0.7713187241334427, 0.35109319873602174, -0.014816259440423757, 0.15751924783561325, 0.08466526544569665, 0.047325968742370605, 0.052388758067205006, 0.03590747058943495, 0.026173358807275237, 0.11129392122230782, 0.13372401120271504, -0.15348109841760077, -0.09617070108652115, 0.04254879239704832, -0.16679467260837555, 0.033436058204731355, 0.11813132057089044, 0.07730660967703559, 0.6811766026407624, 0.09313872927444149, 0.48279122237342403], [0.22164503449450204, 0.20601071171523536, -0.37955995020817246, -0.2550264982373001, 0.00784999132156372, -0.1445879247154871, 0.10436181724071503, -0.016711130738258362, -1.274877493529261, -0.13545292908911594, 0.06569886010453702, 0.3057642711289711, 0.07431361512479072, 0.17154471576213837, 0.2411554475102989, 0.3079555696005273, 0.08794416326930067, -2.2651377419671594, 0.1123739865414375, -0.04130220328917955, -0.11500176787376404, 0.2190790914384463, -0.15831509232521057, 0.04820120334625244, -0.055926308035850525, -0.002615977401946989, 0.9205574419512998, 0.28708085050522414, 0.4472629222544527], [0.08502499759197235, -0.08167937397956848, -0.8199091725010177, 0.1737959235906601, 0.10275863111019135, -0.5258588346572662, -0.11915264278650284, 0.08156086504459381, -0.822508902778562, -0.06925668567419052, -0.14172884821891785, -0.1610592156648636, -0.14203990995883942, -0.17199985682964325, 0.07622472941875458, -0.07634790241718292, -0.17341993749141693, -0.546927365200536, 0.1844407171010971, -0.03887622058391571, -0.02640289068222046, -0.04146401584148407, -0.10273044556379318, -0.08495054394006729, -0.1436576545238495, 0.04628998041152954, -0.7452084857903366, 0.002560526132583618, -0.14397147297859192], [-0.05625253915786743, 0.14438526332378387, -0.11289356781775113, -0.058837443590164185, -0.16899405419826508, -0.3286047382062171, 0.13541428744792938, 0.09339733421802521, -0.2325835505591851, -0.1676856279373169, -0.15864095091819763, 0.09686215221881866, -0.10437411069869995, 0.17734239995479584, -0.10021765530109406, -0.03922921419143677, -0.026406899094581604, -0.21099552326516452, 0.006999567151069641, 0.09989826381206512, 0.03690174221992493, 0.06430366635322571, 0.12598837912082672, 0.10808442533016205, 0.10192222893238068, -0.019491881132125854, -0.2733655973556161, -0.06610075384378433, -0.3606238047422816], [-0.11969755589962006, -0.12435835599899292, 0.22665173781310702, 0.1983982108962968, 0.17539279162883759, -0.16614263049098787, 0.03674072027206421, -0.019980430603027344, -0.49668195375663204, -0.014092253823764715, -0.034037426114082336, -0.03645564615726471, -0.04470084607601166, -0.10707774758338928, -0.04119949897292, 0.006579935550689697, 0.11149953305721283, 0.2071462932696752, 0.03459794819355011, -0.16807446189912173, 0.020500600337982178, 0.05865010619163513, 0.010845407843589783, 0.027048707008361816, 0.02544240653514862, -0.060298457741737366, -0.3323511108563232, -0.039385050535202026, -0.3250664206313988], [-0.3311873718044143, -0.31529415305832476, -0.10787181360528193, -0.057749537539728286, -0.1531451940536499, -0.0280449069603728, -0.006848469376564026, -0.11487434804439545, -0.04397145865196347, 0.018391671599107266, 0.16649435682211866, -0.26785663652395075, -0.16357713023872003, -0.17918150126934052, -0.05718271362034502, -0.13079249294298043, 0.14399475699088704, -0.40971363499937535, 0.01995384206570611, 0.0726921187602611, 0.06936459243297577, -0.06133068510866086, -0.055488958954811096, -0.01611098600811853, -0.09358572234513754, 0.02439842922893872, -0.31696620235820655, -0.14899984456755924, -0.48874242982648575], [-0.10996918380260468, 0.07631833851337433, -0.7297821252991338, 0.13748271763324738, 0.05361694097518921, -0.4517361360228722, -0.03238767385482788, -0.0031872987747192383, -0.5576253914648052, -0.08421636372804642, 0.03542286157608032, -0.08441658318042755, 0.13413436710834503, 0.06362758576869965, -0.17651692032814026, -0.12515011429786682, -0.08221334964036942, -0.6802482756137412, 0.0835905522108078, -0.029354602098464966, -0.08350114524364471, -0.15876714885234833, 0.06143075227737427, -0.017437145113945007, -0.13176174461841583, 0.024383679032325745, -0.7051068281915713, 0.03004951775074005, -0.730142472338052], [0.29385232784371856, 0.12548111379146576, -0.08641809484803284, 0.18529545580935233, -0.028479725122451782, 0.010199993317990817, -0.04672560095787048, -0.16791412234306335, -0.05517880423357555, 0.06882019998275436, 0.02637622852934524, 0.3289700919600424, 0.2834844513923306, -0.09028603881597519, 0.09223292227960765, 0.3049397102343537, 0.12247357758875843, -0.5175298407426749, 0.054075543372726284, 0.039060841363060414, -0.06776035577058792, -0.015084266662597656, 0.18056391179561615, -0.03944595158100128, -0.13203644752502441, 0.11834634840488434, -0.24206915289288275, 0.14997721094086006, -0.3010328617807664], [-0.23911940477482943, -0.050253830704761075, -0.739462468824653, 0.019246984971105618, -0.12114536017179489, -0.033067547255936074, 0.134279265999794, -0.08045900613069534, -0.7300735749870133, 0.07157367324970215, -0.22329317578378424, 0.01200308155949807, -0.05053899446035762, 0.13394983112812042, -0.05883779288242736, -0.22224987109467387, -0.1671277563344018, -0.29401647243661183, -0.017225037741985565, -0.1713595536714057, -0.13267558813095093, -0.290811150332417, -0.10343824326992035, 0.2939329478262938, 0.11802010238170624, -0.2957061285770771, -0.6992116328435646, -0.23500351903529973, -0.7678600749998897], [0.13944652176496708, -0.025054718496617084, 0.6740943065340729, -0.004568713119600149, 0.06697572767734528, 0.1791589057104457, -0.17905306816101074, -0.07136780768632889, 2.689783317251244, 0.016096052226535033, 0.019245745615170586, 0.0990427227917783, 0.04735041556653016, 0.1676892787218094, 0.13808718394529026, 0.00013809006720883155, 0.04535966549482677, -1.7498597553993875, 0.13244507569119862, -0.2277485757029284, -0.12365099787712097, 0.09045888483524323, 0.12310333549976349, -0.09541327506303787, 0.06709255278110504, 0.272175120135766, -2.0628073507897957, -0.15325050055980682, -1.0128088812245166]], "layers.2.bias": [-0.24639617698861238, 2.0637952450196035, -0.023065691388649057, -0.2943542239035948, -0.2373677339735188, -10.091870082174703, 9.376748489085843, -0.7957370227372791, -0.30809350481317765, -1.9772358775406924, -1.302533482340703, -0.4039612005318615, -1.1868181683360417, -1.4959293552522128, -3.4430403617304077], "layers.4.weight": [[-0.022139141540178337, -0.09881787061884782, 0.18324729800224304, -0.10158387951293803, 0.21931180459434996, -0.7373523448321013, -0.9641536156379114, 0.7933565938480253, -0.1579784358527215, -0.17309369671051564, -0.21767507791938617, -0.7032568083471487, -0.1520014432129543, -0.4733309696320647, -0.42798461468769394], [0.17509080487445317, -0.05672471044201928, 0.06280657905122977, -0.01697321126420941, 0.08009880533755534, -1.0871507911623561, -1.0172179439069315, 0.11419004201889038, 0.22837600111961365, -0.27092427787299816, -0.08110163529536546, 0.12247759103775024, -0.1769143647413451, -0.09863724659154365, -0.5949199891476544], [0.007609907788453916, 0.04096023943335829, -0.15247124433517456, -0.17665291399061342, 0.04618089724600722, -0.11733688449183295, -0.3482040289135311, -0.1057274341583252, -0.044585540890693665, -0.007296881906200218, -0.21457275229020698, 0.10637521743774414, 0.0019598419288091922, -0.08234011880801996, -0.4091294631931269], [0.14981865882873535, -0.20676033198833466, -0.23183193802833557, -0.06878605484962463, 0.069475919008255, -0.04485997557640076, -0.09825894236564636, -0.02365952730178833, -0.12709912657737732, 0.18489378690719604, -0.10073880851268768, 0.13366174697875977, -0.014065057039260864, 0.14727699756622314, -0.2498970776796341], [0.0003484130170968904, -0.15096133697874672, -0.1235182702397663, -0.0291018134994893, 0.10147765431486847, -0.11609320841248044, -0.06932550483050698, 0.674162258119157, -0.2824687820068998, -0.40788055027119985, -0.4202077316612631, -0.5942564230506556, -0.28514084682260327, -0.30656587466362806, -0.0010460304225477196], [0.03439167069263093, -0.44109990580910985, -0.02636841791515025, 0.2757659177509147, -0.024504376568223334, -1.312751470971911, -2.1423695825537896, 0.5526586124739439, -0.23545785185668783, 0.011940732194148804, 0.057117504982240726, -0.5474220534748133, 0.17635061683073405, 0.01979641237073036, -0.026789483819212638], [0.049838870763778687, 0.04708184574595222, 0.06501778960227966, 0.15307465195655823, 0.22703847289085388, -0.7290258199443056, -0.4729664120950609, 0.14397916197776794, 0.1553194224834442, 0.110104877268552, -0.12610994084251623, 0.13771715760231018, -0.009040068394820992, -0.03224610081197012, -0.1976392751966098], [0.10819077491760254, -0.16858534514904022, -0.12222984433174133, 0.2216077744960785, -0.018902495503425598, -1.6329954318995945, -1.434994447201061, -0.12854501605033875, -0.08388088643550873, 0.2525310218334198, -0.24277040362358093, -0.1301504522562027, -0.1010427325963974, 0.12101268768310547, -0.08996630444433157], [-0.3998547358027632, 0.012833392860488301, -0.007412867703018952, -0.11849288642406464, -0.25520554184913635, -0.2465063631502413, -0.32009093886036066, -0.062081530690193176, 0.10427960753440857, -0.23551002144813538, -0.01112332828841062, 0.09675201773643494, 0.07492735659251101, 0.02760646376252257, -0.4039378418645741], [-0.034364538277416666, 0.018170332172454545, 0.11700419148864108, -0.06967750899265442, 0.05548921526990254, 0.5467051884214745, -0.2093651162579649, 0.792998502659465, -0.18186779068243822, 0.3517262413247843, -0.007431939875162888, -0.6079799506141244, 0.17492049727153486, -0.23229256509839852, 0.08481503082470357], [0.07455775141716003, -0.136408269405365, 0.17519137263298035, -0.22099106013774872, -0.07852330803871155, -0.19446974617378235, -0.074835434875769, -0.027097463607788086, 0.11867523193359375, 0.045517802238464355, 0.1816912293434143, -0.19310802221298218, -0.13446196913719177, 0.22259849309921265, -0.351209232560287], [-0.039724692702293396, -0.10988076927380568, -0.10299037396907806, 0.24818119406700134, -0.21623851358890533, -0.24066462415854253, -0.11850198151641855, 0.1314646303653717, 0.12412837147712708, -0.3778419788964079, -0.23903168647573364, 0.2168636918067932, -0.07335770449748034, -0.12149015691467534, -0.08515496121574644], [-0.2344745640138617, -0.2672623230001174, 0.04361107756818788, -0.2296769917011261, 0.14995905756950378, -0.2505543166197832, -0.40654711178629244, -0.017694294452667236, -0.12180927395820618, 0.024332046508789062, -0.3439647463538626, 0.03019273281097412, -0.39453539617979727, -0.02239511263378559, -0.14901114961471082], [0.16265347599983215, -0.2370212250389701, -0.25642889738082886, 0.03815886378288269, 0.13751059770584106, -1.2436141687609388, -0.7812537390806231, -0.243122860789299, -0.1315796673297882, 0.06152266263961792, -0.16009081900119781, 0.23600968718528748, -0.2226247787475586, -0.06163740158081055, -0.49149421872334254], [0.3801786665908015, 0.015497971304830011, 0.15211758292811042, 0.1761030685243303, -0.008646960430667662, -0.18119729669354673, -0.31620106313292895, 0.5205194974243849, -0.24688773996395563, -0.366986333677046, 0.06818655407680031, -0.3925659986734559, -0.15151280094692263, -0.09623267694266568, -0.11163999977561426]], "layers.4.bias": [-1.032016741335392, -0.7821634968409154, -0.3138000567833424, -0.2033548653125763, -0.002363387856162813, -1.3830803080422487, -0.5581399129362947, -1.596055160732068, -0.11480114168176826, -0.22493844076387892, -0.21125727377905731, -0.33214943999033697, 0.023580192945885432, -1.073651927895365, 0.10556484363322213], "layers.6.weight": [[0.7735615908450791, -0.6717218472795949, 0.015560708315372141, -0.17437100410461426, 0.033691836900063665, -0.004138628509361855, 0.2591353960772054, -0.11403096806933181, -0.08963021714041886, 0.33763513074603874, 0.36772141738539627, -0.03695971771722916, 0.04801361284663532, -0.4046687216487646, -0.03795742815133503]], "layers.6.bias": [2.637743887066368]}