{"layers.0.weight": [[3.6952085131574215, 1.828655026547805, 0.008476331386482154, 0.4857079022665003, 0.31663504346338894, 0.019630927216297604, 0.2289528835034921, 0.05066631972861898, -0.11282042595120907, 0.10078321227461605, 0.5431237666749777, -0.03325819320811065, -0.5432904902941198, -0.14064606727773335, 0.031186165906960602, -0.23869743028232546, 0.026268869852929023, 0.22216835657715908, -0.024714073008076126, 0.02348376870519972, 0.25343912052930767, 0.045687516494222896, -0.25769713339502603, 0.1149134378367413, 0.29967737415787765, -4.028557409095935, -3.8436001710322576, -3.7826709487015497, -3.74911672623291], [-0.05408885997223975, 0.03542025203983897, -0.02157827159417372, 0.15308249572394714, 0.18295284690195676, 0.304286335822675, 0.1118676626980858, 0.33195298186451655, 0.21230552659833385, 0.19308365562083035, 0.20020829904912987, 0.00014890716176180815, 0.0851542587373838, 0.27319880963908827, 0.27568460076066154, 0.028408676354835415, 0.027141119580479406, 0.3080054672757476, 0.036118619632334203, 0.27168034678095176, 0.0013231805569337673, 0.17914517112557915, 0.31344846962475836, 0.08747400284796343, 0.09223691855620735, -0.27904673320547807, -0.10725461144941503, -0.09706815571516368, -0.2177047368414048], [-0.17381203174591064, -0.0007023066282272339, 0.08009107410907745, -0.06439772248268127, 0.09578149020671844, -0.045325905084609985, 0.020520150661468506, 0.13601146638393402, -0.06124170124530792, -0.09416479617357254, -0.08309582620859146, 0.02237117290496826, -0.1824227273464203, 0.08938051760196686, -0.1652158796787262, -0.0874151661992073, 0.11752916872501373, 0.08441255986690521, 0.047113195061683655, -0.010560423135757446, 0.060977473855018616, -0.01111137866973877, 0.18132467567920685, -0.1081220805644989, -0.022282570600509644, 0.17626039683818817, 0.07525770366191864, -0.04336276650428772, 0.1435488909482956], [0.26755048533793013, 0.2529371626255285, 0.17648996252412313, -0.03983606382360113, 0.26720398643723003, -0.03463918583380093, 0.07004364486774385, 0.04344618869449703, -0.04108638774986139, 0.23223342699131225, 0.0848056606584353, 0.27854557843777156, 0.18340009179755823, -0.011428889395763177, 0.03206371676992624, 0.2111641244955753, -0.03804028140223719, 0.27767381961977183, -0.023918706630622174, 0.2529091231244301, 0.11496778745584828, 0.2221899969977169, 0.10927363140932345, 0.21243426341017232, -0.04689325185608304, 0.23668863070931676, 0.16125261891275613, 0.08830898955895869, 0.12407157540095888], [-0.18334022164344788, -0.05346137285232544, -0.16823360323905945, 0.0035296231508255005, -0.09156017750501633, -0.1443844437599182, -0.15918517112731934, 0.020687103271484375, 0.0938565582036972, 0.07709483802318573, 0.08451466262340546, 0.09531472623348236, 0.17098437249660492, 0.11048923432826996, 0.004905432462692261, -0.11524588614702225, 0.144447460770607, 0.06295211613178253, 0.08619396388530731, -0.17888210713863373, -0.0377890020608902, 0.004082038998603821, 0.15303592383861542, -0.026783153414726257, 0.06060384213924408, -0.1275123953819275, -0.09879259020090103, -0.08519987016916275, 0.042030513286590576], [-1.4862272361136286, -1.1563228421292298, -0.13463849167857012, -1.2668928452529726, -1.6796502655919778, -1.7401384009514993, -1.7778291099170893, -0.8553697584662927, 0.6445835773751402, 2.8723049332113084, 3.859659018866795, 3.998523256218033, -0.3985844248206769, -1.4851055395824364, -1.3357944067312544, -1.1321822994493096, 0.7412900498457056, 0.21242564011010684, -0.28788779965853134, -0.8674903174877476, -1.7428638014398512, 1.2204723935845552, 2.6229693203541333, 1.8363140053799818, -1.195031275015084, 2.7654476692177123, 2.3079362868129634, 1.9905832068759912, 1.879516627888228], [-0.3578632250557342, -0.1396749072948842, 0.24928329455162637, -0.06338419101619969, 0.3499713956109752, 0.7014849783350873, 0.06890871717369866, -0.18321686168926635, 0.4500671227480388, 0.3513770532290683, -0.43173337052520105, 0.2198663660951606, -0.010389829013201743, 0.4785155132294967, 0.0013901050451409574, 0.5881551066445381, -0.09305435352050753, -0.37104479535200097, 0.2606050375230696, 0.41204426508656644, -0.16428464848129418, -0.10909712003612364, 0.6721830032601339, 0.17881618520873616, 0.18266994326786742, 8.040579799112422, 5.193403701132941, -2.576868528408791, 1.8836429591024888], [0.08248558130266448, 0.1567841445225813, 0.1600991885172682, 0.31722973204249555, 0.09809473226884964, 0.20456400406515265, 0.2602689413355463, 0.21856995338286486, 0.06741772590352949, 0.03283311579030022, 0.27925189629297414, 0.038514554842330136, -0.02501465589121178, 0.1280448686161312, 0.2063619943302984, 0.15220842120508613, 0.2421729700246083, 0.22732159019474052, 0.00022273571408714098, 0.06554403676775605, 0.3030575968540085, 0.34019968588068544, 0.29268389662267175, 0.14357994316512215, 0.3139873079412794, 0.21624873719589105, -0.06982353005764659, 0.1308182682184203, 0.004412660127710842], [3.316016354469001, -0.5916060471434021, -0.19365819465205641, -1.2560148781405274, 0.7482715672768306, -0.368062577164436, -0.32727089774314067, 0.39642748817182666, 0.7452096681224164, 0.9953213971404117, -0.19976731815126322, -0.6179809132506948, 0.3682474573881633, -0.17123281144411984, 0.30795654427972163, 0.6968636588576843, 0.7015373682883526, 0.6012455876374515, 0.2595541855807113, 0.435964454526415, -0.7507606905970878, -0.42049795686873503, -0.03817343679590343, 1.8752687290946541, -0.5963821670517016, -4.514625068850646, -4.256940078266101, -4.143027364707457, -4.067014966951877], [-0.2154386325227031, 0.18271852920608525, 0.05791978947762829, 0.2511588576630258, -0.0020406154891466615, 0.2891120530033167, 0.08139466514908729, 0.1905793544988353, 0.17162453118174947, 0.03786720856840089, 0.24613370563753745, 0.14191283440651184, 0.18675515519347655, 0.21714997417884002, -0.03542444374144907, 0.16245326875217667, -0.0015934475702441134, 0.11687547407503429, 0.2863989995741393, 0.1627481051188708, 0.28112181183475765, 0.1672048723780572, 0.0824701059465404, 0.291337181573911, 0.240629532754187, -0.03893616795539856, -0.1684783399105072, -0.0760934338613257, 0.027373981577874303], [3.474554272587114, 0.8584813002093633, 0.3437178955113999, 1.2254455969235254, -0.21578440811952285, 0.7492929793509803, 0.5355976688290923, 0.23951607470464573, 0.5285965461879187, 0.20081912819927622, 0.3794997936924304, -0.16044405577870785, 0.19518520473685028, 0.753932738279721, 0.014675217134247803, -0.26660835321732795, 0.9116292131786355, 0.18847496812020975, 0.08466021905591774, 0.3834857869244089, -0.4054942900756025, 0.42600010132935073, 0.4881697570920051, 0.7700171066608124, 0.27479410464490434, 3.083316239027708, 1.862470104542431, 1.3243940875902847, 0.879243122495374], [-0.1685753034824906, 0.30639737257546307, 0.2460939823616469, 0.23058992604897544, -0.03252022283752285, 0.2735870211076, 0.11156468050531353, -0.009806128409889814, 0.2642542386403962, 0.28626163427724655, 0.1373814087268222, -0.0007251447536116717, 0.20264794745879408, 0.014728930924332749, 0.05160183354464433, 0.07641456361039922, 0.2272267337204856, 0.12116917212654234, 0.032788690943021885, 0.19822498244902914, 0.03152060311852989, 0.30003512552324313, 0.31919835604715874, 0.09669075427388699, 0.21506282751226857, 0.046461448073387146, -0.140635680879557, 0.02296294332631372, -0.08406007289886475], [0.01069295220078944, 0.03493459808165614, 0.15768402181762592, 0.0046439715255674075, 0.0328850990333937, 0.13749082571016363, 0.31592237036399207, 0.3308535700939532, 0.0867206581014848, 0.02559452520355362, 0.23371894698622855, 0.31116123032038734, 0.2507997970666478, 0.22891361030253676, 0.32244384778861895, 0.15294397497182752, 0.2964764303480837, 0.10676704484310996, 0.2960855007524037, 0.2982955226891178, 0.02556474374486675, 0.01254694396665242, 0.2637536205679088, 0.06253172063280846, 0.15610908143070595, -0.17893462369351235, -0.3031424121497593, -0.25191135419089994, -0.3116401779431599], [-0.11347267073366994, -4.5201813455585125, -0.41598278007868866, -0.6620663990887512, 0.5016648243013817, -1.3922487299733424, 0.19623184247001244, 0.0873058865275391, -1.0615496958510555, -0.22668175418980396, 1.26945994871707, 4.7464420241176715, 1.2749694378910925, -0.6592922910130182, 2.979168913954403, -0.43260296503031204, -0.2560029085352747, -0.02356143160477316, 0.7500510226974283, 0.8119141118764428, 1.1321624063559739, 0.13829878324020725, -2.504856280936135, -0.7044699084860538, -0.979745474734885, 0.16004688556158966, 0.11779183239749377, 0.06483617395054508, 0.06461540640596922], [1.0310320085662372, -3.4895239495751555, -1.2631028853368198, 0.49647371983827815, -0.9000492299905852, 1.2616857806376964, 1.4161679083237386, 0.05154095199722939, -0.24846790460683865, -1.1479768981930853, -1.4946599774124716, 1.9046751776135131, 2.248542008283556, 1.8244961610537271, 0.38511145651242706, 2.556732185211809, -1.6575794940549144, -1.1007600186049857, -0.19933949413987403, -0.21907290060387344, 0.8212825847504764, 0.837940347483997, -2.2945221104370117, 0.1770447013444266, -0.1549362259267493, -2.713013733771678, -2.6309874308703067, -2.5889401196629507, -2.5217647320221195], [-0.033184991795681996, 0.3152915907763832, 0.030046874339992567, 0.29402349268899614, 0.3178830532737261, -0.03364360941549929, 0.13871228043073638, 0.13776741223590683, 0.06384293706195461, 0.13286090585507593, 0.18754155123439606, 0.002118833014064878, 0.3268557270532661, 0.1839838708286389, 0.1808531681735737, 0.06782730894022578, -0.0007744186157488006, 0.13053598460694021, 0.1864079178881406, 0.2414199795011127, 0.2176328378201366, 0.20350646199078748, 0.04970464049323935, 0.22623247602391192, 0.1119457855726155, -0.02987341954077568, -0.0380752408121781, -0.015564322305056406, -0.3016379614911471], [0.07518000788852928, 0.2269515767071025, 0.0760877896589815, 0.1628725345004845, 0.27771600385395623, 0.28730965115925233, 0.14052256384738232, 0.177069282854, 0.19690727131278665, 0.07455305952925531, 0.16736853097985996, 0.2110536689844655, -0.06631320483313208, -0.013223000892197393, 0.06654340613899261, 0.07504411583588969, 0.28109901915634045, 0.11735715197570121, 0.08306272162631081, 0.08797111866116986, 0.060133443062032096, 0.02718793333626057, -0.10232257733890365, 0.1818751562526661, -0.04597622044587201, 0.9437266346229352, -0.28401294390230475, 0.12390380321831453, -0.0730736528941834], [-0.09392188197790827, 0.2907955477649849, 0.0645171290597814, 0.0010426833472900194, 0.018344841946528936, 0.23122537447260727, 0.05147556531109074, 0.14178546688244353, 0.23975582026929043, 0.2996098518746676, 0.2400102304542417, 0.09222053473340469, 0.1508049984300985, 0.08090695440439702, 0.30130809887312326, 0.14376932814148147, 0.13920673690172766, 0.25611350189037746, 0.20446164373792808, 0.2767611519330042, 0.052240618794949796, 0.013591323346247826, 0.19365412043029326, 0.04592494671103596, 0.2957841634958451, 0.024256229400634766, -0.1409119814634323, -0.06205476075410843, 0.03644814339908259], [-0.13794198633968055, 0.2881861946446238, 0.1710116610747778, -0.01179252168353145, 0.19347045212858868, -0.03496454284714648, 0.2767245797747934, 0.2539081001880721, 0.08180064099834528, 0.2246859381196314, -0.008222042796037487, 0.12926125615679018, 0.12363785818982441, 0.2649887242314864, 0.17383820407649883, 0.08973433619726431, 0.1417319974796566, 0.008182455899252077, 0.034926217228049464, 0.25844985568208534, 0.30649265833074163, 0.029529974981505617, 0.15399630426320554, 0.003430516058349945, 0.12870888647728168, -0.038172831838375, -0.0907298914217759, -0.25295281585306895, -0.16180656509280206], [-0.2544393074516772, 0.24623816807665463, 0.21655988343677737, 0.23291036314222918, 0.056458449389591575, 0.20176224278679405, -0.013646976616371969, 0.20377684962799728, 0.05403532591615801, 0.09595444458400511, -0.012233961632945793, 0.26923408756917727, 0.24627113218748714, 0.18535496011705543, 0.3250460305620277, 0.02805677763751099, 0.12024922643695013, 0.15902741228617823, 0.1408722695065557, 0.11197568391341374, -0.027138547765434923, 0.2615537911105366, -0.007478583620215267, 0.07363795910436366, -0.030639947615847436, -0.23786222900419637, -0.08006796304307251, 0.010630779845947519, -0.1603878448738965], [-0.29319624248661785, 0.12791398873081156, 0.3028159596218018, 0.1454009553052498, 0.16468182180684826, 0.28036273028954656, 0.21817431899882123, 0.27411370964095244, 0.009542580634970523, 0.1328587068641906, -0.000252187247608268, 0.2519780797203016, 0.1934175332724418, 0.004738244392387475, -0.05644566687305387, -0.01384584585080938, 0.07683127175876084, 0.15322667252319097, 0.13258118613522185, -0.05327331655830228, 0.2020609042771392, 0.28614929223138524, 0.12782918510063723, 0.10190147308078143, -0.012616345065516706, 0.17245768010616302, 0.13909612596035004, 0.1149200052022934, -0.009837284285232034], [-0.3295562024607088, 0.12417873221760378, 0.13734972343174806, 0.24253061345553997, 0.20644672628780156, 0.23622755857661001, 0.2085471305483857, 0.07624104980204802, -0.012152097568925588, 0.09706023385050411, 0.2551467212637291, 0.045006537007250935, 0.19136947994249293, 0.0004245347211842986, 0.028592446031924026, 0.08500782458053248, 0.24775854839441505, 0.05126103288878104, 0.21824028745490248, 0.235736423357547, 0.306837223365811, 0.006837645355927376, 0.07787799605828025, -0.01606632419554193, 0.1785328932176137, -0.24556351529838283, -0.10883089902981981, -0.08378947750494549, -0.25502962043654764], [-0.12563263705333289, 0.024502154764703323, 0.2959714118571234, 0.27647180400947996, 0.17150626293848004, 0.11631109456813828, 0.1045448998850084, 0.13112359495634768, 0.08844146748761944, 0.32622254272760526, 0.26313612218387533, 0.03727594530534563, 0.27636534894945075, 0.0685680222773472, -0.03105104821034514, -0.019035174947538494, 0.20105395912186763, 0.30852059572628004, 0.025954331644063387, 0.12630928546866138, -0.030626289025184782, 0.2370818305959797, 0.3291904662969771, 0.2932996490211247, 0.09704724533355975, -0.3191585136694658, -0.3163618674049502, -0.1708771036670082, -0.27597565790207224], [-0.2616402450962809, 0.23822269623313336, -0.1968067850639608, -0.0909129414025453, 0.11949138414734971, 0.40216436356120216, 0.11552937747707678, 0.1608826311551766, 0.3002663509182723, 0.19475160310434886, -0.31553533786267846, -0.08391550510835909, 0.13835523070961028, -0.22360551218067906, -0.37483568266458955, -0.5453936295852212, -0.0057616338819377715, 0.2323632874929187, 0.2188926980864927, 0.028026206970344275, -0.03348272818311005, 0.17902777062397016, 0.028916386615663935, 0.06899197236769171, 0.2769645040959518, -0.43052103895025867, 0.21525809770388743, -0.29690051753450647, -0.16426561034308582], [-0.19246222474123836, 0.3288860424465938, 0.0015795593750287309, 0.0047206163962641694, 0.021452051483575103, 0.18130273440006497, 0.3140520366589547, 0.3020168922387409, 0.30742033632456195, 0.2706060875776687, 0.19934256651904034, 0.2919989330634362, 0.28462709981623674, 0.1031748836312521, 0.021272430027961118, 0.10342143510431798, 0.09931332863037583, 0.20987492693292797, 0.29678950172080076, 0.31082837087020676, -0.01158621236351495, 0.2207388359052337, 0.018798131360824748, 0.12395016922456951, 0.08534312247001145, -0.027876168489456177, -0.13173110783100128, -0.04881924925936084, -0.048293038373190426], [-0.06812582824283978, 0.3035755993544617, 0.13373570354390973, 0.10353039055772052, 0.13520343906139656, 0.13970297063402343, 0.19528875299940407, 0.12288768179605956, -0.026632273974553103, 0.09215177450646332, 0.28107698431634137, 0.07444849680914616, 0.2748529097065013, 0.306646492374704, 0.21729938796764192, 0.32800180616062924, 0.2909526729524133, 0.2156178768756778, 0.2921574613883288, -0.013816859180160632, 0.3142995624266351, 0.2359975026968765, -0.003986092611644138, -0.012070316117218, 0.224495687224832, 0.03287413776244947, -0.061246914423915555, -0.2466990488067383, 0.0021471320289358498], [-0.34677755403058086, 1.3969770731181397, 0.6920636141725021, -1.7021277768294423, 0.7515833268244934, 0.9197196523622053, 0.6777057667980064, -0.44103230397558957, -0.6059252737681327, 0.42006665190969406, 0.9143354715754666, -0.5239151250024793, 0.7121395937653012, 2.1257736861939645, 1.7288349418162614, -1.774750778780386, 0.7362151129873958, 0.5238666161022556, 0.4079799422629806, -0.5287301541181781, 0.0008332165673183235, 0.7565352276958606, 0.8743258795420062, -1.1049982497928892, -0.9509648404775916, 0.267498466611226, 0.0744259831284742, 0.4088296379363235, 0.36571185463321965], [-0.04098565646958828, 0.21321107395032737, 0.03670673798195508, 0.17332485879632623, 0.21165639710687603, 0.16618757494953262, 0.10634332070038184, 0.08203262063522267, 0.2638175213843099, 0.05460072512989835, 0.20617161608765897, 0.3380575022288649, 0.28946345054527434, 0.32514563991381223, 0.21805713471925575, -0.024475417244099826, 0.0713556175545991, 0.05061982845124512, 0.2070826393585993, 0.13678222026038594, 0.08276227315592999, 0.11750079316490536, 0.25422450000246927, 0.02440097159109486, 0.25879119176802484, -0.1763893992300863, -0.15876154769780404, -0.23595688552131255, -0.2924967820752628], [-0.14890050700550392, 0.26203308874653897, 0.06712646894800706, 0.14061550286147195, 0.029991200099072135, 0.23891574603330534, -0.003686582892115815, 0.30322382947172805, 0.015860472796519844, 0.2618634646335381, 0.32026708006509397, 0.2443840290762613, 0.05533983152601943, 0.28959405626882456, 0.33025895815130807, 0.14765661945974512, 0.023788487856419994, 0.2006015069460848, 0.003215133731875319, 0.16984402127590145, 0.2604910649489346, 0.2782623339376587, 0.046010273600398, 0.12533717490367857, 0.06016785976463854, 0.04082024097442627, -0.15194080267599766, -0.16043444388110123, -0.09711617976427078]], "layers.0.bias": [-3.8812616360103784, 0.038383234640291995, -0.14982597529888153, 0.2272201539617359, -0.16334155201911926, 2.229817815944401, 5.106823562661599, 0.007174594769088487, -4.552147350424091, -0.047042974574899435, 2.3512398092936313, -0.22895777906561146, -0.26047308099007926, 0.17699613369476153, -2.696894011148597, -0.32752578170318336, 0.21597779811590465, -0.040405489527858315, -0.20077800179685368, -0.20802675147928656, -0.14247880836169363, -0.0793762453211004, -0.10693534067738654, -0.328407261548872, -0.04548800106393901, -0.19138152416089, 0.18016862080040885, -0.02857138194136599, -0.3187234908882921], "layers.2.weight": [[-0.05763199242734213, 0.061678909594052936, 0.053840577602386475, -0.14117457328686195, -0.05779379606246948, -0.10309076766375275, -0.2507384683833201, -0.11143679916858673, -0.27025815162604394, 0.20625193165136044, -0.23786624576963264, 0.08773690702935955, 0.06202941947947946, -0.09869687043736855, -0.14689923764104174, 0.25787632804472016, 0.09737645089626312, 0.1333460956811905, 0.11560384730665062, 0.12058049675048285, -0.1824815876312221, -0.27771574969167434, 0.022064800985352333, -0.0778125748038292, -0.014376606523803992, -0.15011702477931976, -0.1974537031105729, 0.25974267178526234, -0.031075113628685515], [-0.09501333693704576, -0.1907009381070996, -0.040597617626190186, -0.1962580695408345, 0.16265173256397247, -0.20247739361239886, -0.22858302008149667, -0.07048309594392776, -0.23574481051634677, -0.029387565103174293, -0.12559008001165325, -0.07613472655986726, -0.1335714740326709, -0.2844771720564618, -0.1279921641916194, -0.08130365630677397, 0.12389029562473297, -0.17027851939201355, -0.3252110540148689, -0.19337567794834798, 0.1454075425863266, -0.05109489563983162, -0.04481183279853292, -0.06438598781824112, 0.021114810561706658, 0.13500435650348663, -0.2228002231896768, -0.0229812415158095, -0.09997868347767656], [-0.2275531164801001, -0.02111256402195875, 0.002350911498069763, -0.2205539622452637, 0.004301056265830994, -0.06334728286487523, -0.2960244788812477, -0.17499245703220367, -0.19261823068167924, -0.3179300388573502, -0.16959269204883526, 0.013978108439877497, -0.02769719952173687, -0.3146590129323964, -0.28526819285655614, -0.12147483144545039, 0.08507119119167328, -0.1077173575758934, -0.1611270287344027, -0.24305554166840965, 0.10644854605197906, -0.2903507524604372, -0.23020327251327724, 0.07965822517871857, -0.05282484762870658, 0.046059370040893555, 0.02735887241024312, -0.07709075904951802, -0.26760384627445954], [-0.6290149115215737, 0.05275483429431915, 0.15278173983097076, 0.03548625111579895, 0.07726989686489105, -0.655764013405195, -0.44474416224227453, 0.06647558510303497, -0.5470446637471922, -0.18082532286643982, -0.3601330305526468, -0.13712938129901886, -0.09863371402025223, -0.43851164474073223, -0.4746969188103966, 0.03615519404411316, -0.3332271229761652, 0.11265932023525238, -0.101537324488163, 0.004518330097198486, 0.1337239295244217, -0.01909177005290985, 0.03232429921627045, -0.10642550885677338, -0.11533857136964798, 0.05364874005317688, -0.6550185939498904, -0.14988388121128082, 0.17448879778385162], [0.7374553930927923, 0.2622636042961993, 0.061093613505363464, 0.27115516166442644, -0.18338312208652496, 0.33113232901502737, -0.23559965810526265, 0.08797419970111099, 0.004444831345926028, 0.050510340736387445, 0.931183531229095, 0.12753682904907315, -0.028153059475934883, 0.4406340841815891, 0.026736418910470898, 0.11797220419225204, -0.1576177849502312, 0.06263720875038113, 0.11640430719629176, -0.019833016523984854, -0.1949405699776553, 0.20512879773058373, 0.2596645626820683, 0.16508206889792423, 0.029066594161383574, -0.037235378667436064, 0.025699573035892164, 0.08500080187804467, 0.06706412106221057], [-1.0097918707574294, 0.19252589518277471, 0.13548944890499115, -0.008998849931640194, 0.0010263621807098389, -0.029992390804631546, -1.8722654904965534, 0.1300889104604721, -0.520400895116638, -0.2838228195304655, 0.5878698113070836, -0.13814096311508556, 0.17788926422554263, 0.12263524364647081, -0.4815205262676732, -0.28825729226455316, -0.10115799307823181, 0.09463588893413544, -0.002523809852641413, -0.19205175540894903, -0.29595826331344266, 0.03334554904076234, -0.006078789664042258, -0.03376889228820801, -0.08623789098447357, 0.2108506468047041, -0.14444355279149426, -0.25997555972407943, 0.11211104691028595], [1.678909318107073, 0.014494516752895798, -0.08599366247653961, 0.20143471910928223, 0.1793040782213211, 0.14716596715444039, 0.29970417299268015, -0.12561811889025995, -0.15572657852493252, 0.04006024796282548, -0.9052101201054911, 0.03360028805408281, 0.10800975333059532, 0.35654516295256933, 0.14031311875122196, 0.005804874235761196, 0.016988626149498573, 0.20932322824834265, 0.21672378112349802, 0.2873849211512784, 0.025125747733290252, 0.2898920822308509, 0.016457617435313956, 0.3323930773348121, 0.07456194868642436, -0.032767718990865106, -0.06800568828914384, 0.11029255854700584, 0.013623983969687687], [0.4592991277675805, 0.22049280502050017, 0.14365048706531525, 0.19352193609587814, -0.11245577037334442, -0.14701545676389485, -0.10027123166555206, -0.1879158136433225, 0.18735230136602227, 0.3060800035954887, -0.5592054234180073, 0.11901058037481506, 0.16034379016470685, -0.12818011437512591, 0.2378083999725354, 0.1510067205957901, -0.18041858377201345, -0.027255040858546388, 0.03255727507016973, 0.11232980394214705, -0.15821830830791878, -0.03519391232152191, 0.15412864430235634, 0.2738411803997098, 0.028781659687498864, -0.15789918707775039, -0.40204827304569213, 0.08876892868495254, 0.07132320421759943], [-0.1084903904042053, -0.030213974896265018, -0.13161134719848633, -0.24028803388805753, -0.13594184815883636, -0.10562760955285548, -0.27404942828932866, -0.11982971429824829, -0.1520525349976695, -0.15879087767140446, -0.30125481106448565, -0.16606720917339804, -0.018118987101255687, -0.05543183225478159, -0.13739649894303105, -0.2734638862907053, 0.1370246857404709, 0.07057090103626251, -0.1589047500421944, -0.06411364687800607, 0.020087316632270813, -0.05921679822923133, -0.06266331448522251, -0.10312483459711075, -0.0013965265632145364, 0.16760708391666412, -0.015195690933035137, -0.021248463865813885, -0.028839778701762176], [-0.19161724732147606, -0.3206286064360498, 0.13838420808315277, -0.20725306889058037, -0.052917808294296265, -0.023199428448587557, -0.03638887817855731, -0.14563453197479248, -0.33025007588093264, -0.30310783269504077, -0.23415665298579913, -0.10054543202051296, -0.12274334643425971, -0.15018939570751277, -0.0344667219181268, 0.011561213187543745, -0.10552634298801422, -0.1759284883737564, -0.03283496676654603, -0.21407611787559028, 0.028680384159088135, -0.08593968966647993, -0.1822828993453082, 0.012405827641487122, -0.01779407262802124, 0.1404874473810196, -0.029868953467445062, -0.15245178775096158, -0.18829794522705431], [-0.07243417708673015, 0.02299245936103774, 0.150462344288826, -0.054628110345476884, 0.13170094788074493, -0.2768696076145593, -0.02534729921868278, -0.07210209965705872, -0.047954193587345574, 0.1447100077023774, -0.2152658008099693, -0.1299173619386554, -0.11412612796997311, -0.33371688749433465, -0.07376909316124249, -0.05249832119277934, -0.07694694399833679, 0.1522211879491806, -0.1042126549892122, -0.16356179870858117, -0.11547493189573288, -0.23412944026073437, -0.17510723811941128, -0.07537982612848282, 0.2921142745010649, -0.15142709016799927, -0.31333130732451975, -0.017640566448165713, -0.09092410751157035], [1.395339766444358, 0.15309675307353365, 0.12862147390842438, 0.13948269043572872, 0.05311460793018341, -1.5323597408214242, -0.009997716523183311, -0.003928926102892311, -2.11570098134549, 0.028607872728877215, 0.22280941386555586, 0.31811856271121564, 0.1786927940078163, 1.6784607478551392, -0.7265004914318096, 0.12137048983327432, 0.08844602939933782, -0.044627767480652385, 0.039798446757511555, -0.0018313964533039342, -0.06092148871113872, 0.10543033906873546, 0.2853511733685671, 0.20114661378821627, 0.31183573053930486, -0.04520707298302042, 0.5213034572003513, 0.06375892738482103, 0.20520771544831787], [-0.23672866177197824, 0.035716843996436064, -0.1514061987400055, -0.0879764359081501, 0.13307274878025055, -0.15402608194666617, -0.15355972744253063, 0.13882623612880707, 0.02641353172619214, 0.01778448429498023, -0.15046291306800458, -0.10313898041955716, -0.24064231769731956, 0.013689352092505082, -0.0497138959887698, -0.04190736732530835, 0.047160059213638306, 0.162444606423378, -0.27955905001250025, -0.11877015414950207, -0.19520416456986414, -0.22802744012448298, 0.004885086538757865, -0.006308048963546753, 0.19355808792492907, 0.05393405258655548, -0.264844372387599, -0.0030650176989339404, 0.1754270643578855], [1.4018462569742078, -0.011552538504316638, -0.15709592401981354, -0.03679658274274003, 0.16599635779857635, -0.08566374087711327, 0.29604398686848277, -0.14568894253085024, 0.957791591243126, 0.10622490572589156, -0.9460090084250319, 0.2993914652799966, 0.2573804521665664, -0.33022189224932175, 0.628542610897144, 0.10116583635185752, 0.04798809984878388, 0.19227217382098913, -0.018087631070400276, 0.04435619966309056, 0.0030607362088571196, 0.08733834978840063, 0.08487568117649927, 0.2963606320909684, 0.32122234455934007, -0.06961474287352484, 0.3621451262964576, 0.22602788601933355, 0.2418378762684351], [-0.26200964935446924, 0.1311185508966446, -0.05990894138813019, -0.2714513836207744, 0.13391585648059845, -0.0635042366307776, -0.33271420734548407, -0.18010371923446655, -0.21300884925121402, -0.02772277593612671, -0.18342737623227856, 0.15955527126789093, -0.13845621049404144, -0.010127766072098539, -0.3561991189997902, -0.04933337867259979, 0.04924355447292328, -0.1542453020811081, -0.12185567617416382, -0.18073496222496033, 0.0035859793424606323, -0.07294486463069916, -0.16291740536689758, 0.001022443175315857, 0.02948075532913208, 0.09980814158916473, -0.34785136867533895, 0.007286638021469116, -0.14610587060451508]], "layers.2.bias": [-0.17913806013154973, -0.06947363660027137, -0.16496683626993788, -0.5150586680800711, -2.703266125893005, 5.598061884518703, -4.913834125348909, 3.1259747923319394, 8.331446042751948e-05, -0.14514944048509817, -0.2130132771501128, -2.556163965866499, -0.10574441245808933, -4.571385026689545, -0.2770414844007678], "layers.4.weight": [[-0.393915048093913, 0.018858848977079252, 0.0828007169825869, 0.228010892868042, -0.12967686770591502, -0.03400778770446777, -0.3526311130941485, -0.14238421951872807, 0.02809648300157874, -0.19826439023017883, 0.002683642626127748, 0.03189996531640816, -0.00899837685451828, -0.36925513745595967, 0.1294749677181244], [-0.17450434250810354, 0.06588050887792393, 0.25559265574128687, -0.4712952616955691, -1.023648057121629, -0.8322834172977328, -0.5764624106644242, -0.9738796563858029, -0.056465644265572434, 0.09954550677819118, -0.024201941408572656, -0.08345289114467855, -0.1360309158732347, -0.4478700917856357, 0.36728254932481125], [-0.03944283278655441, 0.020356034475766338, 0.07395143890263069, -0.28400690088724606, -0.08533667909991495, -0.6042450612745448, -0.010955222080447668, -0.19651157160060337, -0.0016873590743785776, 0.21172577469797732, 0.0221155806386417, 0.01028850483662984, -0.27621082948742387, -0.2864434930073803, 0.16250861952526682], [0.21099516703613266, 0.37025509778841453, 0.37929172663611493, -0.33812228295791863, -0.20747287908921966, -0.29375383291162177, 0.017755067961373345, -0.3500465600694129, 0.1488767001728806, 0.13227086518651315, -0.013740254505397276, -0.24481016570888353, 0.07175919212756422, -0.211855001312635, -0.07125893515606141], [0.08834998142450885, -0.06191140820234306, 0.06552487222079202, -0.5172006277404415, 0.16295665153926644, -0.47038759566792854, -2.0875408038586087, -0.1376972492613184, 0.09741988819379638, -0.07329226754300312, 0.19771291307026662, -0.5136810501271393, -0.13479343808932867, -1.680076781752212, 0.10525401251849652], [-0.3153506675565542, 0.0510806769592913, 0.09818716149453922, 0.25162747502326965, -0.2620864958134351, -0.3183588344726999, -0.14941245040857792, 0.04885128373428837, -0.06921291392292853, -0.009285687706992021, 0.071499506723078, -0.36467549806351107, 0.03321904690252346, -0.3781748328924379, -0.08188863098621368], [0.21314141154289246, -0.09523619711399078, -0.18459829688072205, -0.039321839809417725, -0.10475289308287021, -0.01388526740420997, -0.008370667811486592, -0.6047292103060673, -0.05102284252643585, 0.2252272367477417, 0.1579292118549347, 0.2617824094285142, -0.00863376259803772, -0.03620862492368304, -0.1449144184589386], [0.09705547194272263, 0.08171030431053096, 0.24417944918723158, 0.049407511949539185, -0.19569345391997933, -0.03674572461773249, 0.05741005855261789, -0.06331457527480801, 0.09487129261336855, 0.3340728681627952, 0.21813819159370412, -0.2528335055364217, 0.11728657188060107, -0.18759650201552067, -0.14869719743728638], [-0.2009669145727136, 0.2226605315118879, 0.1494031520931856, -0.4329007515061618, -0.6888396002680153, -0.36765445306609273, -0.040274939044509316, -0.14427773333354565, 0.1690408204086994, 0.04526870619809251, 0.06811357831298216, -0.14426603566543938, -0.004246553301895954, -0.061905168526508604, 0.3618714432092965], [-0.04737777449734109, -0.05546770568065302, 0.16057513869596418, -0.7078752862599468, 0.6038715389215983, -0.1200879182834089, 0.28132458711062835, -0.17352656383695078, 0.2519929568232011, 0.0025085209052109324, 0.24975114069791887, 0.22754257343023626, -0.10127409863934005, 0.4392174652035143, -0.03669189672082961], [0.06908466107512194, 0.3259477602615805, 0.1385892123816084, -0.6554639951095554, -0.7596009437712412, -0.17597981795032172, -0.0228420042286598, -0.053912667340070865, 0.26290429699452555, -0.0527914917353628, 0.15929814206829135, -0.26984046100103787, 0.04473791465135696, -0.3868508366531779, 0.005423589685007269], [-0.013478325788920576, -0.36145575870028746, -0.16646278198331754, 0.12370279431343079, -0.16888462789090794, 0.07166235371246449, -0.03322784193265923, -0.33952247577851274, 0.08710206980991468, -0.38880901176335386, -0.3910634276139014, -0.33194445680996354, -0.1800372599990349, -0.22998912972576527, 0.2110971212387085], [0.042272210121154785, -0.230684295296669, -0.23913279175758362, 0.780047473046445, -0.6176363355158513, -0.02587902545928955, -0.4830928181723065, -0.6540955951787699, 0.1594867706298828, 0.1929212212562561, 0.1775858998298645, -0.2955812869584616, 0.21232932806015015, -0.4699504912238473, -0.0013954639434814453], [0.07902455806596263, -0.09514714688477674, 0.05698293447494507, 0.055452436208724976, -0.7075418201811152, -0.14117807742156924, -0.256125843823489, -0.971919304021236, -0.22305039390055645, -0.1782994270324707, -0.20098987221717834, -0.8519076416432162, -0.10003478156524348, -0.22685256326825165, 0.12514835596084595], [-0.2514261415169766, 0.2411870858084351, -0.09834016325363197, 0.13766193389892578, -0.7379927977225598, -0.6245455811381101, -0.6728979748038869, -1.0809172264450604, 0.002250316583960609, 0.22294390280597917, 0.14168324520902797, -1.0530319637036212, 0.022342836953945747, -1.0896115675854514, -0.22420424222946167]], "layers.4.bias": [-0.34414740562013296, -0.2389252843861382, 0.1814413421093083, 0.21499555417892785, 1.5447375958202452, -0.20388725717984266, -0.5239037485725292, 0.333812440831611, -0.4434828089952729, -0.24228587731973858, -1.0078691971709632, 0.031961485679474315, -0.6659092288539156, -1.0262816021594978, -0.8094656068275005], "layers.6.weight": [[-0.08158602307373569, 0.6805453977601104, -0.07969454687474771, 0.04783574765520329, 0.05450205777020844, -0.0948968106486081, -0.13365701512819705, 0.013254404461663458, 0.01135332099893084, 0.3719596063968168, -0.18155499726575247, -0.10617040517823716, 0.38149135010391444, -0.1368777965757118, -0.619690051740028]], "layers.6.bias": [2.313642234164308]}