{"layers.0.weight": [[-0.28562958328132954, -0.8202204691411339, -0.645087762709785, 0.6288189966516853, -0.6359792542482889, 0.837603682863845, 0.8267608830069167, -0.18198663341257532, -0.7880900145004587, -0.24197519603825246, -0.46054008527724716, 1.3056088663371384, -0.0175461211537691, 2.5554792169387732, -1.508447622429664, 1.6072290917366943, -0.7695571741555342, -0.9256220548812796, -0.01541020594830214, 0.662122751734799, 0.25150407507209943, 0.6707465101699343, -1.4186734423250418, -0.6104413223718681, 0.2997680794697443, 1.2937994601282456, 1.290214135599151, 1.3221835311697143, 1.3655601410082905], [3.1761482132130916, 0.7788698251450882, -0.0648918305872931, 0.00426285611350362, 0.11077927622441328, 0.33043819632708105, 0.21367567615954816, 0.1586877167033067, 0.12080812090347534, 0.05323044991629971, 0.10252293474895104, 0.2396871020361474, 0.04935777847640173, 0.20559197149551095, 0.11525191798847735, 0.1394387449271527, 0.27625632661963473, -0.04049260428440781, 0.07371785754813774, 0.018403629948591918, -0.06740116263821469, -0.21996031539850155, -0.04014617270907536, 0.5038764205220232, 0.010654822999205268, -3.515174896310273, -3.330572371948424, -3.197798415870084, -2.9792555732012604], [-0.09974626375287943, -0.0042653856641863865, 0.14612832514595023, -0.02937850953541361, 0.051660846374578656, 0.24042480886121134, 0.0792927881591138, 0.05871405810711323, 0.24850337310847403, 0.2816434065877835, 0.26675491210994223, 0.0796544969660424, 0.27999010412287273, 0.2581831022557575, 0.01600371150898982, 0.07563313166182424, 0.2684834017230953, 0.28333973415780295, 0.22743343321471796, 0.18012808607902983, 0.32946066815483693, 0.06345262774624015, 0.23476304733082898, 0.1390310624490228, 0.12210555420421415, -0.29812624617452677, -0.2590149049642057, -0.07941977322018194, -0.25355810208754265], [-0.19534143228961443, 0.02250791198191558, 0.20430690578808816, 0.2602989536403228, 0.12817595783498006, 0.07479518371087743, 0.0005920500050702633, 0.1993219962576265, 0.06922576053348842, 0.17884470295323174, 0.16973855847709915, 0.01997934371365388, 0.2826368390310113, 0.09084387717320697, -0.004309082078288448, 0.08476817005901983, 0.20296129435478225, 0.21444563247496184, 0.3068353049892708, 0.18353318746653444, 0.010123738495913484, 0.25569195800746664, 0.1443291731439969, 0.0844395994244919, 0.13952954449908236, -0.27756312437397734, -0.14633846575034198, -0.2172426059569501, -0.14878491683382447], [-0.07365782166514166, -0.051951532556363804, 0.17303785908135602, 0.08568905608911538, 0.11109743326341247, 0.03612350920857525, 0.255240776401938, 0.0003097110345127713, 0.2840356673273937, 0.25330623725285983, -0.020129308956896467, 0.012357117107225743, 0.11052178540620049, -0.07456461818439136, -0.08995452051228549, -0.07073336559186032, 0.11941550340947789, 0.1602476292876388, 0.06247065748524092, 0.2801166691554968, 0.005852146004304844, 0.14165796198500796, -0.03090024134620906, 0.26849392278511847, 0.0883754449350737, -0.3045074601526898, -0.008147724638359487, -0.018930991503623637, -0.21369718039107766], [-1.5595620859637178, -0.4363478242329252, -0.4099195629238772, -0.44213182272683116, 0.5696639288308137, 1.3407205364396264, 1.0173105916657819, 0.07170972448228836, -1.3130257397102103, -0.5008338435495201, 3.315753198637395, 0.11700204372699065, -0.36633956209553953, -0.33353791801798927, 0.39010001205242134, -0.6198736125190748, -0.11011758166427152, 0.8540753883576407, 0.27589593744875196, -0.09874369081062376, -0.4974293422339476, 0.5256215970847808, 1.3675114600855247, -3.3311200264903618, 0.11231494284483061, 3.735304816359598, 3.841623790773657, 3.852774374890915, 3.822022311103401], [-0.06471253598380086, 0.026526199702067082, 0.012022090585481406, 0.21522988864979983, 0.25750566174648154, 0.02577152562285891, 0.27071100458240205, 0.08046975262946504, 0.18140050560252566, -0.004710466773004554, 0.18649216285325754, 0.24679681905038672, 0.11383947395646336, 0.21036079448305245, 0.2884600214637925, 0.32569913837226916, 0.16113466977622662, 0.25006200851999877, 0.2436589893910758, 0.12660070982044552, 0.20969661078088522, 0.21982575153816833, 0.019277937067491098, -0.0003253110451312497, 0.2201595285769354, -0.04224570047189532, -0.19707369603590744, 0.0010423030910065806, -0.06078272818489484], [-1.0900013422311892, 0.007235591354293949, -0.771110534626818, -2.524472821605471, -0.4097483300039528, -2.0935046517031815, -1.2447913323862947, -0.6538066951182387, 1.4445831606321726, 1.9210183880867575, 0.48640078335789627, 1.3697412226337167, -0.6619960132662237, -0.7376081538846968, -0.4026660662968726, -0.8966368852340779, 0.27775586933772295, -0.11656557357469428, -0.568325112011193, -0.9953863875431905, 0.25447495398610304, 2.253080892837472, 2.7007696641767485, 2.719316543573771, 0.8530203841962263, 2.3869018384947975, 2.517715043523535, 2.5921140087636068, 2.6725244444772254], [-0.06604089716490402, -0.04174619593503823, -0.046030380619421656, 0.06073496980218805, 0.15086789439963796, 0.2373101753184915, -0.067634097387778, -0.026981585488462478, 0.03626995783789969, -0.052830899650217845, 0.20164728079460548, -0.05750908060630914, -0.0029524666174687926, 0.18781760337969144, 0.23898164466033267, 0.0319563540372264, -0.0553411301951671, 0.0312501974547256, -0.05121311119403808, 0.2013339871605686, -0.11369059143823654, -0.10301329679453174, -0.10527713769512535, 0.007751859108003475, -0.062408888322213744, -0.07913760499328268, 0.12563724944556762, -0.17646012385504353, -0.20953948321334778], [-0.01852494945599343, -0.07822820461996721, 0.023967327014278672, 0.21719969073391163, 0.12880534248281547, 0.08087840998634713, 0.03267585142908608, -0.09244106509793856, 0.25323565752258315, -0.08416927141891058, 0.19255102802172824, -0.07897823869617032, 0.024740407830908584, -0.03607692437223986, 0.1550973727017241, -0.034803787294799486, -0.0009943839267078734, 0.022258742443146757, -0.04167268753294285, 0.046361507497683245, -0.02852317836294914, -0.0660452253549644, 0.1880219869697991, -0.07118983977980266, -0.06695794066589576, -0.07737746862395296, 0.10102498544743194, 0.16857677264869375, 0.11941203172307462], [2.7426151156112013, 0.058415023404437154, 0.32644162645399816, 0.13196901653534668, 0.11473560010612863, 0.22026418324187425, -0.15788883956249325, 0.388551046840614, 0.32378993206075446, 0.3947510141916383, 0.12135895700568607, -0.08595769299500997, -0.040284975896209656, 0.16645198284716656, -0.18560399382595935, 0.12573302091657865, 0.09904239991924163, -0.07806573868507292, 0.13745939645289476, 0.1162916208387419, 0.13919559316174762, 0.3215990286315492, 0.3372460409140014, 0.23930384923760442, -0.07191686039940569, -3.003920156209328, -3.012765298818892, -3.1225900723450697, -3.550137077185369], [-0.0829310417175293, -0.09343238174915314, 0.022439345717430115, 0.16978757083415985, 0.15503089129924774, -0.04713508486747742, -0.06320945173501968, 0.0026561319828033447, -0.14017727971076965, -0.051667794585227966, 0.025608643889427185, -0.0972791537642479, 0.008391141891479492, 0.054113179445266724, 0.14698968827724457, -0.17326897382736206, -0.1730635017156601, 0.08110950887203217, 0.06976385414600372, 0.09937615692615509, 0.012137815356254578, 0.08888055384159088, -0.01288709044456482, 0.059249147772789, 0.10873033106327057, -0.07147474586963654, -0.15027230978012085, -0.0037823766469955444, -0.12240349501371384], [-0.06962117909638776, 0.3266006067156665, 0.036996575498589784, 0.2776646901934945, 0.27574875793047887, 0.0081951599389626, 0.14519464280805255, 0.11183682623195824, 0.25588588800918544, 0.326797325792604, 0.021285778262888227, 0.1664304989201423, 0.18743614358614946, 0.12425322327052607, 0.16677305319807317, 0.02978960483345656, -0.019145027049021702, 0.18990540427519934, 0.22313805861492392, 0.2888655284105688, 0.17095791356943413, 0.1402147773382763, 0.09737122897036439, 0.20075327039327373, 0.08208047270546034, -0.1057068134571245, -0.06968611574540215, -0.2100512900788619, -0.20197074989693062], [-0.03400910362710489, 0.02741665995811188, 0.0776871660389626, 0.33468590568329976, 0.23392064649352917, 0.24848098571394078, 0.1532826351119113, 0.058953051014923506, 0.014637764300853106, 0.15830290605311526, 0.15203902452141244, 0.18898931471364322, 0.23851576321065587, -0.009920957550102265, 0.19639482941134118, 0.20492827345407327, 0.2319643683626887, 0.2526012346616049, 0.10731247998112296, 0.26402472483239664, 0.12736369353845797, 0.14889139399048956, 0.2790499696539358, 0.16092626220489267, -0.013214668781185256, -0.17483982559167804, -0.297076196423643, -0.16908767609956593, -0.31370653533924137], [0.0016991454324297153, 0.12405374271194525, 0.32612879209640494, 0.31768634631376974, 0.025712750976732392, 0.22229500102574043, 0.2535827195660811, 0.14180128939427303, 0.1727685043089783, 0.062383213422504344, 0.18062814520637138, 0.06115396509438619, 0.14965627290540226, 0.07430068691110182, 0.10026736671069851, 0.14380719114684443, 0.292036472808968, 0.2104664917084496, 0.25475636159193543, 0.05579388682947408, 0.0750010235400679, 0.08764895747823089, 0.05016154109838287, 0.1212697482417074, 0.08291103405879846, 0.015541333409263022, -0.06592996387245331, -0.155231685212532, -0.302713763139899], [2.3444209462846772, 0.3782658806344162, -0.14457903133014788, 0.5364116706226091, 0.182927020885275, 0.7459293204571084, 0.03494883334051081, 0.9796536305142365, -0.21956333615009102, 1.2133564783733177, -0.44621807469625474, 0.3146082635181336, -0.07931989290503337, 0.3807400667473353, 0.318722828797801, 0.2829156096094046, 0.22166929099477042, 0.08501986412225644, 0.17929932632053855, -0.05594426085051493, 0.42801585655944113, -0.49194046657920454, 0.25855902880720005, 0.7644744883265556, 0.3076637855652213, -2.6208830615264516, -1.8760975454091995, -1.3811700101017248, -0.5540090197763325], [-0.15099330219115756, 0.12371833639813351, 0.031758428367767114, -0.0165972241881286, 0.03620185520310698, -0.01752231329772287, 0.33545649083764834, 0.1622881112249827, -0.018688757773918437, 0.11427268298505948, 0.22349813732179763, 0.08797301010080914, 0.3141700500280988, 0.026680845386623544, 0.3029162479487853, 0.28838212575725936, 0.2451953378911055, 0.1842726654986546, 0.09575664839806955, 0.2153915135032253, 0.13661145866183666, 0.3192574409033219, 0.30047652879293135, -0.03421655024558553, 0.15339904327570297, -0.19329179655376788, -0.0471195711534956, -0.22206286084516252, -0.15777426345988255], [1.6008656787271294, 0.8940520951440654, 0.12547228810596384, 0.06984780404762368, 0.4617192437113277, 0.12482343180064522, 0.04899186733955606, 0.18017575410438627, 0.15881406775769405, 0.18982368711412742, 0.13260375912100883, 0.00603730397817346, 0.1263355673337944, 0.3562249736821552, 0.12329532355409607, -0.1020714605639726, 0.20223450562632767, 0.23169537832519463, 0.21534211844081433, 0.38582282036693283, 0.2543999919091751, 0.38119867931751444, 0.3627725954779478, 0.26184303349849675, 0.2634423142946989, -2.212840066560935, -1.744510751290945, -2.786321392433597, -3.1213121700047295], [-0.16321460902690887, -0.027628198266029358, -0.026080816984176636, -0.1703057885169983, -0.015514865517616272, -0.07399559766054153, -0.03795698285102844, 0.18365179002285004, -0.08488712459802628, -0.16114705801010132, -0.17749179899692535, 0.07080821692943573, 0.015166714787483215, 0.12684662640094757, 0.1515294760465622, 0.09226427972316742, -0.06361990422010422, 0.117609903216362, 0.17673365771770477, 0.02829788625240326, 0.14338938891887665, 0.13901583850383759, 0.04041947424411774, -0.10243988037109375, -0.03148151934146881, -0.13996711373329163, -0.12465985119342804, -0.12211780250072479, -0.05733849108219147], [-0.28269829132969476, 0.16153573111095906, 0.18802251164895384, 0.13887222973147878, 0.08343631560601925, 0.07622145256830923, 0.22507152110099143, 0.3277585786743041, 0.05256173005417732, 0.24967859831010897, 0.2781606752107091, 0.28783582313049133, 0.05191820123934653, 0.12541653980988243, 0.32322394649523084, -0.21794646150944283, -0.013784802987151836, 0.22675230309213915, -0.026355046027857338, 0.034686125401925755, 0.06488661151583583, 0.21587665352046395, 0.02812855442831049, 0.16038015891692148, 0.06770226683053096, -0.16537286341190338, -0.1746700659383376, 0.15738921829840694, 0.018632153983078215], [0.5409688608746459, 0.08128615080074075, 0.259100573194317, 0.7446278247445193, 0.2088910974957218, 0.44044309758059924, 1.0182138764070658, 0.15152723971999824, -0.0235377225472194, 0.23591901192419787, 0.18444851475741697, 0.9005081900455568, 0.07127387319037502, 0.1091153947925765, 0.2401580964026255, 0.5434242795213649, -0.2813067421993773, 0.16914022209699872, 1.1713701692739302, 0.04320956848797369, 0.2954744136030723, 0.305613722491321, 0.28496532684938214, 0.058186899420863095, 0.4295285369789085, 2.147920958615355, 2.212547326132039, -1.7089264764648122, -2.584513722148578], [-0.23511778171221923, -3.7261844633934866, -0.3313169706773253, 0.37774499225275643, -0.27717394078596846, -0.3133555043594196, -0.23565599958106956, -0.7760152189980779, -0.13740971958305567, 0.8689829157391985, 2.289815309037547, 4.345924979606592, -0.05873951465898849, 0.4286131789623103, 1.0560311819782224, -0.2839094988666947, -0.7230347646180553, -0.7323057379747505, 0.9602076887817786, 0.17664363618797843, 0.6420523236419873, 0.07656136087172942, -1.951894073275001, -1.6398679794537105, 0.025037499817382933, 0.06874729558291451, 0.05284814463600639, 0.04348228504007651, 0.05568654670802432], [-0.12132360166912175, -0.054051880034387524, -0.0010257240020466053, 0.1428767479005373, -0.08121602979457035, 0.19961370321917501, 0.12020267192580819, -0.12582798000086412, 0.22310504970250597, -0.03751155470444964, 0.056140064568148094, 0.13478356968872546, 0.12363779053096295, -0.11480789735900121, 0.12710297641680154, -0.013957380039241176, -0.06613661480917386, 0.05116837583124837, 0.14474711562812245, 0.22201988582736268, 0.19240501072069305, 0.12632598806406325, -0.12924463479721574, 0.22384415847894848, -0.00999290331943465, -0.048994908962196514, -0.15602453521577328, 0.048776584394806595, -0.1059085070330267], [1.4598018981840597, 1.0776617903381311, 0.24236226767322716, 2.648234094326967, -0.40520854623069863, 0.8760084237290933, 0.03522225060056792, -1.1077631713917817, -0.3622126011512813, 1.108731044008602, 0.34787316625496123, -1.8262888873274399, -0.2631618665631277, -2.3661407834915975, 0.39877316294804277, -0.23012067051555218, -1.2279951238094629, 1.0308338292639356, 0.24307690322409195, -0.012916431804830203, 0.0500781812712498, 0.9997092277252954, 0.9412286181135027, -0.6313906428941698, -0.07178062550478702, -2.3425788760617254, -2.2354885010364427, -2.1427409756803026, -1.9999711913926812], [-0.28700324422723145, 0.11593812482822714, 0.0282042552797506, 0.1853759878699551, 0.33432050230434135, 0.27870999476225833, 0.25336353398145356, 0.03501934950867409, 0.027331053076374692, 0.17439369605993904, 0.19859308528154548, -0.02562795381193853, 0.23355865489520516, 0.10955807427310528, 0.05248675278293973, 0.20782511192758782, 0.1569301172200536, 0.021159369141599726, 0.024266855685638994, 0.341252359266668, 0.16584666420950803, 0.26765010539710765, 0.33677844905178794, 0.2384350445495972, 0.10105659072940705, -0.21259990440630844, -0.0026801079511642456, -0.08242291957139969, -0.13283810019493103], [-0.14870871603488922, 0.061336979269981384, -0.06517046689987183, -0.08733173459768295, -0.07171574980020523, -0.06608855724334717, 0.07612715661525726, -0.07036309689283371, -0.09886492788791656, -0.11961288750171661, -0.07954321056604385, 0.1785818487405777, 0.08266891539096832, -0.1201016828417778, 0.15885673463344574, -0.12561103701591492, 0.14858223497867584, -0.11674126237630844, 0.0610039085149765, 0.09533615410327911, 0.05768696963787079, 0.15305648744106293, 0.00019697844982147217, 0.023189842700958252, -0.06499381363391876, 0.1015244573354721, -0.05437380075454712, -0.08453068137168884, 0.14080853760242462], [-0.7619931762635244, 5.622705229953519, -0.27935124474505824, 0.31740417916525543, 0.0925292731663137, 0.11173743211997085, -0.5324379008133966, -0.4473272326000407, -0.43005131189654233, -0.8275712277636709, -1.2620896862823698, -0.9205873788092711, -1.1366222163031618, -1.4964199808293794, -0.04532978082725189, -0.9438594073232744, -0.8164482363730929, -0.5827023895970233, -0.7206650686679823, -0.4149874783328483, 0.1313115678213166, 0.5134099212216723, -0.14519733318045472, 0.7480216334739118, 3.7836239127702442, 0.6031895983505582, 0.5924186949591526, 0.577609061476664, 0.5934559252500068], [-0.08403366804122925, -0.10354682058095932, -0.02270667254924774, -0.09470247477293015, 0.02845415472984314, -0.05414760112762451, 0.1757400780916214, 0.12602795660495758, 0.1790994256734848, -0.06555382907390594, 0.04708892107009888, 0.16743139922618866, -0.08607462048530579, 0.06803549826145172, -0.06820003688335419, -0.1127060204744339, 0.008127480745315552, -0.026229918003082275, 0.1536279171705246, -0.04083812236785889, 0.06532527506351471, 0.1517021209001541, 0.07727141678333282, 0.07543207705020905, 0.16158269345760345, 0.1817779690027237, -0.16749118268489838, -0.16332468390464783, -0.013671264052391052], [1.6047812001601431, 0.2476200274913832, 0.42264009359347127, 1.1190834247879415, 0.6103275611181548, 0.4037597877833817, 0.16937999024362305, 0.04050214618891386, 0.41603334814292287, 0.46361787248420533, 0.36259300940724254, 0.7033541102549434, 0.3439717539607999, 0.1826262407764942, 0.1025889004530527, 0.2230847750740919, 0.07658315840388306, 0.6378917867730918, 0.4074293439567236, 0.4936548925125183, 0.13267919140840265, 0.4775058024527556, 0.23992234038864518, 0.02544435791966845, 0.12598661919659102, 3.2209049035918484, 3.478190291699716, 3.5225849178060455, 3.595103708216325]], "layers.0.bias": [1.3978814627757608, -3.331960715527834, -0.09290736383731035, -0.2278829587337253, -0.13471775521431162, 4.388333437264679, -0.3154699803581573, 2.7167464014103104, -0.06772951668354711, -0.05748004245045717, -3.1851419449609795, -0.14168062806129456, -0.2081682896868261, -0.21656076178910533, -0.15970884758033674, -1.6916433563300093, -0.0930396193422519, -2.5689944340577147, 0.006701081991195679, -0.08560677938080608, 1.055348828296594, -0.10798777631303408, -0.22019515154272049, -2.3665064022037554, -0.20826780902171066, -0.003504425287246704, 0.830889549122926, 0.16016782820224762, 3.7114090949044156], "layers.2.weight": [[-0.10814204169556695, -0.2772402001413625, -0.04748288060177729, -0.15267489161305534, -0.2700737628220027, -0.29990872573713945, -0.051147034243746434, -0.1881432045777404, -0.20969101361727344, -0.2735407331949859, -0.10876503915941306, 0.04592670500278473, -0.2491695803907849, -0.0265105024583571, -0.26618736332244675, -0.1984733641674532, -0.1712298649647226, -0.3204364284842128, 0.09725727140903473, 0.12862811982631683, -0.18937356384821946, -0.11313081699793212, 0.16024194657802582, -0.14274018495079846, 0.06261290609836578, 0.14225588738918304, -0.294879193426087, 0.12677107751369476, -0.322855756059571], [0.0015997268165098945, -0.17843992594122768, -0.21112650605698016, -0.16676883782710972, -0.20830338970928247, -0.26736458290793025, -0.07682881301355733, -0.18548876225525174, -0.11109362119765576, -0.00743426298284353, -0.2622899392324933, 0.13303335011005402, -0.2136288862823616, -0.31147744519635334, -0.007165111232214897, -0.27233028687109656, 0.006461802390261264, 0.013595668603034614, -0.12674912810325623, -0.29337238758829814, -0.005838478037135041, -0.1236921554031164, 0.009584605693817139, -0.29930198609125525, -0.13506510853767395, -0.09455158561468124, -0.230068375847559, 0.04538792371749878, -0.0020760126379677], [0.06873854975857094, 1.1756613506817002, 0.02253293944405346, 0.07744699704833452, -0.008335386367632478, 0.15848982241376217, -0.03448624503357421, 0.17244105689275604, -0.08888324602527312, -0.03824360630979763, 0.13779701660297594, -0.04983749985694885, 0.04987577539742224, 0.037800560909130594, 0.22516796128598943, -0.18121180692925026, 0.06662970980011976, -0.03986160197867771, -0.06145109236240387, 0.08850051561884638, -0.03975415824135584, 0.2887626196701146, -0.23330639918067872, 0.1662904985100473, 0.23132447140613016, 0.16506145894527435, 0.2330165561046436, 0.14442001283168793, 0.3754446685786345], [0.016100086424196785, 0.911437862407235, -0.01735918019743743, -0.02561985610702421, -0.14086453762132117, -1.0043635123903685, 0.055981609386520685, -0.22027089239991568, 0.1228103789267713, 0.13590499189752428, 0.004562273089352711, 0.009963467717170715, 0.0029967134020396006, -0.08026674981518672, 0.00363395342699129, 0.0737683657656013, 0.06363413698312295, 0.08767502139012294, 0.13949353992938995, 0.21720095028224726, -0.2542022234427553, 0.28440265990346364, -0.03126873268445601, -1.4398908415666194, 0.2066293152628312, 0.14836974442005157, 0.23094324713597758, 0.05677364766597748, -0.14208341063670915], [-0.08287627657686102, -0.16494732840521598, -0.14928975691930166, -0.06084116905215735, -0.15232253912965293, -0.11325069979813733, -0.31210483852402576, -0.3034055121046163, -0.09009659022507861, -0.2235343583303751, -0.18689029164182988, -0.07148617506027222, -0.25602970047735835, -0.17564344419215053, -0.1899064779402709, -0.19061094291051758, -0.0684595890055362, -0.29580421053970496, -0.0031426697969436646, -0.30483304304090436, -0.1001486779520069, -0.055657336002443956, -0.06620576977729797, -0.029639549061865906, 0.035751864314079285, 0.015433445572853088, -0.06287958979594824, 0.06749163568019867, -0.13551636294505123], [-0.14258538411195532, -0.24428296911077324, -0.045504265913487385, -0.21147499083319432, -0.31845684335728647, -0.11353871437745772, -0.2537896669527033, -0.07689512853558042, -0.24898885512756305, 0.030238184696793218, 0.019595573412099176, 0.14243416488170624, 0.016627895148752767, -0.18532417709359458, -0.00734647651547895, -0.1357080879760123, -0.013182021379578164, -0.08735930332123963, -0.12493766844272614, 0.15477085347339964, -0.018321264768536245, -0.054695081209055994, -0.07485707104206085, -0.1404441502118071, 0.0528511106967926, 0.11176033318042755, -0.07026779078826176, -0.015108659863471985, -0.3106791223454889], [-0.09881733055993798, -0.1691089092766127, -0.1389429271221161, 0.006274044513702393, -0.15844638645648956, -0.29880952514979325, -0.12293960154056549, -0.1533989266780182, -0.12586189806461334, -0.08593553304672241, -0.3321648336522724, -0.1005338504910469, -0.0743195042014122, 0.12764109671115875, -0.05612468719482422, -0.3482640312342138, 0.13783054053783417, -0.04599578970211414, -0.17781786620616913, -0.1832604706287384, -0.35201317988294745, -0.20787457212623442, -0.1696583777666092, -0.23692991819100004, 0.10520951449871063, -0.0729183629155159, -0.16520503955381072, 0.04426535964012146, -0.0778716176300604], [0.08739691974527093, -0.02654070713766339, 0.11103281464381087, 0.1256047962698531, -0.12675335735603036, -0.7280594740180149, -0.11707217236832894, 0.0011870479451974194, -0.22475543006860893, 0.0722382842688896, -0.17393324289624718, 0.0684048980474472, 0.15776361331855437, -0.011959851548967004, 0.35264884826251935, 0.2006828462886533, 0.33392049514155403, -0.26867072460753183, -0.013299092650413513, 0.0037216060755618234, 0.05447235169067987, -0.7481925438572495, -0.1078955957206623, -0.9057918551944487, 0.034619089387539374, -0.03275485336780548, -0.07680289775166135, -0.066165991127491, 0.11823840568443067], [-0.05284516092720178, -0.3617732960458632, -0.09140673279762268, -0.12975452840328217, -0.04664906859397888, -0.04848532074764414, -0.07136689871549606, -0.12886795321188374, 0.18468935787677765, -0.10600695013999939, -0.2894781280510836, 0.011675909161567688, -0.03191627562046051, -0.1226613000035286, 0.09973521530628204, -0.2741622657385351, 0.0037842541933059692, -0.15103472747691044, 0.15962888300418854, 0.019898712635040283, -0.27653628467304864, -0.23140863209801876, 0.05957105755805969, -0.068658725305565, 0.11904199421405792, 0.09593759477138519, -0.3686689634866454, -0.065008245408535, -0.3316030852345545], [0.07756503041140964, 0.7298380736599139, 0.1625501080129875, 0.16979889904462367, 0.03855436476780203, 0.09775895660249874, 0.25374897987873707, -0.24570425329608775, -0.009404150369425844, -0.10546537096576028, 0.9490120302353436, -0.0003395378589630127, 0.23592933137242392, 0.0063002639010858105, 0.0908275650325371, 0.32234251510072587, 0.3076038525029748, 0.23770339985159375, 0.1581392139196396, 0.11607728308440066, -0.20474228678854894, 0.18823857047303266, -0.22731497768130546, 0.1889691433948768, 0.04484289811606451, 0.14618422091007233, -0.02088219008993261, -0.06349031627178192, -1.0447812480185812], [-0.20517951611358679, -0.3270603000523989, -0.18122516623535886, -0.019765450588898288, -0.16457670317636858, -0.1567001572161826, -0.12608742868275472, -0.1800394420078921, -0.21221647835568894, -0.16592585664678758, -0.02182118078502183, 0.10628579556941986, -0.1674608489613745, -0.14476313152644965, 0.034280446665240084, -0.2312169060488623, -0.043903252740213686, -0.29423205060071944, -0.09727924317121506, 0.1319621354341507, -0.2352000900528363, -0.15724433807682736, 0.06780858337879181, -0.08335564088770978, 0.03857232630252838, 0.06430086493492126, -0.24737699385883632, -0.0753740444779396, -0.17061493494058183], [-0.12792592297596714, -0.1792108669457672, -0.024141564965248108, -0.06354889273643494, -0.10388117853383264, -0.057841149434859136, -0.15278876931926702, -0.0350772869534879, -0.13187040411456724, -0.1893866413872785, 0.008186630691126283, 0.14717920124530792, -0.06725411862134933, -0.2684308917647629, 0.11942367255687714, -0.22832396752028591, -0.17002983391284943, -0.1962893979722425, 0.05454440414905548, 0.08128724992275238, -0.07374133355584711, -0.2809209580353122, 0.14346380531787872, -0.022579022197067984, -0.04324661195278168, 0.10139067471027374, -0.2385592956888445, 0.08534936606884003, -0.13022556285267953], [-0.05066300102116547, -0.13151403316839824, -0.11398570773617468, -0.32005360927130816, -0.09532115813791814, -0.27271617703745127, -0.255044209369873, -0.22441751232458437, -0.08028951129675649, -0.27092483349731333, -0.21347330183055133, -0.1410582810640335, -0.03325179690181302, -0.036324452824676265, -0.1170901617169651, -0.009798789423357592, -0.11224545031942236, -0.19138278318038204, 0.11785919964313507, 0.0036841786208012305, -0.28048301702088024, -0.0892070849140233, -0.11666371673345566, -0.23271480509437042, 0.069511279463768, -0.004943430423736572, -0.01112056601633907, -0.11147989332675934, -0.02628979154989458], [-0.07695330805451883, -0.9720660780959343, -0.3136603920115889, -0.2209810648442002, -0.22535801373520678, -0.9319302700285753, -0.06525055149461707, -0.33426356351588327, 0.0006023831826582286, -0.11237296383321659, -0.25349161533939113, -0.09365583211183548, -0.25918363334268296, -0.010784663507278022, -0.11066382344823142, -0.1599376295916482, -0.15403320932316789, -0.07388925687253572, -0.011864617466926575, -0.3001313254785868, -0.19101674385630626, -0.7631332351996798, 0.17676813900470734, -0.13453463364840892, 0.04249802231788635, -0.1854853630065918, -0.04099122528645688, -0.09552161395549774, -0.1723009771347361], [-0.07425683669824806, -0.32957920479350145, -0.14121435634683593, -0.1611279402453269, -0.1423474859522686, -0.0568488516240284, -0.27809874167800147, -0.2982703723979313, -0.05703330514729113, -0.0437006742145521, -0.0978615475445592, -0.011691853404045105, -0.01339201670160452, -0.3086453198281706, -0.12081211372723172, -0.20717125627770752, -0.06033956481094298, -0.22171368164501556, 0.05140496790409088, -0.13938761331820132, -0.12086132850673215, -0.21365968474759983, -0.13859547674655914, -0.02815392823793076, 0.04112851619720459, 0.06908951699733734, -0.18034914654205325, 0.1063895970582962, 0.031639898898193776]], "layers.2.bias": [-0.14392922787216456, -0.246626185439101, -1.803681117818139, -3.646298313308411, -0.029318327039423112, -0.18290027396159564, -0.010936867982421881, -1.6590296921277239, -0.12014458159846475, -3.4718149611094717, -0.018430892526772727, -0.32004782513580116, 0.019933951384057853, -0.9257997712532688, -0.02668773444499223], "layers.4.weight": [[-0.21885124178868076, -0.10742042654608167, -0.2787097816487171, -0.06922659571448041, 0.033298107491768696, -0.14238408199822816, -0.24536237120628357, -0.20462891869828667, -0.08641543984413147, -0.18714805983246083, -0.36020233218868786, -0.1817912459373474, -0.07104876444361286, -0.4073764747643549, -0.4068842057752606], [0.25395044684410095, 0.05804505944252014, -0.254870162819703, -0.31621831312561194, -0.2358350306749344, 0.019570648670196533, 0.14822828769683838, -0.06796479595363338, -0.11666198074817657, -0.008514449980184918, -0.1032390147447586, -0.018901737612500268, -0.31403461864176124, -0.17442776262760162, -0.18445788323879242], [0.04605199115883886, 0.20420905864587427, 0.20184322934012955, -0.05326352688358969, 0.3294657025167884, 0.1793533868664272, -0.022350997575684484, -0.0485496090966648, -0.39338622512311117, -0.6428592609030207, -0.03081739541586695, -0.007624350082541004, 0.2524393132069766, 0.134212253575657, 0.15594073287382612], [0.2165946066379547, -0.1944214552640915, -0.22942978143692017, 0.054334431886672974, 0.13691747188568115, -0.16363005340099335, -0.10325117409229279, -0.24793730676174164, 0.20363223552703857, -0.1623174548149109, 0.1669638454914093, 0.22106164693832397, -0.056184664368629456, 0.22194862365722656, -0.07389591634273529], [0.09818589165697703, 0.02119713016700917, -1.0336281268143803, 0.011612576041002813, -0.1051256504586382, 0.22602211829220478, 0.00564553983254204, 0.09079493325837384, -0.15752892610393548, -0.5434473108155708, -0.08969507629168647, 0.24404061460681364, 0.1029261943710289, -0.029211747094114414, 0.0923319308692221], [0.10009858470879865, -0.04341057358656361, -0.9646982037536047, 0.4128635707958153, 0.01260039213530404, 0.0791610772573235, 0.4308254625559412, -0.02275787850315743, -0.1120528288956245, 0.4544851918230877, 0.3399697041974256, 0.06392555283057727, 0.17328334389822608, 0.3511257114447924, 0.208055753626132], [0.12192359809607811, 0.1591048488967268, -0.3996321487340281, 0.023873455241763118, 0.33103039445329846, 0.12731531029911838, 0.11494674194007999, -0.347278532267324, -0.2107471819274192, -0.5924479254426608, -0.09835986920535786, 0.060435437266732644, 0.08177327326910344, -0.01763150091816746, 0.2627509055527767], [0.18789124488830566, -0.16810955107212067, -0.055651918053627014, 0.14809244871139526, 0.04858580231666565, -0.2047138214111328, 0.1482292115688324, 0.014780908823013306, -0.1361321210861206, -0.10232119262218475, 0.13508248329162598, 0.17123818397521973, 0.08373799920082092, -0.02737221121788025, 0.1927274763584137], [-0.16275115338717586, 0.08948880462327316, 0.6116930019680554, 0.07984292455880415, -0.05363709555525181, 0.3166059866817897, 0.13975192046198265, 0.1408457088547284, 0.01111885806368101, 0.18029218865807792, -0.039178170602560125, 0.1569887627590151, -0.061864948451282986, -0.12624879618947243, 0.05539664043143995], [-0.21242234306941554, -0.08822115361915567, -0.2065311704204815, -0.36441365547897897, -0.1512903869152069, -0.022886179128136567, 0.18807166814804077, -0.2505133282360644, 0.14588263630867004, -0.1002935222916671, -0.3224184266756246, 0.02022641897201538, -0.0998115296452117, -0.32324643506413875, -0.27069255998170366], [-0.1889063866592153, -0.1264327905213799, -0.3281108027247328, -0.07852404024482149, 0.014556116399851118, 0.03177250460901429, -0.173221617937088, 0.013521011085341835, 0.1339070200920105, 0.04267987867895983, -0.09106001622928886, -0.06456507742404938, -0.2595823118335658, -0.008862221849399853, 0.1018138958436978], [-0.03939059554402052, 0.3696317915446535, -0.21702046511899625, -0.12001595177935165, 0.13565194606781006, 0.11581621558512788, 0.06706535816192627, -0.251990353617348, 0.22976970672607422, -0.27103412265535654, 0.1260246490584197, 0.1836431324481964, 0.3264512671280346, 0.20858675574434332, -0.05010896833315256], [-0.11672480955879255, -0.20846618487928703, -0.16223829921200217, -0.2256563934489568, -0.2542969170000377, 0.03497275742870839, -0.09772507846355438, 0.02455533915335563, 0.2541934549808502, -0.32500122200332826, 0.022754878329258894, -0.030825316905975342, -0.006866543020048169, 0.08749112348639812, -0.12025530955197931], [0.09640127420425415, -0.24528686702251434, -0.2915978585132014, -0.1446250492180423, -0.052958086133003235, -0.09234730899333954, 0.0777415931224823, 0.03672590571719753, 0.09364515542984009, -0.14711667840025552, 0.21954849362373352, 0.10892192098511147, -0.23839277330394718, -0.11729072034358978, -0.20443010330200195], [-0.37787177455549753, 0.040064737599679864, -0.4001841717654055, -0.09664191808961795, -0.13741745924212403, 0.032644187907760115, -0.1617412269115448, 0.0694998057814107, 0.04924318194389343, -0.2850101459604096, 0.03187728327440502, -0.19418969750404358, -0.38244044843469127, -0.2508933168660818, -0.1625914055461952]], "layers.4.bias": [0.04950256202714934, -0.289794140893871, -0.23816620405109476, 0.011834770441055298, 0.6403679150344923, 2.6479899699268663, 0.2705968060770068, -0.07124686241149902, 0.8324134257205389, -0.1194652128942619, -0.2316641480747225, -0.5573720242754211, -0.3104886137155154, -0.12557577742467166, -0.007806342750266823], "layers.6.weight": [[0.06439607307035637, -0.08311375831351676, 0.0807586508611035, -0.18525218963623047, 0.7264196229882987, -0.12139461157988077, 0.06878303528677927, -0.1598428189754486, 0.5415981736236677, 0.10735982846368955, 0.09596630873361418, -0.03657384233800935, -0.003513275121782163, 0.13738810967547052, 0.11625808503487307]], "layers.6.bias": [2.3839735894154632]}