{"layers.0.weight": [[4.304354154753857, -0.3492789858488713, 0.40940286361678707, 2.1187649041774095, -1.4362567828800612, 1.6007658907773346, 0.3162299939860506, -0.01419225477945749, -0.04059646648629405, 1.1374690640722462, -0.9154158323933139, 0.050054167120253575, 1.1795791918995224, 0.7103288900217156, 0.30126556794797293, -1.327881237735233, 2.0727313863330745, -0.8098205120132194, 0.0008583769153000001, 0.8153056940019608, 0.15252113620288268, -0.8376083778541119, 2.1825482697463032, 0.12262521349295886, -0.37187536051985975, -8.669767701128217, -6.566696588939287, -5.40596662456478, -4.3511929686858295], [6.679570106157279, 1.4384134355278353, 0.11690787023792676, 0.24975491426927468, 1.005202978032555, 1.2923903655305877, 0.1634617856190336, 1.1414173134497212, -0.08755203721157757, -1.1080783237073188, 0.7309058657645381, 0.08230975923063691, -0.4606436082936281, 0.48128629347904983, 0.1779705803319646, 0.7741091754289446, -0.4976850750664649, -0.3130595963578896, 0.3008533260465774, 1.1049082083573547, 0.31814066565719185, -1.9289305688614151, -1.201589401552645, 1.5921112593594808, 0.46955065587158873, -8.077736613898274, -7.981011589465425, -7.925533413510296, -7.932273601712835], [-0.1128079816699028, 0.030324026942253113, 0.08988739550113678, 0.1853906661272049, 0.06070931255817413, -0.008074656128883362, 0.12750838696956635, -0.009095504879951477, 0.11903341114521027, 0.14744003117084503, -0.04375152289867401, 0.14043249189853668, -0.1304759979248047, 0.14070047438144684, -0.06101130694150925, 0.09694845974445343, -0.007006704807281494, 0.1844809204339981, -0.019217103719711304, -0.05700454115867615, 0.18568472564220428, 0.126007542014122, 0.12496139109134674, -0.14072000980377197, -0.16016215085983276, -0.07071749866008759, -0.15678802132606506, 0.029122695326805115, -0.18531307578086853], [0.9815682919394646, 0.9771474726976548, -0.6710181897091057, 0.31950037615163246, 0.05782308271183209, 0.14919960379371783, -0.11910787872457355, 0.6486109470872814, 0.25628864878158014, -0.20626176379147426, 0.2908194168829539, 0.40146621520686104, 0.4985773752855501, 1.577122336494384, -0.37342430442957475, 0.6826710847204318, 0.33237778630113624, 0.3864374575136122, 0.17103500116351067, 0.6941096920020747, 0.34376507838355236, -0.2848647532553979, -0.12554060759821606, -0.40567509442349703, -0.5107419445532293, -0.8882782556824967, -1.2696685752907617, -1.6903101956423079, -1.678422593451171], [-0.1405095326552685, 0.04900858618043536, 0.2705181739823541, 0.15693618502853635, 0.04855320431187879, 0.16758799334304705, 0.029230312867278584, 0.1808925811849134, 0.12545156644592628, 0.10911375233617869, 0.25972235754085127, 0.3024738299886846, 0.25256240368748795, 0.17094206577368906, 0.22426217176248928, 0.20625142952685363, 0.11200981760701124, 0.26878985963197355, 0.2182383319620829, 0.14033770372143645, 0.04593782634764948, 0.10227228010874453, 0.19459107185326666, 0.2496218670317582, 0.11000215558518062, -0.05277903378009796, -0.16145274606307042, -0.11020330339670181, -0.18395978212356567], [0.8326975644333371, 0.15889287840893787, 0.214656404535512, 0.3141312856390286, 0.30114351457259075, 0.38602241416953276, 0.45826972353542417, 0.24413249574014778, 0.1912826755483614, 0.3130247877142526, 0.31633666123070264, 0.6027055847645205, 0.2336507795099132, 0.25437466653666074, 0.4226744532840398, 0.37632868307984707, 0.3472154506312217, 0.26128658000211247, 0.1685037857393578, 0.23897073646778288, 0.11022873563883756, -0.05134033912552075, 0.046909206937650307, 0.2487431593366555, 0.20738352853124659, 0.02958800016581494, -0.5769863262785725, 0.11127754407022558, -0.15928728647738052], [-0.13642239570617676, -0.12680035829544067, 0.09127290546894073, 0.16152898967266083, 0.05454038083553314, -0.13841691613197327, 0.0780525952577591, 0.01236601173877716, 0.11174468696117401, 0.15403784811496735, 0.18252824246883392, -0.1308491826057434, -0.06385023891925812, 0.11029426753520966, 0.1564377099275589, -0.16199740767478943, 0.0855330377817154, -0.09115169197320938, 0.020315274596214294, 0.060781970620155334, -0.16167782247066498, -0.1656946837902069, 0.06461603939533234, -0.02578704059123993, 0.03255973756313324, -0.08131042122840881, 0.09350089728832245, 0.17086096107959747, 0.05997270345687866], [0.3950867379948948, 11.03168399534612, 0.04798072792467044, -0.35492094584542094, -1.4117878534843316, -3.5078850900525067, -0.09335162276830855, -3.0700632235582903, -0.056291495618827736, 4.268114803907761, 0.8155938315426929, 0.04143843631433395, -1.2295250596477691, -6.372504337687952, -0.39581425611601734, -2.321265800018784, 1.3572218522776338, 7.382030234784183, -0.9993842333467241, -3.580338363921989, -0.8531520116450717, 5.172837386648131, -2.0971271612382845, -4.571713123076546, 0.7552848336126214, -2.548508642909464, -2.5317178042032817, -2.533948048025805, -2.4940941516849557], [-0.09215346073634621, 0.21927537881820997, 0.010236880681089133, 0.14308157162120405, 0.07402937516581518, 0.2828969867124748, 0.020519275062523216, 0.15503626544315993, 0.016598286734785434, 0.048659824847786734, 0.04829885662264671, -0.06072798097607141, -0.03558156577622323, -0.012730130782483093, 0.041757503145685784, 0.10744752165883115, 0.2856446675466908, 0.1979496757383297, 0.31857005646250564, 0.31682823877985217, 0.029798359418724763, 0.1101096414164104, 0.14364441268577016, 0.03422693843157233, 0.11749472699665793, -0.02544333951250843, 0.022308967713614396, -0.0351455525900349, -0.1726027686375972], [-0.08595220326627985, 0.002250234832970441, 0.19887845724421724, 0.21729754869987508, 0.19029136555362114, 0.06694889855763987, 0.20758376823067204, 0.31976686842330826, -0.03259343377584465, 0.06608520551191129, 0.07326448178806813, 0.2923932033614685, 0.2141274393400421, 0.1280742470705371, 0.2682053016534071, 0.041295999015814225, 0.0004709557159578385, 0.20771762688595402, 0.024841637913757108, -0.019975294508087393, -0.01915734192712651, -0.007880327376624323, 0.276542089686491, 0.3123736655846688, 0.2439175557033626, -0.1766010549816139, -0.04219852241607306, -0.12710198436407744, -0.2552803292087899], [-0.1784057468175888, 0.1229277104139328, 0.026295408606529236, 0.035909608006477356, -0.14395132660865784, -0.15953698754310608, -0.0006693154573440552, 0.04723556339740753, 0.020542263984680176, -0.11621666699647903, 0.08623962104320526, -0.1814475655555725, 0.1828453689813614, -0.038103923201560974, 0.02282029390335083, -0.14093586802482605, 0.017962202429771423, -0.01934555172920227, 0.17520011961460114, -0.16242347657680511, 0.1791040450334549, 0.10516087710857391, -0.03411196172237396, 0.11715222895145416, 0.05533026158809662, -0.0063666850328445435, -0.16717484593391418, 0.08952189981937408, -0.0776687040925026], [-0.24072234189426872, 0.2046699571844459, 0.004603624107635737, 0.22903914625019897, 0.20720595843912754, 0.2067290925861719, 0.16541155721476788, 0.09086504751488002, 0.20022890164291646, -0.03230533574443504, -0.02025573468486844, -0.050923017602770945, -0.015467712065699472, 0.27632776489047167, 0.07088315925775168, 0.05638034383875819, 0.07236086164254621, 0.12845312546598758, 0.036718929729755226, 0.27642834027965746, 0.2907547888024947, 0.06718090337811762, 0.30067250599414785, 0.18374750984046326, 0.24342683445575192, 0.10363103449344635, -0.12972447276115417, 0.05363135251554011, 0.07122759521007538], [0.1498747020959854, -0.12999464571475983, 0.03869308531284332, 0.13240347802639008, 0.15278147161006927, 0.11261312663555145, 0.16384680569171906, 0.04907165467739105, 0.03803268074989319, -0.06846897304058075, 0.1720084697008133, 0.1495123952627182, -0.14411930739879608, 0.17782007157802582, 0.1788700371980667, 0.14140351116657257, 0.1040620356798172, 0.056970372796058655, -0.03418104350566864, 0.18337388336658478, -0.15476588904857635, -0.07577299326658249, 0.03248308598995209, 0.15674518048763275, 0.12273798882961273, 0.11427153646945953, 0.13894371688365936, -0.017102286219596863, -0.04150603711605072], [2.2630330556452645, 0.9635309257438104, 0.054588637191407, -2.263926400975307, 1.2484127946229027, 1.4573525566679253, 1.4471984358810006, 1.3698703352961474, -2.786983003077096, 3.958217899511317, 0.8638717813467589, -1.0319664121977732, -0.8021970536778251, 1.024750320229167, -0.15883170738759367, 3.5308221671257223, 0.16174565879355515, -0.36568484992338895, -0.5033448299546897, -0.11570729906221694, 4.592990825284713, -4.170008113735407, 0.41036372235725715, 2.86304230686906, 0.6032491002315636, 6.50786868082422, 4.595015358651161, 0.9258778609023612, -2.3170463849130374], [-0.40506822557321237, 0.09860186668284183, 0.285427558065869, 0.3619598765896499, 0.28146595221447523, 0.08560585583980916, 0.08446648404591467, 0.2829279533031403, 0.2329603455517862, 0.35022686254740965, 0.2837468043329165, 0.205813251475933, 0.2791184679208845, 0.3883123185802139, 0.26185574368935843, 0.40983394287427505, 0.0667898616642162, 0.3840664366681291, 0.05657716813405787, 0.34170893438255545, 0.12879760005989496, 0.23835110129047893, 0.06897452053754351, 0.08239633380618398, 0.10630316697777062, -0.37196779483478337, -0.09981248527765274, -0.12471061944961548, -0.11310744285583496], [-0.03552559018135071, 0.03723885118961334, 0.09722740948200226, -0.054712116718292236, -0.16122236847877502, 0.026377737522125244, 0.14951728284358978, 0.10354207456111908, 0.029783189296722412, 0.08277027308940887, 0.10427765548229218, -0.06334745138883591, -0.1251409351825714, 0.17426671087741852, 0.12281431257724762, -0.10156307369470596, 0.012106925249099731, 0.04149383306503296, 0.057200685143470764, 0.09438581764698029, 0.03660857677459717, 0.1207653135061264, 0.1700490564107895, 0.12002302706241608, 0.1807541698217392, 0.07097519934177399, 0.10339875519275665, 0.17382462322711945, -0.10312578082084656], [5.958169098350221, 2.0412800298028033, 0.7921349988066051, 2.593321595934023, 1.572051955675975, 2.0198500671457116, 1.0631029716049931, -0.3796343163393772, -0.1425232193124929, 1.1914160839069916, 1.4444644787906558, -0.20099802316452622, 0.6121059344380428, -0.025296955245091627, 0.38517612676951407, -0.9922935638729545, -0.7033643816587165, 0.5489676256469034, -0.3230211189718072, 0.47399079615270395, -0.11811919323017211, 2.875567651006596, 0.2926961020789747, 0.6390874866993703, -0.08614951788815967, 4.359865471547987, 2.6489066779430437, 1.2027435381291496, 0.3071494083934159], [0.1990124831311149, -0.7392299465497757, 1.1475460911384587, 1.7819081570967428, 0.6773057916435525, 0.6521570277521812, 0.6116108898362091, 0.21080841702687977, -0.22261590949254303, 0.22036472658808226, 0.774707797896564, -0.6510676913437915, 1.3189145113507346, -2.3789653167453606, 0.5363714306044126, 0.6546386102996066, -0.2850754787314409, -0.36609604786348593, 0.1521530666280515, -0.4405597628817977, -0.4246018246281809, 0.5200843965077826, 0.9750825002348015, -0.15234379920945726, 1.0276939825232023, -4.427755279065078, -2.5741711689214872, -2.7557452337333483, -3.0267097832540384], [0.7284167827499112, 0.13796638789372775, 0.06750405522975522, 0.233279561690084, 0.30011141995253904, 0.26726519209002947, 0.12387177096734073, 0.27785498009266885, 0.1445605132652776, 0.33543674505350574, 0.5966628790818942, 0.5903885508081591, 0.3679520238382186, 0.48028385149563985, 0.6134544920819844, -0.010186228209903553, 0.23678435188043853, 0.08040687196483999, 0.2863233677798286, 0.3292041118850342, 0.07196040157544926, 0.06644814557068912, 0.042402958944719106, 0.22542649979286866, 0.1237752880571336, 0.45619774748235425, -0.42935518414027446, -0.9424639123816563, -1.1466340913277677], [-0.3317473821225077, 0.2654683683140305, -0.8607956429510958, -2.1309153728724506, -7.2025772005161715, 4.045447361130838, 7.959657903927997, 1.1003430095338542, -0.38811211546766644, -5.962222126458523, -0.8179229737935255, 0.2445892156952555, -1.9001581521457445, -0.21535980592254786, 0.5355215792256811, 1.537938756716763, 5.438928649388507, 4.071710369858072, 5.221571332169573, -3.5723691940206304, 0.5098922368739633, -6.747572488259977, -4.7460726399501025, 2.2074322035868112, 1.345108901550017, 0.3609809464299745, 0.4179702210783947, 0.44950180322241556, 0.444522692774573], [-0.24788240683186688, 0.31898517562621487, 0.10504287385360368, 0.29115651799365283, 0.1638388852343545, 0.2609529460932303, 0.13460965548242798, 0.08446473169500239, 0.23377630050929724, 0.19180663937734116, 0.10924551798159898, 0.22583538776586368, 0.1867728335315842, 0.17979865155972086, -0.047052683310256055, 0.19348815447615955, 0.174081594691579, 0.051182503238202344, -0.02007939400679192, 0.26029880978032627, 0.3161793421070814, 0.24916016656851056, 0.07013607720359051, -0.04712861216319932, -0.023998393358665333, -0.30574071762406135, 0.008806646987340903, -0.2824215281731122, -0.11099923292755429], [-0.06561432986585694, 0.040755058782085844, 0.1433183807572771, 0.1434157439135811, -0.031146308050839754, 0.18922325462032388, 0.1359754457880565, 0.06157409661292182, 0.32589993822649993, 0.09759184160051686, 0.1194024024027039, 0.3095492210691153, 0.2581952310382498, 0.2566582667607072, 0.26665766165694765, 0.018200735388987883, 0.29674373061727827, 0.1776607284596841, -0.03524238311627897, 0.23400838200269286, 0.17776767374837688, 0.18212484772644275, -0.002047008192165117, 0.030521193194624333, 0.16916086739282976, -0.20148504973908438, -0.17698369812331488, -0.26615491637650096, -0.2712278714687579], [-0.23257578088988884, 0.25762624660172445, 0.22867567188236382, 0.11419940083344657, 0.2899721893960308, 0.09506512589389858, -0.01828268488469397, -0.05229787213659371, 0.2052887325092152, 0.05936047378910116, 0.28068864316434966, -0.029787010705961372, 0.09884023824753677, 0.24224352673016444, 0.15964212106659287, 0.25662521044900655, -0.05442743219077495, -0.04390653435044164, 0.048848236235124076, 0.0760720124880037, 0.2545982397922752, 0.12636682470192856, 0.08743258641764844, -0.023140536313712545, 0.2534070497821517, -0.04765938690761951, -0.1752479377426976, -0.22017546974229293, 0.0647028406311272], [-0.01262486403094342, -6.134156172396455, -1.8198305978869187, -3.0280553617986823, -0.39973845645954115, -2.2499795112530365, -0.8182323348420713, 0.8818494156102276, -1.098615995004456, 2.0018208941299824, 2.265189402428539, 11.309092193263394, -0.01438921321449374, -1.1143286644010564, 5.277777063483545, 0.16855626495845674, 0.5136991376391181, -0.11516171703450243, 1.2193060574247205, -2.1323241842658147, 2.3620160352467092, 1.5972866194286752, -4.687928175800487, -3.104031647854431, -0.7443312065069339, -0.9300364547291242, -0.9414069979031598, -0.9450519263204997, -0.9416126741583503], [0.709385790732935, 0.13309047423264697, 0.8912510815156309, 0.7453782708394149, 0.28472981178852247, 0.6980448943764062, 0.6471168456267151, 0.09529045092223558, 0.24329782824607732, 0.1369175640726228, 0.4612403593406109, 0.46188057806023186, 1.075879514581596, -0.16021120863901747, 0.7962542207574258, 0.4948611889880303, 0.706914734783637, 0.7668464085583998, 0.55307367517689, 0.22136087105845015, 0.2689989454374318, 0.17336554289707712, 0.16879027006811062, -0.24164823215729084, 0.24282971726785055, 2.315415304036876, 0.3182589767123935, 0.48481484092338445, -0.059763565996706736], [0.6330972127313202, 0.31072395894162597, -0.4498452184794657, -0.17219331349353462, 0.10395542680098376, 0.1414735627015257, 0.20578498780216478, 0.1401867845340336, 0.2787826775045721, 0.07033942280076913, 0.25362037000421717, 0.3583628381806445, 0.12104204911541636, 0.9329685434924507, 0.09127113259126653, 0.17965231685476254, 0.09799177557004915, 0.010527811448585717, 0.1650062483866733, 0.24493861919911813, 0.018276471629138365, -0.21056411006756887, -0.09651603035355133, 0.1278718878452747, 0.08984745067475848, -1.5648337397808303, -1.43224891123216, -1.5228865987667557, -1.5677753170370368], [-0.2100331586441884, 0.061701493425772934, 0.22548965890041564, -0.0261231869785908, 0.29762943350575083, 0.1944241469118746, 0.2794119636437982, 0.15924201506567295, 0.3161321068478597, 0.015519518998360182, -0.009415469836771195, 0.12109092021389724, 0.1897861794015909, 0.3340964922347396, 0.21499851722368873, 0.01085930613718501, -0.017857200724336775, 0.057016453277666336, 0.13113953896562075, 0.057742906480331216, 0.31246537554943055, 0.070865214277177, 0.3014785765012336, 0.0818390253813041, 0.2866257194990894, 0.0632891053702141, -0.12365031242370605, 0.012375033165799307, -0.03361848284713763], [-0.08934232031790183, 0.19537796542368727, 0.36394638722571226, 0.20487051184373858, 0.1163837619129705, 0.06409277491229474, 0.04179603938046639, 0.25532971079272604, 0.06740294686746097, 0.18864855535526986, 0.376515802211385, 0.03843316792584832, 0.2141889882709277, 0.19671064850240869, 0.09970304682454979, 0.306478508657824, 0.36389363235198313, 0.3431262785821063, 0.2402919678627673, 0.3266048142493869, 0.10652110737613413, 0.0364552380760551, 0.09892448047176992, 0.06969257096322358, 0.1239156963814804, -0.15161233386512973, -0.33719370015637434, -0.11328225499540803, -0.2364395753506958], [0.34455007089143563, -0.35279696524426263, -3.09746126966705, -3.4973209807800734, -4.197481386046281, -5.335705799109629, -2.978671136555902, 1.4840022915141908, 4.211025253117984, 0.18054526215201144, 0.8696025951799133, 2.5966577733016436, 2.9454733051521007, -1.7101838751986564, -1.6935924645126745, -0.005212941038281151, 4.2901413392391365, 0.07487955110470833, 1.2905408076526879, -2.0531100437621927, -3.067600051408829, -0.3712889155802608, -0.8942088757082867, 4.454772310722709, 7.208660364730749, -2.0785808117747333, -2.0397515041571457, -2.0222356648107036, -1.9922382952824735]], "layers.0.bias": [-6.499439518379098, -8.382687637654884, 0.10958017408847809, -1.6383270455308405, -0.14446308281977666, -0.13954435212044977, 0.09427215158939362, -2.639300811356691, -0.09484193717070724, -0.0879187860032937, 0.1362251490354538, -0.10634204533545026, -0.0647510215640068, 3.778001092688869, -0.2289902889124659, 0.1715223342180252, 2.5580491073231353, -3.9538780027294176, -0.3755030006317164, 0.6917605747601153, -0.140993196684821, -0.10055198290161106, 0.05847985219972707, -1.0464228488693001, 0.8645002150265338, -1.7711189174781627, -0.05150701686188312, -0.28005206729577353, -2.2831678063833984], "layers.2.weight": [[-0.837223897069744, -0.8570441470675488, -0.010068744421005249, -0.9308433050105638, -0.14787903428077698, -0.10406918078660965, -0.07860255986452103, -0.15503299236297607, 0.1364344209432602, 0.0954727977514267, -0.1467479169368744, -0.14291051030158997, 0.13211552798748016, -0.7692860416355459, -0.05596551299095154, -0.13919448852539062, -0.874664839739555, -0.6866647519243468, -0.16073867678642273, -0.936568638369342, -0.06811266392469406, 0.0711708515882492, 0.12766344845294952, -0.18313051760196686, -0.6702068548433917, 0.00293596088886261, 0.017021849751472473, -0.10517671704292297, -0.6960347001938503], [0.2838292397980574, -1.511049671188063, 0.12524764239788055, -0.4276192668388139, 0.11357374489307404, -0.1969796734312156, -0.09398471564054489, -0.5271425448915651, 0.17173257112746118, 0.17877887629850206, 0.08514384925365448, 0.28142897405501405, -0.05610072612762451, -0.36451806229615297, -0.27980574754536414, -0.15188944339752197, -0.20162394636286024, -0.9752206878376458, -0.1790527170421885, -0.31330718647783773, 0.21940384105681981, 0.3079421892493694, 0.004048087863347987, -0.7672462642237079, -2.3504134882246537, 0.033985306314706885, 0.10340950180574712, 0.01978003805650828, -0.30961079641141476], [-0.8826660923246096, -0.807593013584198, -0.11484798043966293, -0.8645310837558913, -0.10226663947105408, -0.6669400988009492, 0.10978375375270844, -0.08960040658712387, -0.1394156515598297, -0.13639119267463684, 0.10920827090740204, 0.07174424827098846, 0.11429570615291595, -0.11630339920520782, -0.18140743672847748, 0.05855925381183624, -0.8575421004941749, -0.673650408880595, -0.9422745097986966, -0.6255128555425886, -0.07055287063121796, -0.10388648509979248, -0.11965950578451157, -0.6057341359571662, -0.05096651613712311, 0.07658033072948456, 0.1150335818529129, -0.05039733648300171, -0.06536513566970825], [0.12805963309551327, -1.0505511771015261, 0.0609859973192215, -0.12304406470155943, 0.03176313936179552, -0.17766834674363563, 0.09052903950214386, -0.024777355855256755, 0.012732948936441607, 0.3738757507073749, 0.12474848330020905, 0.19715104099529468, -0.16578242182731628, 0.14527036288052178, -0.0018739253282546997, -0.1029481366276741, -0.1692214656992329, -0.0741474363345054, -0.07495905948825843, -0.7019230790395107, 0.0853758305311203, 0.17449040553407266, 0.17414226317650447, -0.172823050734817, 0.045152693627735704, -0.08637588354488933, 0.126242945121269, 0.28979318203366466, 0.060446841318394756], [0.04474464977124998, -0.5660288314841718, 0.08299081027507782, -0.07001562079605568, 0.09973758009225761, -0.3103624386723548, 0.03279803693294525, -0.006661721996321118, 0.1173101318730473, 0.018212911157930965, 0.09665413200855255, 0.1372957957226143, 0.011117666959762573, 0.011935022895101614, 0.3148325595732684, -0.10607557743787766, -0.18303848612342735, -0.25823128752399627, -0.11191328030739166, -0.7110324753237076, 0.030664459473268655, 0.052065915783462105, 0.020407720718783162, -0.6251729262973129, -0.12844671494637616, 0.039390656414000684, 0.163646533711176, 0.22227275149068768, -0.16976711660182842], [-0.19938324662018395, -0.8302350688872913, 0.022106066346168518, -0.23316452596566814, -0.2992480955603825, 0.026463011233118745, 0.06298026442527771, -0.1294691167088879, -0.07886085453681056, -0.004097487866628787, 0.10303683578968048, -0.15254445374011993, 0.1751972883939743, -0.20804244383080187, -0.17269448935985565, 0.012065008282661438, -0.12885594866117056, -0.2700178175140631, -0.003846398861257928, -0.2676350057754751, 0.031711578369140625, -0.12337808038298942, -0.21931999084161624, -0.7684093466743231, -0.11027282637605808, -0.32411723477560594, -0.20026355322292572, -0.08023452653811876, -0.23302349715310394], [-0.24475545742088553, 2.8022812093510763, -0.14679449796676636, 0.06057959941527543, 0.1548272355679931, 0.04691034770138021, -0.05902315676212311, 0.5244337740875004, 0.1829904569801981, 0.26310517184080845, -0.10744169354438782, 0.006333244977777299, 0.0463181734085083, 0.450061018317522, 0.18066014034173664, 0.1334487944841385, -1.3191135317118423, 0.08148640616869479, -0.010352043253790076, -1.0610258751050043, 0.2510637514962352, -0.021043782644231363, -0.024087007542156733, 0.23935342083740785, -0.05735869063370148, 0.3566430622015303, 0.1159142103761127, 0.22054114883788953, -0.2716644427912661], [-0.24482398699357916, -0.13877832766330092, 0.14015139639377594, -0.05775900396727956, -0.1806359476986429, -0.23237761186719444, -0.0805816650390625, -0.20154174851728532, -0.08117769183306296, -0.04085360486379298, -0.10784094780683517, 0.11987669765949249, -0.04254689812660217, -0.15879304530504665, -0.05966375768184662, 0.1485057920217514, -0.05422367341825119, -0.1261632937926782, -0.32559525867617983, 0.0021868477260323237, 0.06511233747005463, 0.03522052471839199, -0.27972389127553116, -0.2886318800088055, -0.27864391301874974, -0.2990239399278417, -0.05308967746721663, -0.13372145744740926, -0.2687385810088129], [0.12016838527221112, -0.446333622393203, -0.1198686733841896, -0.3028662723133083, 0.24538502721167482, -0.16845593335403575, -0.17955078184604645, -0.5405751950702681, 0.06596207582256802, 0.08435303298542575, -0.11183851212263107, 0.09416395415019342, 0.1594497710466385, -0.5471099141563346, 0.2503773553627733, 0.04355773329734802, 0.2128938103768304, -1.1051683788652018, -0.05326465220697844, -0.24643169139364154, -0.008595218306713845, -0.02153237715867806, 0.0690437901931414, -0.1262271171188031, -0.20704296823079915, -0.17187654466898736, 0.2979841917530246, 0.03961302999641391, 0.06688267257989021], [0.2519190175859542, 0.5416571502287174, -0.13581058382987976, -0.07925855746109793, -0.00347294496785531, -0.04679296095957694, 0.0409199595451355, 0.30499869301687316, 0.25414370968156574, 0.026567894031336164, 0.06277039647102356, 0.079538336154518, 0.18209032714366913, -0.14745350129106236, 0.1426735596812673, 0.09275461733341217, 0.9224546366946865, -0.08813743319264872, 0.05296762728987008, 0.1425485600290371, 0.11214061836675993, 0.3210902320603491, 0.32050827624165434, 0.4474114131828448, -0.046696726829906936, -0.02645004822248175, 0.07608422536192785, 0.039577022625630544, 0.33913991190550935], [-0.023598648581402207, -0.8428961149682791, -0.08534933626651764, -0.2787598018013555, 0.10967548191547394, -0.1407360759445716, -0.1458081305027008, -0.03537946716538519, -0.3000212453770568, -0.23241922132252224, 0.032375410199165344, 0.18566222488880157, -0.15478266775608063, -0.07622610868754638, 0.013646915555000305, 0.12200097739696503, -0.17366449540937448, -0.2300176255401775, -0.17945836936050125, -0.15780596012436537, -0.14789946377277374, -0.3318227742845064, 0.22896278428292946, -0.7919611883127777, -0.1498569189973035, 0.0275324797100336, -0.27808501140942377, -0.27834477914764383, -0.13863738879477377], [-0.8857172051360361, -0.7946850128309415, 0.11035634577274323, -0.8751197565395457, 0.05411584675312042, -0.6531989070968697, 0.0027978718280792236, -0.8987074223936732, 0.1301261931657791, -0.11689552664756775, -0.12491785734891891, -0.04384389519691467, -0.02698439359664917, -0.8134105912184145, 0.0906677395105362, -0.08358655124902725, -0.7804871865005168, -0.6882569768422556, -0.9608423167849678, -0.6439437792013335, 0.012771472334861755, 0.05654427409172058, 0.16258995234966278, -0.692081776035707, -0.62440653657647, -0.007544517517089844, -0.014796048402786255, -0.18523764610290527, -0.9223734496048662], [-0.1065062899104454, -0.17991777296045178, -0.03456810116767883, -0.013883756402665379, -0.11538590559832897, -0.21318490090323813, -0.1834028959274292, -0.3084211313478434, -0.1148527489832147, 0.023558363712338246, 0.059801697731018066, -0.07665546983480453, -0.13187001645565033, -0.06062777143789085, -0.18029078841209412, -0.1788903921842575, -0.17840863885005634, -0.26029116788036816, -0.2625742245653977, -0.16463872951831643, 0.06917421519756317, -0.1498493771038647, 0.002418727587951979, -0.31408934903608465, -0.03510493627902159, -0.1244831067094905, -0.0375748924859977, -0.1777806440263625, -0.1252396687707351], [-0.13151062998186253, -0.12439107137973593, -0.12606996297836304, 0.02586065624643626, -0.33408900376396233, -0.17738164756954117, 0.1448904424905777, -0.11269000105521734, -0.10471062706112375, 0.023351494685879527, 0.08983127772808075, -0.16069437563419342, -0.030236944556236267, -0.16969241357537973, -0.021287009119987488, -0.133078470826149, 0.03229151998672958, -0.04930552133642623, -0.26291606607770246, -0.2898309358468709, -0.1259119212627411, -0.04246490279174032, -0.12449562611067434, -0.1039695432470848, -0.19885920091277112, -0.07330354252002061, -0.06617020588365773, -0.10079078981773314, -0.22696602084058326], [-0.03085464839548783, -0.23124038685444118, -0.0467827171087265, -0.2814445123971215, 0.019293980209680154, -0.1396437070879903, -0.1210273951292038, -0.19648621703501656, -0.2945282298680849, -0.0023228233503626884, 0.11696536839008331, -0.17615430057048798, 0.03547723591327667, -0.16489906296288723, -0.07508401572704315, -0.13126540184020996, -0.022315108814361453, -0.27082539160193025, -0.08985305621822856, -0.06022793716376738, 0.08948014676570892, -0.25783768891446535, -0.09465603522105978, -0.09815534304708934, -0.10340355535050587, 0.022863735077354074, -0.21144746739194614, -0.0369787733871795, 0.010594970075026725]], "layers.2.bias": [-0.9117957728169361, 1.9832551014015514, -0.8861512763617407, -0.8255668225594776, -1.3376269711217326, -0.760928606455021, -6.86752882811, -0.13732013118022252, -1.1477616505703674, -4.612452716644397, -0.7900572449472808, -0.6275031138121914, -0.3160296816395479, -0.27569608912086724, -0.13803853592892135], "layers.4.weight": [[0.5502689915167793, 0.1841394666973512, -0.6849197493364683, -0.029580832004272327, 0.2921967063489573, -0.09548010094189895, -0.6472124189596976, 0.015205566232741044, -0.4208900022532181, -1.1517220986854966, -0.25218864225585286, -0.5235777625367952, 0.1657522570357334, 0.23562540980699992, -0.25333720467727416], [0.2454032599925995, -0.03629687428474426, -0.22610072791576385, 0.15092593431472778, -0.2683537661376003, -0.3096743670118859, -0.010655142955573765, -0.014072903169287389, -0.056310973911235636, -0.24820337833975029, -0.08597805343716797, 0.1449744999408722, 0.07525274157524109, 0.06511373151433979, -0.3162046946245959], [0.19206646084785461, -0.20197585303586946, 0.029715418815612793, -0.06777975199382741, -0.35069932074276206, -0.3481142092616124, -1.0687299191964803, 0.06900840836511342, -0.13208138287735638, -0.8508214958037044, -0.23975594847980644, 0.19590377807617188, -0.15642362850529576, -0.09426814427834371, 0.017056269611213423], [0.12065356969833374, -0.06578901072389556, 0.10981646180152893, 0.038786791437015244, -0.03061359900967173, -0.3098082621431381, -0.06970290833237426, 0.09817321010959286, -0.1897005748677549, -0.2162618952808744, 0.007143122011174311, 0.0612906813621521, 0.04581290145756555, 0.09664058852629112, -0.23864039863566888], [0.534833818645702, -0.3059959260835919, -0.7641422338474252, -0.14311629290285463, 0.13970923924524634, 0.34049502193043835, 0.4306970109304642, 0.1350322098993048, -0.1870248895961424, -0.047539190964742455, -0.0009537307040962341, -0.7328687197990117, 0.15581690303814447, -0.07961388600807844, 0.04479183280979974], [0.21055260300636292, -0.3012960201417708, 0.0994330644607544, -0.23346821861113845, -0.2052153189060959, -0.08692343533039093, -0.7623959029276727, -0.19191139936447144, -0.025249728955967093, -0.2454801386329428, 0.011703789234161377, -0.0052900612354278564, -0.05374026298522949, -0.10160353779792786, 0.024513721466064453], [0.2509154975414276, -0.2979035043581935, 0.010718703269958496, -0.014152112908071278, -0.22696405757143773, 0.0005466731216510191, -0.31440624018224916, 0.08664501243654214, -0.13515374354407936, -0.025776478884878534, -0.1800099389497562, -0.08504010736942291, -0.01847657643648482, -0.20785927909272758, -0.03426826273282545], [0.20273631811141968, -0.7034398648198886, 0.15940243005752563, 0.11228576302528381, 0.040040940046310425, -0.2343413531780243, -0.10331131517887115, -0.11069221794605255, -0.8913254728670496, -0.8860832022851184, 0.024073302745819092, 0.20806095004081726, 0.07637462019920349, -0.16390565037727356, -0.20692896842956543], [0.0011830925941467285, -0.3282763692806254, -0.012912184000015259, -0.3259088102381456, -0.13744579182033384, -0.2561014296420071, -0.3586019402382498, -0.15465699293349364, -0.010887896863399667, -0.9069235611106073, -0.16991875542829765, -0.09207801520824432, -0.25008207058775117, -0.39958099841256495, -0.24706866634985072], [-0.08365979790687561, -0.18108132481575012, -0.10074874758720398, -0.22513651847839355, -0.19786927103996277, 0.09669533371925354, -0.2335205227136612, -0.24518640339374542, -0.06278161704540253, -0.18591424822807312, -0.14630016684532166, 0.13783350586891174, -0.01378832757472992, -0.14718899130821228, -0.019699007272720337], [-0.23674100637435913, -0.13619425892829895, 0.11765217781066895, 0.009406089782714844, 0.062118738889694214, -0.1272401660680771, -0.11116133630275726, 0.23505792021751404, -0.22099825739860535, -0.1938508003950119, -0.15838775038719177, 0.1901422142982483, 0.11868217587471008, 0.10213309526443481, 0.07707604765892029], [0.5445770189071143, 0.043522030740658454, -0.555722392706884, -0.43918647755197787, -0.0974834864501845, 0.06851310316291634, -0.2258206230675993, 0.16546200865583674, -0.2848365983034717, -0.13350819131823619, 0.5197974531994827, -0.7493543069481212, -0.058888829059601744, 0.28921983433510223, -0.05488143399295625], [-0.12322030961513519, 0.6862205921137655, -0.24720942974090576, -0.14692670106887817, 0.09571999311447144, 0.21086472272872925, -0.004675519787719304, 0.05603042244911194, -0.9060687495459028, -0.5171612655668028, 0.16697260737419128, -0.1564095914363861, 0.10161265730857849, -0.0031364262104034424, -0.23109914362430573], [-0.16821786761283875, -0.20854181632236, -0.9657696712631761, 0.04814662280724167, -0.06807720951139407, 0.14448993063081408, -0.638217374745307, 0.13016283495207503, -0.18192363841329826, -0.7371857376214335, 0.15155933361834603, -0.7126735640451355, 0.3190666851546353, 0.32066515996947054, -0.254297257449699], [0.9063707281516563, -0.04862640800730384, -0.5068869301810306, 0.6652341659776512, -0.0017836579754101317, 0.38816741957627077, 0.11335792719823205, -0.07038699842546725, -0.10450273569458, 0.43922298894454354, -0.7150647553923513, -0.5272250589743894, -0.08933777098638662, -0.07734921071624339, 0.2034844127756536]], "layers.4.bias": [-0.17196307742860403, -0.1570170454422155, -0.7062867234014679, -0.01146543178305466, -0.9674644581767669, -0.8854102029461705, -0.2788965881808278, -0.5512588191721224, -0.6032060532023549, -0.2276211529970169, -0.15900316834449768, 2.841521915419133, -0.2748887537634669, -0.8539017302496713, -0.6930184389957849], "layers.6.weight": [[-0.5340420836646071, 0.1084465579340379, 0.5497410647285567, 0.016350196943149636, 0.09390816620289016, 0.46787582290467655, -0.1073175101656087, 0.7495926946804289, -0.3232882960231442, -0.060525208711624146, 0.1397913694381714, -0.0776166174926852, -0.26004823999603044, 0.728577759316948, 0.3213439113644414]], "layers.6.bias": [3.0299785461250046]}